{"learner":{"attributes":{"scikit_learn":"{\"_estimator_type\": \"regressor\"}"},"feature_names":["pm_25_1_day_lag","pm_25_2_day_lag","pm_25_3_day_lag","temperature_2m_mean","precipitation_sum","wind_speed_10m_max","wind_direction_10m_dominant"],"feature_types":["float","float","float","float","float","float","float"],"gradient_booster":{"model":{"gbtree_model_param":{"num_parallel_tree":"1","num_trees":"100"},"iteration_indptr":[0,1,2,3,4,5,6,7,8,9,10,11,12,13,14,15,16,17,18,19,20,21,22,23,24,25,26,27,28,29,30,31,32,33,34,35,36,37,38,39,40,41,42,43,44,45,46,47,48,49,50,51,52,53,54,55,56,57,58,59,60,61,62,63,64,65,66,67,68,69,70,71,72,73,74,75,76,77,78,79,80,81,82,83,84,85,86,87,88,89,90,91,92,93,94,95,96,97,98,99,100],"tree_info":[0,0,0,0,0,0,0,0,0,0,0,0,0,0,0,0,0,0,0,0,0,0,0,0,0,0,0,0,0,0,0,0,0,0,0,0,0,0,0,0,0,0,0,0,0,0,0,0,0,0,0,0,0,0,0,0,0,0,0,0,0,0,0,0,0,0,0,0,0,0,0,0,0,0,0,0,0,0,0,0,0,0,0,0,0,0,0,0,0,0,0,0,0,0,0,0,0,0,0,0],"trees":[{"base_weights":[1.8031831E-6,-6.789675E0,1.9477787E1,-1.2839014E1,-2.5867704E-1,1.3812223E1,3.5830498E1,-8.1889925E0,-1.4781755E1,4.1364894E0,-5.150635E0,2.1420702E1,7.5165873E0,2.8891441E1,4.590314E1,-2.9630995E0,-1.0811137E1,-8.600867E0,-1.58334E1,1.0774003E1,2.0809467E0,2.3776639E0,-7.068298E0,2.6099045E1,1.4980105E1,1.4276056E1,3.3752441E0,3.24913E1,1.9658659E1,5.344682E1,3.0795103E1,-6.2839384E0,-8.704438E-2,-1.406831E1,-6.448377E0,-1.0141742E1,-2.3470948E0,-1.8562254E1,-1.4043211E1,2.3637943E1,9.206825E0,-1.2124292E0,6.4836655E0,-2.3036757E0,5.6753197E0,-9.139895E0,-5.553903E0,3.6219086E1,2.3127949E1,2.0282639E1,9.064178E0,9.355731E0,1.7873117E1,8.163307E0,-8.964191E-1,3.4524357E1,2.0676506E1,3.0516079E1,5.2963324E0,5.430485E1,9.3824106E-1,4.065171E1,1.7571278E1,-2.0784552E0,2.3509881E0,-3.818749E-1,3.7137353E0,-2.0505774E0,-4.651764E0,-2.0413892E0,2.450988E0,-1.8440175E0,-3.5495803E0,-1.4951763E0,2.313735E0,-4.708735E0,-5.8416758E0,-3.1381366E0,-4.505245E0,-8.49012E-1,8.378291E0,3.6599317E0,1.9879198E0,4.4202155E-1,-1.0818031E0,4.044242E0,1.1994587E0,2.0286824E-1,-3.044786E0,2.1865497E0,-8.861679E-2,-2.799631E0,1.6509881E0,-9.1292983E-1,-2.3721936E0,1.9882411E0,1.1068351E1,3.4313834E0,7.338969E0,3.9357955E0,7.22207E0,4.128854E0,1.1186724E0,9.340263E-1,3.9571543E0,5.608247E0,8.411856E-1,4.448454E0,2.0202882E0,-8.692247E-1,1.6058934E0,5.558834E0,1.0910652E1,7.596802E0,2.6137352E0,5.851348E0,1.1420109E1,2.2010852E-1,3.7084131E0,1.3362538E1,1.8456606E1,1.9932364E1,9.113876E0,7.601318E0,1.522699E0],"categories":[],"categories_nodes":[],"categories_segments":[],"categories_sizes":[],"default_left":[0,0,0,0,0,0,0,0,0,0,0,0,0,0,0,0,0,0,0,0,0,0,0,0,0,0,0,0,0,0,0,0,0,0,0,0,0,0,0,0,0,0,0,0,0,0,0,0,0,0,0,0,0,0,0,0,0,0,0,0,0,0,0,0,0,0,0,0,0,0,0,0,0,0,0,0,0,0,0,0,0,0,0,0,0,0,0,0,0,0,0,0,0,0,0,0,0,0,0,0,0,0,0,0,0,0,0,0,0,0,0,0,0,0,0,0,0,0,0,0,0,0,0,0,0],"id":0,"left_children":[1,3,5,7,9,11,13,15,17,19,21,23,25,27,29,31,33,35,37,39,41,43,45,47,49,51,53,55,57,59,61,63,65,67,69,71,73,75,77,79,81,83,85,87,89,91,93,95,97,99,101,103,105,107,109,111,113,115,117,119,-1,121,123,-1,-1,-1,-1,-1,-1,-1,-1,-1,-1,-1,-1,-1,-1,-1,-1,-1,-1,-1,-1,-1,-1,-1,-1,-1,-1,-1,-1,-1,-1,-1,-1,-1,-1,-1,-1,-1,-1,-1,-1,-1,-1,-1,-1,-1,-1,-1,-1,-1,-1,-1,-1,-1,-1,-1,-1,-1,-1,-1,-1,-1,-1],"loss_changes":[4.287476E5,9.497444E4,7.714356E4,1.1153125E4,2.4897924E4,2.9728727E4,1.3701125E4,5.0380938E3,5.5774062E3,8.300232E3,7.9281406E3,8.1060703E3,9.553508E3,3.682039E3,8.1555312E3,1.1933174E3,3.4050078E3,1.2289131E3,3.4031875E3,2.68542E3,6.779271E3,1.7420681E3,1.3202012E3,4.0332734E3,3.6118516E3,2.1336172E3,4.384258E3,1.4960156E3,5.919951E3,2.248E3,3.3263027E3,5.81926E2,1.02101984E3,1.3497344E3,6.1283154E2,6.295166E2,7.5462054E2,4.612578E2,1.4381016E3,1.7821299E3,9.231592E2,1.7282214E3,3.424338E3,1.1056837E3,6.378533E2,5.6641797E2,1.4827188E3,4.5501562E2,1.7182031E3,1.3949785E3,1.4277305E3,1.3233931E3,8.631367E2,8.6208594E2,1.4410823E3,1.5977812E3,6.6877E2,1.0867754E3,5.711648E2,1.1350938E3,0E0,2.4850605E3,1.3270918E3,0E0,0E0,0E0,0E0,0E0,0E0,0E0,0E0,0E0,0E0,0E0,0E0,0E0,0E0,0E0,0E0,0E0,0E0,0E0,0E0,0E0,0E0,0E0,0E0,0E0,0E0,0E0,0E0,0E0,0E0,0E0,0E0,0E0,0E0,0E0,0E0,0E0,0E0,0E0,0E0,0E0,0E0,0E0,0E0,0E0,0E0,0E0,0E0,0E0,0E0,0E0,0E0,0E0,0E0,0E0,0E0,0E0,0E0,0E0,0E0,0E0,0E0],"parents":[2147483647,0,0,1,1,2,2,3,3,4,4,5,5,6,6,7,7,8,8,9,9,10,10,11,11,12,12,13,13,14,14,15,15,16,16,17,17,18,18,19,19,20,20,21,21,22,22,23,23,24,24,25,25,26,26,27,27,28,28,29,29,30,30,31,31,32,32,33,33,34,34,35,35,36,36,37,37,38,38,39,39,40,40,41,41,42,42,43,43,44,44,45,45,46,46,47,47,48,48,49,49,50,50,51,51,52,52,53,53,54,54,55,55,56,56,57,57,58,58,59,59,61,61,62,62],"right_children":[2,4,6,8,10,12,14,16,18,20,22,24,26,28,30,32,34,36,38,40,42,44,46,48,50,52,54,56,58,60,62,64,66,68,70,72,74,76,78,80,82,84,86,88,90,92,94,96,98,100,102,104,106,108,110,112,114,116,118,120,-1,122,124,-1,-1,-1,-1,-1,-1,-1,-1,-1,-1,-1,-1,-1,-1,-1,-1,-1,-1,-1,-1,-1,-1,-1,-1,-1,-1,-1,-1,-1,-1,-1,-1,-1,-1,-1,-1,-1,-1,-1,-1,-1,-1,-1,-1,-1,-1,-1,-1,-1,-1,-1,-1,-1,-1,-1,-1,-1,-1,-1,-1,-1,-1],"split_conditions":[4.5E1,2.7E1,6.9E1,1.8668005E1,2.0969805E1,1.7643673E1,8.4E1,8.857083E0,1.8339438E2,6.0633335E0,1.6303378E2,2.1914526E2,1.6303378E2,2.2657131E1,1.967195E1,2E1,2.1E1,2.5E1,1.8E1,1.0296251E1,3.6E1,3.4E1,3.2E1,3.98825E0,1.3979872E1,5.5440018E1,2.34E1,8.6E1,1.7476389E2,3.105381E2,1.444888E2,3.2414255E2,4.4E1,1.6558229E2,6.6E1,2.175097E1,5E1,7.9049993E0,2E-1,5.624684E1,2.2139424E2,1.5725037E1,1.3513193E1,4.4E1,1.181125E1,1.8867502E1,2.66327E1,3.472022E0,1.7891016E1,5.2E1,9.873749E0,6.8404174E0,9.500001E0,2.0019254E2,6E1,3.7E1,1.4086594E2,5.1E1,7.2E1,9.8E1,9.3824106E-1,4.494583E0,1.1E0,-2.0784552E0,2.3509881E0,-3.818749E-1,3.7137353E0,-2.0505774E0,-4.651764E0,-2.0413892E0,2.450988E0,-1.8440175E0,-3.5495803E0,-1.4951763E0,2.313735E0,-4.708735E0,-5.8416758E0,-3.1381366E0,-4.505245E0,-8.49012E-1,8.378291E0,3.6599317E0,1.9879198E0,4.4202155E-1,-1.0818031E0,4.044242E0,1.1994587E0,2.0286824E-1,-3.044786E0,2.1865497E0,-8.861679E-2,-2.799631E0,1.6509881E0,-9.1292983E-1,-2.3721936E0,1.9882411E0,1.1068351E1,3.4313834E0,7.338969E0,3.9357955E0,7.22207E0,4.128854E0,1.1186724E0,9.340263E-1,3.9571543E0,5.608247E0,8.411856E-1,4.448454E0,2.0202882E0,-8.692247E-1,1.6058934E0,5.558834E0,1.0910652E1,7.596802E0,2.6137352E0,5.851348E0,1.1420109E1,2.2010852E-1,3.7084131E0,1.3362538E1,1.8456606E1,1.9932364E1,9.113876E0,7.601318E0,1.522699E0],"split_indices":[0,0,0,5,5,5,0,3,6,3,6,6,6,5,5,0,0,0,0,5,0,0,0,3,5,6,5,1,6,6,6,6,1,6,2,5,2,3,4,6,6,5,5,2,3,3,5,6,6,0,3,3,4,6,0,2,6,1,2,0,0,3,4,0,0,0,0,0,0,0,0,0,0,0,0,0,0,0,0,0,0,0,0,0,0,0,0,0,0,0,0,0,0,0,0,0,0,0,0,0,0,0,0,0,0,0,0,0,0,0,0,0,0,0,0,0,0,0,0,0,0,0,0,0,0],"split_type":[0,0,0,0,0,0,0,0,0,0,0,0,0,0,0,0,0,0,0,0,0,0,0,0,0,0,0,0,0,0,0,0,0,0,0,0,0,0,0,0,0,0,0,0,0,0,0,0,0,0,0,0,0,0,0,0,0,0,0,0,0,0,0,0,0,0,0,0,0,0,0,0,0,0,0,0,0,0,0,0,0,0,0,0,0,0,0,0,0,0,0,0,0,0,0,0,0,0,0,0,0,0,0,0,0,0,0,0,0,0,0,0,0,0,0,0,0,0,0,0,0,0,0,0,0],"sum_hessian":[3.24E3,2.403E3,8.37E2,1.247E3,1.156E3,6.23E2,2.14E2,3.69E2,8.78E2,6.09E2,5.47E2,2.81E2,3.42E2,1.29E2,8.5E1,1.24E2,2.45E2,1.29E2,7.49E2,1.43E2,4.66E2,1.11E2,4.36E2,1.61E2,1.2E2,1.29E2,2.13E2,9.1E1,3.8E1,5.5E1,3E1,5.7E1,6.7E1,1.39E2,1.06E2,1.03E2,2.6E1,2.93E2,4.56E2,1.4E1,1.29E2,2.67E2,1.99E2,4.6E1,6.5E1,1.82E2,2.54E2,3.4E1,1.27E2,6.2E1,5.8E1,5.6E1,7.3E1,1E2,1.13E2,7.6E1,1.5E1,2.1E1,1.7E1,5.4E1,1E0,1.6E1,1.4E1,5.5E1,2E0,6.2E1,5E0,2.4E1,1.15E2,1.04E2,2E0,3.2E1,7.1E1,2.1E1,5E0,7.5E1,2.18E2,1E2,3.56E2,2E0,1.2E1,5.8E1,7.1E1,1.26E2,1.41E2,5.1E1,1.48E2,3.4E1,1.2E1,5.1E1,1.4E1,1.8E2,2E0,1.24E2,1.3E2,1E0,3.3E1,1.4E1,1.13E2,2.3E1,3.9E1,3E1,2.8E1,2.2E1,3.4E1,6.9E1,4E0,1.6E1,8.4E1,8.6E1,2.7E1,9E0,6.7E1,1E1,5E0,1E1,1.1E1,1.1E1,6E0,2.6E1,2.8E1,3E0,1.3E1,8E0,6E0],"tree_param":{"num_deleted":"0","num_feature":"7","num_nodes":"125","size_leaf_vector":"1"}},{"base_weights":[5.0828855E-2,-4.7581196E0,1.3846367E1,-9.007709E0,-1.7018078E-1,9.626014E0,2.5301702E1,-1.0882385E1,-6.38816E0,5.16174E0,-2.2236595E0,1.5809786E1,5.64273E0,3.1230827E1,1.8819155E1,-8.385202E0,-1.2919297E1,-3.2219331E0,-8.322906E0,1.0496433E1,2.9494126E0,1.7486713E0,-4.728165E0,2.3477005E1,1.3123618E1,9.985259E0,2.7355533E0,2.3900305E1,4.010502E1,2.6168514E1,1.0994004E1,-3.2132297E0,-9.411645E0,-6.291513E0,-1.3271796E1,8.192536E0,-4.0592628E0,-5.0551047E0,-9.076907E0,8.041091E0,1.7322802E1,1.9277374E-1,6.698727E0,3.0716007E0,-3.3716934E0,-7.567553E0,-3.9343684E0,2.0790792E1,3.6687252E1,1.6565805E1,8.083677E0,9.101078E0,2.4541836E1,5.2988324E0,-2.0086668E0,1.021875E1,2.561123E1,2.9854832E1,4.8812702E1,3.081848E1,1.625765E1,1.1855761E1,-2.9573336E0,1.1239715E0,-1.6867102E0,-1.9912533E0,-3.1271458E0,-3.5390306E-1,-3.135921E0,-3.1773632E0,-4.1388917E0,-3.290108E-2,3.4573157E0,3.31004E0,-1.3095914E0,-1.8021983E0,1.7772298E-1,-3.2219477E0,-2.4199877E0,-2.949305E-1,2.860975E0,5.857773E0,3.1427538E0,4.7015724E-1,-9.125777E-1,2.9583302E0,1.0586625E0,-7.3813066E-2,1.6854985E0,6.7694306E-1,-1.9696423E0,-3.8110237E0,-1.9510756E0,-4.0443876E-1,-1.4418869E0,4.4053717E0,7.494823E0,1.2120519E1,4.7373176E0,4.0696368E-1,5.239439E0,4.309379E0,1.7985159E0,-2.1234338E0,2.8852766E0,9.351364E0,3.0358977E0,2.3562515E0,6.8890786E-1,-1.136796E0,1.3005636E0,-5.900303E-1,4.1943884E0,1.0086936E1,6.9062166E0,4.155509E0,1.1253683E1,1.5027984E1,2.5197499E0,9.753098E0,2.6199598E0,6.280776E0,2.464066E0,-2.0947752E0,3.708616E0,-1.9447752E0,1.1358338E-1],"categories":[],"categories_nodes":[],"categories_segments":[],"categories_sizes":[],"default_left":[0,0,0,0,0,0,0,0,0,0,0,0,0,0,0,0,0,0,0,0,0,0,0,0,0,0,0,0,0,0,0,0,0,0,0,0,0,0,0,0,0,0,0,0,0,0,0,0,0,0,0,0,0,0,0,0,0,0,0,0,0,0,0,0,0,0,0,0,0,0,0,0,0,0,0,0,0,0,0,0,0,0,0,0,0,0,0,0,0,0,0,0,0,0,0,0,0,0,0,0,0,0,0,0,0,0,0,0,0,0,0,0,0,0,0,0,0,0,0,0,0,0,0,0,0,0,0],"id":1,"left_children":[1,3,5,7,9,11,13,15,17,19,21,23,25,27,29,31,33,35,37,39,41,43,45,47,49,51,53,55,57,59,61,63,65,67,69,71,73,75,77,79,81,83,85,87,89,91,93,95,97,99,101,103,105,107,109,111,113,115,117,119,121,123,125,-1,-1,-1,-1,-1,-1,-1,-1,-1,-1,-1,-1,-1,-1,-1,-1,-1,-1,-1,-1,-1,-1,-1,-1,-1,-1,-1,-1,-1,-1,-1,-1,-1,-1,-1,-1,-1,-1,-1,-1,-1,-1,-1,-1,-1,-1,-1,-1,-1,-1,-1,-1,-1,-1,-1,-1,-1,-1,-1,-1,-1,-1,-1,-1],"loss_changes":[2.150804E5,4.6868902E4,4.027003E4,6.059172E3,1.2679454E4,1.503466E4,8.060328E3,3.5845E3,3.176998E3,3.7693125E3,8.325402E3,4.634801E3,4.706871E3,6.5875547E3,6.038383E3,1.716332E3,8.4633594E2,1.94479E3,7.524297E2,1.4362461E3,2.3655396E3,2.205094E3,1.1264766E3,1.4018594E3,2.9888027E3,1.7072402E3,2.758975E3,1.2832227E3,3.0947344E3,2.0797344E3,6.963076E2,9.6002344E2,7.001758E2,4.5567902E2,3.839453E2,3.8852777E2,9.1191797E2,3.4235364E2,3.535293E2,9.675635E2,1.5747998E2,5.960621E2,9.375542E2,2.1812593E3,1.2191493E3,5.239297E2,9.022842E2,9.897793E2,6.05791E1,1.4256426E3,8.9777E2,1.263084E3,4.49438E2,1.1097979E3,9.2012714E2,4.4013477E2,4.297539E2,2.6665117E3,9.248281E2,1.0985781E3,5.806909E2,5.8228076E2,4.949454E1,0E0,0E0,0E0,0E0,0E0,0E0,0E0,0E0,0E0,0E0,0E0,0E0,0E0,0E0,0E0,0E0,0E0,0E0,0E0,0E0,0E0,0E0,0E0,0E0,0E0,0E0,0E0,0E0,0E0,0E0,0E0,0E0,0E0,0E0,0E0,0E0,0E0,0E0,0E0,0E0,0E0,0E0,0E0,0E0,0E0,0E0,0E0,0E0,0E0,0E0,0E0,0E0,0E0,0E0,0E0,0E0,0E0,0E0,0E0,0E0,0E0,0E0,0E0,0E0],"parents":[2147483647,0,0,1,1,2,2,3,3,4,4,5,5,6,6,7,7,8,8,9,9,10,10,11,11,12,12,13,13,14,14,15,15,16,16,17,17,18,18,19,19,20,20,21,21,22,22,23,23,24,24,25,25,26,26,27,27,28,28,29,29,30,30,31,31,32,32,33,33,34,34,35,35,36,36,37,37,38,38,39,39,40,40,41,41,42,42,43,43,44,44,45,45,46,46,47,47,48,48,49,49,50,50,51,51,52,52,53,53,54,54,55,55,56,56,57,57,58,58,59,59,60,60,61,61,62,62],"right_children":[2,4,6,8,10,12,14,16,18,20,22,24,26,28,30,32,34,36,38,40,42,44,46,48,50,52,54,56,58,60,62,64,66,68,70,72,74,76,78,80,82,84,86,88,90,92,94,96,98,100,102,104,106,108,110,112,114,116,118,120,122,124,126,-1,-1,-1,-1,-1,-1,-1,-1,-1,-1,-1,-1,-1,-1,-1,-1,-1,-1,-1,-1,-1,-1,-1,-1,-1,-1,-1,-1,-1,-1,-1,-1,-1,-1,-1,-1,-1,-1,-1,-1,-1,-1,-1,-1,-1,-1,-1,-1,-1,-1,-1,-1,-1,-1,-1,-1,-1,-1,-1,-1,-1,-1,-1,-1],"split_conditions":[4.5E1,2.7E1,6.8E1,2.1E1,1.6311613E1,1.6575644E1,1.444888E2,5E-1,1.995972E1,7.125833E0,2.0081001E2,4.494583E0,1.7141159E2,8.4E1,1.8861387E1,1.7895416E2,4.2279162E0,3.152917E0,1.85062E2,4E1,3.6E1,4.8999996E0,3E1,6.5E1,2.134971E2,2.069875E1,2.541763E1,3.9E1,6.3294598E1,7E1,1.4502917E1,1.6E1,8.005E0,2.3678595E2,1.9440819E2,5.2583325E-1,1E1,5E1,2.3E1,7.31615E1,4.4E1,3.6E1,1.5903923E2,3.4E1,1.2106118E2,1.8E1,1.967195E1,5.5E1,8.6E1,1.8E1,1.14862E1,1.6E1,2.1646666E1,2.4632536E2,6.2E1,7E1,4.8E1,7.0570827E0,1.07E2,1.9000001E0,7.6591663E0,1.9049999E0,7E1,1.1239715E0,-1.6867102E0,-1.9912533E0,-3.1271458E0,-3.5390306E-1,-3.135921E0,-3.1773632E0,-4.1388917E0,-3.290108E-2,3.4573157E0,3.31004E0,-1.3095914E0,-1.8021983E0,1.7772298E-1,-3.2219477E0,-2.4199877E0,-2.949305E-1,2.860975E0,5.857773E0,3.1427538E0,4.7015724E-1,-9.125777E-1,2.9583302E0,1.0586625E0,-7.3813066E-2,1.6854985E0,6.7694306E-1,-1.9696423E0,-3.8110237E0,-1.9510756E0,-4.0443876E-1,-1.4418869E0,4.4053717E0,7.494823E0,1.2120519E1,4.7373176E0,4.0696368E-1,5.239439E0,4.309379E0,1.7985159E0,-2.1234338E0,2.8852766E0,9.351364E0,3.0358977E0,2.3562515E0,6.8890786E-1,-1.136796E0,1.3005636E0,-5.900303E-1,4.1943884E0,1.0086936E1,6.9062166E0,4.155509E0,1.1253683E1,1.5027984E1,2.5197499E0,9.753098E0,2.6199598E0,6.280776E0,2.464066E0,-2.0947752E0,3.708616E0,-1.9447752E0,1.1358338E-1],"split_indices":[0,0,0,0,5,5,6,4,5,3,6,3,6,0,5,6,3,3,6,0,0,4,0,2,6,3,5,2,6,2,3,2,3,6,6,3,2,2,2,6,0,2,6,0,6,2,5,0,2,2,5,2,3,6,0,0,2,3,2,4,3,3,0,0,0,0,0,0,0,0,0,0,0,0,0,0,0,0,0,0,0,0,0,0,0,0,0,0,0,0,0,0,0,0,0,0,0,0,0,0,0,0,0,0,0,0,0,0,0,0,0,0,0,0,0,0,0,0,0,0,0,0,0,0,0,0,0],"split_type":[0,0,0,0,0,0,0,0,0,0,0,0,0,0,0,0,0,0,0,0,0,0,0,0,0,0,0,0,0,0,0,0,0,0,0,0,0,0,0,0,0,0,0,0,0,0,0,0,0,0,0,0,0,0,0,0,0,0,0,0,0,0,0,0,0,0,0,0,0,0,0,0,0,0,0,0,0,0,0,0,0,0,0,0,0,0,0,0,0,0,0,0,0,0,0,0,0,0,0,0,0,0,0,0,0,0,0,0,0,0,0,0,0,0,0,0,0,0,0,0,0,0,0,0,0,0,0],"sum_hessian":[3.24E3,2.403E3,8.37E2,1.247E3,1.156E3,6.13E2,2.24E2,7.25E2,5.22E2,3.21E2,8.35E2,2.39E2,3.74E2,1.15E2,1.09E2,3.28E2,3.97E2,1.99E2,3.23E2,9.3E1,2.28E2,3.23E2,5.12E2,6E1,1.79E2,1.49E2,2.25E2,6.5E1,5E1,5.5E1,5.4E1,5.5E1,2.73E2,2.1E1,3.76E2,1.3E1,1.86E2,6.2E1,2.61E2,7E1,2.3E1,1.32E2,9.6E1,2.57E2,6.6E1,1.1E2,4.02E2,5.2E1,8E0,1.05E2,7.4E1,1.42E2,7E0,1.46E2,7.9E1,8E0,5.7E1,2.5E1,2.5E1,3.6E1,1.9E1,5.1E1,3E0,1.4E1,4.1E1,7.5E1,1.98E2,1E1,1.1E1,6.5E1,3.11E2,4E0,9E0,3E0,1.83E2,5.3E1,9E0,9.5E1,1.66E2,1E1,6E1,1.6E1,7E0,9.3E1,3.9E1,4.7E1,4.9E1,1.12E2,1.45E2,2.4E1,4.2E1,1.7E1,9.3E1,1.02E2,3E2,2.3E1,2.9E1,6E0,2E0,6E0,9.9E1,1.7E1,5.7E1,4E0,1.38E2,4E0,3E0,7.8E1,6.8E1,6.2E1,1.7E1,2E0,6E0,1.1E1,4.6E1,9E0,1.6E1,2.4E1,1E0,3.3E1,3E0,1.1E1,8E0,1E0,5E1,1E0,2E0],"tree_param":{"num_deleted":"0","num_feature":"7","num_nodes":"127","size_leaf_vector":"1"}},{"base_weights":[7.286756E-2,-3.0400107E0,1.09570465E1,-5.809928E0,8.145001E-1,8.580715E0,2.1115675E1,-7.4882874E0,-3.6712217E0,6.714423E0,-2.6332968E-1,1.4284376E1,6.460064E0,2.6001915E1,1.4864324E1,-3.782086E0,-8.205681E0,-1.4982115E0,-5.3354774E0,3.9003499E0,9.731037E0,2.6863148E0,-1.7902877E0,8.79936E0,1.6892126E1,9.943516E0,2.7110915E0,2.196807E1,3.3190884E1,2.307782E1,8.291305E0,2.2440274E0,-4.97517E0,-6.577444E0,-9.116304E0,1.0250194E0,-3.4009194E0,-2.684438E0,-6.020976E0,5.2874675E0,-2.498755E0,1.0050245E1,-2.2271948E0,3.6598325E0,-3.3304627E0,-6.196958E-1,-4.48969E0,6.204187E0,1.8144184E1,-5.3500175E-1,1.7404907E1,1.0804753E1,-1.8202171E0,4.721992E0,-5.653741E-1,6.9760923E0,2.5014538E1,5.23456E0,3.724381E1,2.5014887E1,5.6859636E0,4.1859326E0,1.263343E1,1.2408795E-1,6.376927E0,-1.7254184E-1,-1.662427E0,-2.4107535E0,-1.5092149E0,-3.3363638E0,-2.5052698E0,-6.678168E-2,1.5664276E0,-4.1880522E-2,-1.6166781E0,2.3646776E-2,-1.3066652E0,-2.3235493E0,-1.5804862E0,1.8157072E0,-2.7112594E0,-1.6231246E0,9.7672445E-1,-5.0472164E-1,3.1645885E0,2.1083309E-1,1.8640306E0,-1.847751E0,1.1013317E0,-3.3107674E-1,1.7427264E0,-7.751176E-1,-2.2604618E0,2.1517978E0,-1.5094734E0,6.14418E0,1.5260644E0,1.1275879E0,-2.012383E0,6.0234737E0,3.807733E0,2.0843623E0,4.0964627E0,-1.8786315E0,1.9879837E0,7.397865E-2,2.0870469E0,3.5482687E-1,-1.0555049E0,3.838732E0,-3.2605257E0,7.73872E0,-1.0521669E0,1.310698E1,5.9855676E0,7.850084E0,-2.2236672E-1,1.9471413E0,4.908663E-1,2.2149596E0,-1.3514661E0,4.8046145E0,-7.085278E-1],"categories":[],"categories_nodes":[],"categories_segments":[],"categories_sizes":[],"default_left":[0,0,0,0,0,0,0,0,0,0,0,0,0,0,0,0,0,0,0,0,0,0,0,0,0,0,0,0,0,0,0,0,0,0,0,0,0,0,0,0,0,0,0,0,0,0,0,0,0,0,0,0,0,0,0,0,0,0,0,0,0,0,0,0,0,0,0,0,0,0,0,0,0,0,0,0,0,0,0,0,0,0,0,0,0,0,0,0,0,0,0,0,0,0,0,0,0,0,0,0,0,0,0,0,0,0,0,0,0,0,0,0,0,0,0,0,0,0,0,0,0,0,0],"id":2,"left_children":[1,3,5,7,9,11,13,15,17,19,21,23,25,27,29,31,33,35,37,39,41,43,45,47,49,51,53,55,57,59,61,63,65,67,69,71,73,75,77,79,81,83,-1,85,87,89,91,93,95,97,99,101,103,105,107,109,111,-1,113,115,117,119,121,-1,-1,-1,-1,-1,-1,-1,-1,-1,-1,-1,-1,-1,-1,-1,-1,-1,-1,-1,-1,-1,-1,-1,-1,-1,-1,-1,-1,-1,-1,-1,-1,-1,-1,-1,-1,-1,-1,-1,-1,-1,-1,-1,-1,-1,-1,-1,-1,-1,-1,-1,-1,-1,-1,-1,-1,-1,-1,-1,-1],"loss_changes":[1.0984203E5,2.6920639E4,1.7223945E4,5.238328E3,6.7106323E3,6.995676E3,3.7677031E3,2.1518398E3,2.3318467E3,1.3457471E3,4.0268665E3,2.1113184E3,5.575508E3,1.4458008E3,3.155878E3,9.817687E2,9.5866016E2,1.3573599E3,6.489629E2,7.765746E2,5.017422E2,1.7987075E3,1.8583982E3,1.1727563E3,9.565586E2,2.268832E3,1.3731079E3,2.1547969E3,9.4521484E2,7.67374E2,5.888545E2,7.9161475E2,2.783557E2,5.235117E2,5.7926953E2,6.3989825E2,1.0430952E3,3.559076E2,3.3555176E2,8.326487E2,2.8569748E2,4.6799414E2,0E0,1.9815845E3,8.7424255E2,1.2880791E3,1.01364526E3,5.0399512E2,2.313977E2,1.312299E2,1.0427539E3,2.1805918E3,6.418144E2,1.288511E3,4.1713623E2,1.1775632E3,1.0262754E3,0E0,1.2461543E3,7.3153516E2,2.4123535E0,5.889976E2,8.9994556E2,0E0,0E0,0E0,0E0,0E0,0E0,0E0,0E0,0E0,0E0,0E0,0E0,0E0,0E0,0E0,0E0,0E0,0E0,0E0,0E0,0E0,0E0,0E0,0E0,0E0,0E0,0E0,0E0,0E0,0E0,0E0,0E0,0E0,0E0,0E0,0E0,0E0,0E0,0E0,0E0,0E0,0E0,0E0,0E0,0E0,0E0,0E0,0E0,0E0,0E0,0E0,0E0,0E0,0E0,0E0,0E0,0E0,0E0,0E0,0E0],"parents":[2147483647,0,0,1,1,2,2,3,3,4,4,5,5,6,6,7,7,8,8,9,9,10,10,11,11,12,12,13,13,14,14,15,15,16,16,17,17,18,18,19,19,20,20,21,21,22,22,23,23,24,24,25,25,26,26,27,27,28,28,29,29,30,30,31,31,32,32,33,33,34,34,35,35,36,36,37,37,38,38,39,39,40,40,41,41,43,43,44,44,45,45,46,46,47,47,48,48,49,49,50,50,51,51,52,52,53,53,54,54,55,55,56,56,58,58,59,59,60,60,61,61,62,62],"right_children":[2,4,6,8,10,12,14,16,18,20,22,24,26,28,30,32,34,36,38,40,42,44,46,48,50,52,54,56,58,60,62,64,66,68,70,72,74,76,78,80,82,84,-1,86,88,90,92,94,96,98,100,102,104,106,108,110,112,-1,114,116,118,120,122,-1,-1,-1,-1,-1,-1,-1,-1,-1,-1,-1,-1,-1,-1,-1,-1,-1,-1,-1,-1,-1,-1,-1,-1,-1,-1,-1,-1,-1,-1,-1,-1,-1,-1,-1,-1,-1,-1,-1,-1,-1,-1,-1,-1,-1,-1,-1,-1,-1,-1,-1,-1,-1,-1,-1,-1,-1,-1,-1,-1],"split_conditions":[4.8E1,3E1,7.6E1,2.2E1,1.3513193E1,1.4512064E1,1.444888E2,1.57908325E1,2.0969805E1,3.8E1,1.8339438E2,5.5E1,1.9440819E2,8.000001E-1,1.5941944E1,5.5175E0,4E-1,1.0815414E1,1.8339438E2,8E-1,3.5074197E2,6.8E0,2.66327E1,5.4E1,1.4743623E1,9.9E0,2.3219301E1,4.069584E0,3.2930737E1,9.49875E0,2.1769868E2,5.4070835E0,1.0105681E1,1.7E1,1.5E1,3.0204236E2,1.7476389E2,2.7E1,2.3E1,5.8E1,4E1,1.6E1,-2.2271948E0,6.882633E1,1.4607001E1,1.8294584E1,4.1E1,8E-1,8E1,4E1,2.1835898E2,4.4E1,1.546325E1,3.5E1,1.0509166E1,9.2E1,2.9951483E1,5.23456E0,2.4063513E1,1.41E2,8.2E1,2.0579709E2,3.0577875E2,1.2408795E-1,6.376927E0,-1.7254184E-1,-1.662427E0,-2.4107535E0,-1.5092149E0,-3.3363638E0,-2.5052698E0,-6.678168E-2,1.5664276E0,-4.1880522E-2,-1.6166781E0,2.3646776E-2,-1.3066652E0,-2.3235493E0,-1.5804862E0,1.8157072E0,-2.7112594E0,-1.6231246E0,9.7672445E-1,-5.0472164E-1,3.1645885E0,2.1083309E-1,1.8640306E0,-1.847751E0,1.1013317E0,-3.3107674E-1,1.7427264E0,-7.751176E-1,-2.2604618E0,2.1517978E0,-1.5094734E0,6.14418E0,1.5260644E0,1.1275879E0,-2.012383E0,6.0234737E0,3.807733E0,2.0843623E0,4.0964627E0,-1.8786315E0,1.9879837E0,7.397865E-2,2.0870469E0,3.5482687E-1,-1.0555049E0,3.838732E0,-3.2605257E0,7.73872E0,-1.0521669E0,1.310698E1,5.9855676E0,7.850084E0,-2.2236672E-1,1.9471413E0,4.908663E-1,2.2149596E0,-1.3514661E0,4.8046145E0,-7.085278E-1],"split_indices":[0,0,0,0,5,5,6,5,5,0,6,0,6,4,5,3,4,3,6,4,6,4,5,2,6,4,5,3,6,3,6,3,5,0,0,6,6,2,2,1,1,1,0,6,3,3,1,4,2,1,6,2,3,2,3,1,5,0,5,0,0,6,6,0,0,0,0,0,0,0,0,0,0,0,0,0,0,0,0,0,0,0,0,0,0,0,0,0,0,0,0,0,0,0,0,0,0,0,0,0,0,0,0,0,0,0,0,0,0,0,0,0,0,0,0,0,0,0,0,0,0,0,0],"split_type":[0,0,0,0,0,0,0,0,0,0,0,0,0,0,0,0,0,0,0,0,0,0,0,0,0,0,0,0,0,0,0,0,0,0,0,0,0,0,0,0,0,0,0,0,0,0,0,0,0,0,0,0,0,0,0,0,0,0,0,0,0,0,0,0,0,0,0,0,0,0,0,0,0,0,0,0,0,0,0,0,0,0,0,0,0,0,0,0,0,0,0,0,0,0,0,0,0,0,0,0,0,0,0,0,0,0,0,0,0,0,0,0,0,0,0,0,0,0,0,0,0,0,0],"sum_hessian":[3.24E3,2.52E3,7.2E2,1.466E3,1.054E3,5.85E2,1.35E2,8.2E2,6.46E2,1.62E2,8.92E2,1.57E2,4.28E2,7.4E1,6.1E1,1.34E2,6.86E2,2.81E2,3.65E2,8.5E1,7.7E1,3.04E2,5.88E2,5.2E1,1.05E2,2.21E2,2.07E2,5E1,2.4E1,2.6E1,3.5E1,2.2E1,1.12E2,2.49E2,4.37E2,1.21E2,1.6E2,7.6E1,2.89E2,7E1,1.5E1,7.6E1,1E0,2.62E2,4.2E1,4.11E2,1.77E2,4.2E1,1E1,3E0,1.02E2,2.06E2,1.5E1,1.28E2,7.9E1,9E0,4.1E1,6E0,1.8E1,2.3E1,3E0,1.9E1,1.6E1,2.1E1,1E0,1.3E1,9.9E1,1.26E2,1.23E2,1.17E2,3.2E2,9.4E1,2.7E1,6.1E1,9.9E1,2.9E1,4.7E1,8.5E1,2.04E2,6.7E1,3E0,1E1,5E0,3E0,7.3E1,1.22E2,1.4E2,3E1,1.2E1,3.83E2,2.8E1,1.1E2,6.7E1,3.9E1,3E0,8E0,2E0,2E0,1E0,6.3E1,3.9E1,8.9E1,1.17E2,1E1,5E0,4.3E1,8.5E1,5E1,2.9E1,7E0,2E0,4E1,1E0,1.2E1,6E0,2.2E1,1E0,2E0,1E0,1.4E1,5E0,1.3E1,3E0],"tree_param":{"num_deleted":"0","num_feature":"7","num_nodes":"123","size_leaf_vector":"1"}},{"base_weights":[6.9452375E-2,-2.5464358E0,6.6218243E0,-4.673097E0,-4.3949458E-1,4.573032E0,1.3366333E1,-1.8218331E0,-5.2373066E0,2.0019305E0,-1.6518078E0,7.5511055E0,1.8541579E0,1.1119688E1,1.8984838E1,7.184823E-1,-4.317178E0,-2.7803514E0,-5.716683E0,2.6071373E-1,4.044928E0,1.6080652E0,-2.5372026E0,1.0097862E1,4.638809E0,1.1995617E0,1.2243419E1,1.507731E1,8.557039E0,2.9649572E1,1.4079022E1,-2.6417098E0,3.3808856E0,-4.8005714E0,1.6606486E0,-2.1127448E0,-7.3145804E0,-6.9515686E0,-4.995013E0,-1.6257205E0,2.1268919E0,6.812606E0,-2.2203098E-1,4.919938E0,-9.537746E-1,-2.377744E0,-1.1047773E1,1.2513394E1,5.9353194E0,6.5962067E0,1.4384676E0,-5.6626365E-2,5.085639E0,1.40439825E1,6.298847E-1,2.3242117E1,1.1308847E1,3.01518E0,1.0876138E1,3.5740356E1,1.1511277E1,1.6351595E1,-2.6604455E0,1.4199042E0,-1.1896591E0,-6.678245E-1,1.6783472E0,-1.724104E0,-6.3298297E-1,-4.6373218E-1,8.9612556E-1,-2.032235E-1,-1.0999515E0,-1.2037357E0,-2.895466E0,-2.1413324E0,1.5715925E0,-5.9959877E-1,-1.5904001E0,7.95127E-1,-6.9381434E-1,-2.898514E-1,1.4408374E0,3.3586917E0,1.5185783E0,3.6755738E-1,-1.4673481E0,3.8793793E0,9.8700154E-1,-1.2357572E0,3.6863083E-1,-3.9102536E-1,-9.859781E-1,-1.9436176E0,-4.132658E0,1.2896547E0,4.270122E0,2.4625738E0,-1.0779877E-1,2.63843E0,9.8146313E-1,-2.4641654E0,1.0357946E0,5.0511503E-1,-6.1413777E-1,3.1558793E0,2.3032823E-1,8.556727E0,2.863987E0,1.0842484E0,-1.2484417E0,4.770337E0,1.0582176E1,2.2154615E0,5.062746E0,2.4974325E0,-1.6756726E-2,3.8923466E0,1.1453645E0,3.485546E0,1.254452E1,4.4215984E0,-6.9384617E-1,5.388376E0,6.40679E-1,-1.4587185E0,-1.03161626E-1],"categories":[],"categories_nodes":[],"categories_segments":[],"categories_sizes":[],"default_left":[0,0,0,0,0,0,0,0,0,0,0,0,0,0,0,0,0,0,0,0,0,0,0,0,0,0,0,0,0,0,0,0,0,0,0,0,0,0,0,0,0,0,0,0,0,0,0,0,0,0,0,0,0,0,0,0,0,0,0,0,0,0,0,0,0,0,0,0,0,0,0,0,0,0,0,0,0,0,0,0,0,0,0,0,0,0,0,0,0,0,0,0,0,0,0,0,0,0,0,0,0,0,0,0,0,0,0,0,0,0,0,0,0,0,0,0,0,0,0,0,0,0,0,0,0,0,0],"id":3,"left_children":[1,3,5,7,9,11,13,15,17,19,21,23,25,27,29,31,33,35,37,39,41,43,45,47,49,51,53,55,57,59,61,63,65,67,69,71,73,75,77,79,81,83,85,87,89,91,93,95,97,99,101,103,105,107,109,111,113,115,117,119,121,123,125,-1,-1,-1,-1,-1,-1,-1,-1,-1,-1,-1,-1,-1,-1,-1,-1,-1,-1,-1,-1,-1,-1,-1,-1,-1,-1,-1,-1,-1,-1,-1,-1,-1,-1,-1,-1,-1,-1,-1,-1,-1,-1,-1,-1,-1,-1,-1,-1,-1,-1,-1,-1,-1,-1,-1,-1,-1,-1,-1,-1,-1,-1,-1,-1],"loss_changes":[5.556849E4,1.0379844E4,1.2720617E4,1.8453008E3,3.4514412E3,5.7429707E3,2.502789E3,1.2201826E3,1.1171543E3,1.3756215E3,2.252488E3,2.4674902E3,2.5220012E3,1.4531348E3,2.7217168E3,8.677653E2,2.8826758E2,4.6585217E2,6.817871E2,7.427464E2,2.1036155E3,1.421602E3,8.056228E2,1.7355879E3,9.9280566E2,1.7186267E3,4.511936E2,1.5832842E3,1.2138623E3,1.5771582E3,1.679294E3,4.3856973E2,6.826808E2,2.1706104E2,3.864228E1,3.0973907E2,1.1561316E2,7.047373E2,4.5842188E2,3.145865E2,8.8197327E2,7.720425E2,4.8575858E2,9.106847E2,6.613843E2,5.844861E2,4.784778E1,1.535709E3,9.759868E2,6.9486475E2,1.2337378E3,9.2837524E2,2.0097559E3,9.648877E2,7.223517E1,1.0289619E3,8.146948E2,4.8964362E2,9.575923E2,1.4191074E3,3.017818E2,8.3119336E2,2.8933826E1,0E0,0E0,0E0,0E0,0E0,0E0,0E0,0E0,0E0,0E0,0E0,0E0,0E0,0E0,0E0,0E0,0E0,0E0,0E0,0E0,0E0,0E0,0E0,0E0,0E0,0E0,0E0,0E0,0E0,0E0,0E0,0E0,0E0,0E0,0E0,0E0,0E0,0E0,0E0,0E0,0E0,0E0,0E0,0E0,0E0,0E0,0E0,0E0,0E0,0E0,0E0,0E0,0E0,0E0,0E0,0E0,0E0,0E0,0E0,0E0,0E0,0E0,0E0,0E0],"parents":[2147483647,0,0,1,1,2,2,3,3,4,4,5,5,6,6,7,7,8,8,9,9,10,10,11,11,12,12,13,13,14,14,15,15,16,16,17,17,18,18,19,19,20,20,21,21,22,22,23,23,24,24,25,25,26,26,27,27,28,28,29,29,30,30,31,31,32,32,33,33,34,34,35,35,36,36,37,37,38,38,39,39,40,40,41,41,42,42,43,43,44,44,45,45,46,46,47,47,48,48,49,49,50,50,51,51,52,52,53,53,54,54,55,55,56,56,57,57,58,58,59,59,60,60,61,61,62,62],"right_children":[2,4,6,8,10,12,14,16,18,20,22,24,26,28,30,32,34,36,38,40,42,44,46,48,50,52,54,56,58,60,62,64,66,68,70,72,74,76,78,80,82,84,86,88,90,92,94,96,98,100,102,104,106,108,110,112,114,116,118,120,122,124,126,-1,-1,-1,-1,-1,-1,-1,-1,-1,-1,-1,-1,-1,-1,-1,-1,-1,-1,-1,-1,-1,-1,-1,-1,-1,-1,-1,-1,-1,-1,-1,-1,-1,-1,-1,-1,-1,-1,-1,-1,-1,-1,-1,-1,-1,-1,-1,-1,-1,-1,-1,-1,-1,-1,-1,-1,-1,-1,-1,-1,-1,-1,-1,-1],"split_conditions":[4.3E1,2.6E1,6.9E1,1.57908325E1,1.8339438E2,1.8214718E1,9E1,1.2611251E1,1.85062E2,9.432178E1,1.5725037E1,1.0190415E1,1.8650831E1,6.5237503E0,7.2E1,1.9E1,1.5463246E1,1.13E1,1.7E1,3.4E1,1.6000001E0,9.675833E0,1.3300001E1,2.4047302E2,5.1E1,5.9E1,2.3664352E1,5.8E1,8.594583E0,9.802915E0,2.541763E1,1.4E1,1.485079E2,2.7E1,1.6E1,2.7E1,2.1E1,6.9E1,4.7237506E0,1.2599998E1,1E-1,7.2362494E0,4.8E1,1.0495713E1,2.5322423E2,2.3511526E2,2.6569186E2,4.4017185E1,1.5683776E1,2.1220012E2,3.7E1,2.4149532E1,8E-1,3.2E1,5.7E1,8E1,2.0523155E1,5.9E1,2.3532547E1,3.2E1,1.1E2,1.34E2,7.7E1,1.4199042E0,-1.1896591E0,-6.678245E-1,1.6783472E0,-1.724104E0,-6.3298297E-1,-4.6373218E-1,8.9612556E-1,-2.032235E-1,-1.0999515E0,-1.2037357E0,-2.895466E0,-2.1413324E0,1.5715925E0,-5.9959877E-1,-1.5904001E0,7.95127E-1,-6.9381434E-1,-2.898514E-1,1.4408374E0,3.3586917E0,1.5185783E0,3.6755738E-1,-1.4673481E0,3.8793793E0,9.8700154E-1,-1.2357572E0,3.6863083E-1,-3.9102536E-1,-9.859781E-1,-1.9436176E0,-4.132658E0,1.2896547E0,4.270122E0,2.4625738E0,-1.0779877E-1,2.63843E0,9.8146313E-1,-2.4641654E0,1.0357946E0,5.0511503E-1,-6.1413777E-1,3.1558793E0,2.3032823E-1,8.556727E0,2.863987E0,1.0842484E0,-1.2484417E0,4.770337E0,1.0582176E1,2.2154615E0,5.062746E0,2.4974325E0,-1.6756726E-2,3.8923466E0,1.1453645E0,3.485546E0,1.254452E1,4.4215984E0,-6.9384617E-1,5.388376E0,6.40679E-1,-1.4587185E0,-1.03161626E-1],"split_indices":[0,0,0,5,6,5,0,3,6,6,5,3,3,3,1,0,5,4,0,0,4,3,4,6,1,0,5,1,3,3,5,1,6,2,1,2,2,2,3,5,4,3,1,5,6,6,6,6,5,6,2,5,4,2,0,0,5,1,5,2,0,1,1,0,0,0,0,0,0,0,0,0,0,0,0,0,0,0,0,0,0,0,0,0,0,0,0,0,0,0,0,0,0,0,0,0,0,0,0,0,0,0,0,0,0,0,0,0,0,0,0,0,0,0,0,0,0,0,0,0,0,0,0,0,0,0,0],"split_type":[0,0,0,0,0,0,0,0,0,0,0,0,0,0,0,0,0,0,0,0,0,0,0,0,0,0,0,0,0,0,0,0,0,0,0,0,0,0,0,0,0,0,0,0,0,0,0,0,0,0,0,0,0,0,0,0,0,0,0,0,0,0,0,0,0,0,0,0,0,0,0,0,0,0,0,0,0,0,0,0,0,0,0,0,0,0,0,0,0,0,0,0,0,0,0,0,0,0,0,0,0,0,0,0,0,0,0,0,0,0,0,0,0,0,0,0,0,0,0,0,0,0,0,0,0,0,0],"sum_hessian":[3.24E3,2.316E3,9.24E2,1.152E3,1.164E3,7.1E2,2.14E2,1.91E2,9.61E2,3.86E2,7.78E2,3.38E2,3.72E2,1.55E2,5.9E1,9.5E1,9.6E1,1.58E2,8.03E2,2.09E2,1.77E2,1.66E2,6.12E2,1.79E2,1.59E2,3.51E2,2.1E1,5.9E1,9.6E1,1.7E1,4.2E1,4.2E1,5.3E1,8.9E1,7E0,1.39E2,1.9E1,2.93E2,5.1E2,1.04E2,1.05E2,1.07E2,7E1,7.2E1,9.4E1,6.02E2,1E1,1.12E2,6.7E1,9.8E1,6.1E1,2.66E2,8.5E1,1.8E1,3E0,1.7E1,4.2E1,2.9E1,6.7E1,1.2E1,5E0,3.7E1,5E0,6E0,3.6E1,1.5E1,3.8E1,6.5E1,2.4E1,2E0,5E0,7.3E1,6.6E1,9E0,1E1,2.89E2,4E0,4.8E1,4.62E2,1.4E1,9E1,4.9E1,5.6E1,2.9E1,7.8E1,5.4E1,1.6E1,1.1E1,6.1E1,3.8E1,5.6E1,2.77E2,3.25E2,5E0,5E0,2E1,9.2E1,4.9E1,1.8E1,5.8E1,4E1,1E1,5.1E1,1.42E2,1.24E2,3.7E1,4.8E1,3E0,1.5E1,2E0,1E0,1.2E1,5E0,2.6E1,1.6E1,1E1,1.9E1,5.1E1,1.6E1,3E0,9E0,4E0,1E0,3.3E1,4E0,2E0,3E0],"tree_param":{"num_deleted":"0","num_feature":"7","num_nodes":"127","size_leaf_vector":"1"}},{"base_weights":[7.0752986E-2,-1.3408152E0,6.3893085E0,-2.7463322E0,9.5880353E-1,8.393727E0,2.912031E0,-1.0935835E0,-3.4045343E0,1.863194E0,-1.1064477E0,6.9841857E0,1.3345088E1,1.0246229E1,1.356166E0,2.0162737E0,-1.9827677E0,-1.2685227E0,-3.8702648E0,3.009234E0,1.7389141E-1,7.5229783E0,-1.7663809E0,8.503979E0,1.1600566E0,2.0550972E1,1.0689142E1,1.58074E1,6.3435717E0,-7.021124E0,2.155446E0,5.578426E0,-7.4831396E-1,-1.2121088E-1,-3.1089678E0,-7.307392E0,-8.046259E-1,4.608632E0,-3.9999316E0,3.2300887E0,-8.685726E0,1.3441522E0,-3.7118814E0,3.5045714E0,1.2937947E1,1.4403364E-1,-2.9091654E0,7.4868474E0,1.7918886E1,-4.413315E0,3.3636262E0,-6.9256043E-1,2.1809374E1,9.50477E-1,1.4970169E1,3.7040448E0,7.039423E0,2.7030835E0,1.0400231E1,-1.8541527E0,-1.0833862E1,-4.4421782E0,2.7923467E0,3.151931E-1,2.199078E0,-7.5819546E-1,9.6708184E-1,-9.406474E-1,3.6487985E-1,-1.1405221E0,-2.8918585E-1,2.4655075E-1,-2.5863783E0,-9.151405E-2,-1.3777525E0,1.3565391E-1,2.4567015E0,-1.0864098E0,-1.7423506E0,2.9959872E-1,1.3188026E0,-7.147256E-1,-2.7737558E0,2.8608527E0,2.5952196E-1,-2.3245733E0,-6.459782E-1,2.3322413E0,-1.7206422E0,-2.5374985E-1,4.4299946E0,-1.477408E-1,4.0063467E0,-1.0119789E0,1.8695778E0,3.2854326E0,1.323734E0,6.9341273E0,1.0455176E0,1.6782402E0,-2.3016503E0,2.9750457E0,2.8554142E-1,7.2186117E0,3.0716922E0,1.2563001E0,-2.8795877E0,4.7110257E0,-2.373951E0,1.6227998E0,-1.1183472E-1,1.4462689E-1,1.9813366E0,-1.0098387E0,3.6340444E0,1.4978948E0,-1.4906085E0,-3.6844807E0,1.1220818E-1,-1.83892E0,1.305386E0,1.0736389E0,-6.052582E-1],"categories":[],"categories_nodes":[],"categories_segments":[],"categories_sizes":[],"default_left":[0,0,0,0,0,0,0,0,0,0,0,0,0,0,0,0,0,0,0,0,0,0,0,0,0,0,0,0,0,0,0,0,0,0,0,0,0,0,0,0,0,0,0,0,0,0,0,0,0,0,0,0,0,0,0,0,0,0,0,0,0,0,0,0,0,0,0,0,0,0,0,0,0,0,0,0,0,0,0,0,0,0,0,0,0,0,0,0,0,0,0,0,0,0,0,0,0,0,0,0,0,0,0,0,0,0,0,0,0,0,0,0,0,0,0,0,0,0,0,0,0,0,0],"id":4,"left_children":[1,3,5,7,9,11,13,15,17,19,21,23,25,27,29,31,33,35,37,39,41,43,45,47,49,51,53,55,57,59,61,63,65,67,69,71,73,75,77,79,81,83,85,87,89,91,93,95,97,99,101,-1,103,105,107,109,-1,111,113,115,117,119,121,-1,-1,-1,-1,-1,-1,-1,-1,-1,-1,-1,-1,-1,-1,-1,-1,-1,-1,-1,-1,-1,-1,-1,-1,-1,-1,-1,-1,-1,-1,-1,-1,-1,-1,-1,-1,-1,-1,-1,-1,-1,-1,-1,-1,-1,-1,-1,-1,-1,-1,-1,-1,-1,-1,-1,-1,-1,-1,-1,-1],"loss_changes":[2.8915277E4,8.56784E3,4.10175E3,1.7857783E3,1.8810618E3,2.5239785E3,2.473707E3,1.3036587E3,1.1649814E3,1.3546826E3,1.7616061E3,2.5924678E3,1.3496816E3,7.2445166E2,1.2270735E3,1.038202E3,7.66937E2,5.880197E2,1.0793867E3,1.1051196E3,1.2964417E3,4.3336792E2,6.2481177E2,2.0970977E3,7.762861E2,6.544424E2,2.570643E3,1.3032786E3,3.2632465E2,2.951173E2,7.099414E2,3.5716687E2,4.321108E2,5.6419635E2,3.3514478E2,1.6729633E2,3.732838E2,2.1952188E2,6.298418E2,1.0622925E3,6.2176514E0,8.512437E2,3.9856604E2,5.9690204E2,2.3934802E2,9.146939E2,7.8040356E2,2.2098066E3,1.5690483E3,6.299495E2,7.01792E2,0E0,2.749131E2,7.2318475E2,8.4576953E2,5.068165E1,0E0,1.1812496E2,3.0021265E2,1.9541412E2,1.5062854E2,2.492641E2,5.8219434E2,0E0,0E0,0E0,0E0,0E0,0E0,0E0,0E0,0E0,0E0,0E0,0E0,0E0,0E0,0E0,0E0,0E0,0E0,0E0,0E0,0E0,0E0,0E0,0E0,0E0,0E0,0E0,0E0,0E0,0E0,0E0,0E0,0E0,0E0,0E0,0E0,0E0,0E0,0E0,0E0,0E0,0E0,0E0,0E0,0E0,0E0,0E0,0E0,0E0,0E0,0E0,0E0,0E0,0E0,0E0,0E0,0E0,0E0,0E0,0E0],"parents":[2147483647,0,0,1,1,2,2,3,3,4,4,5,5,6,6,7,7,8,8,9,9,10,10,11,11,12,12,13,13,14,14,15,15,16,16,17,17,18,18,19,19,20,20,21,21,22,22,23,23,24,24,25,25,26,26,27,27,28,28,29,29,30,30,31,31,32,32,33,33,34,34,35,35,36,36,37,37,38,38,39,39,40,40,41,41,42,42,43,43,44,44,45,45,46,46,47,47,48,48,49,49,50,50,52,52,53,53,54,54,55,55,57,57,58,58,59,59,60,60,61,61,62,62],"right_children":[2,4,6,8,10,12,14,16,18,20,22,24,26,28,30,32,34,36,38,40,42,44,46,48,50,52,54,56,58,60,62,64,66,68,70,72,74,76,78,80,82,84,86,88,90,92,94,96,98,100,102,-1,104,106,108,110,-1,112,114,116,118,120,122,-1,-1,-1,-1,-1,-1,-1,-1,-1,-1,-1,-1,-1,-1,-1,-1,-1,-1,-1,-1,-1,-1,-1,-1,-1,-1,-1,-1,-1,-1,-1,-1,-1,-1,-1,-1,-1,-1,-1,-1,-1,-1,-1,-1,-1,-1,-1,-1,-1,-1,-1,-1,-1,-1,-1,-1,-1,-1,-1,-1],"split_conditions":[5.2E1,3.2E1,2.134971E2,1E-1,1.4000002E0,6.9E1,1.2483748E1,5.73E0,1.8216556E2,2.3511526E2,3.3591669E0,2.5071098E1,1.4039999E1,2.4925E0,2.2308112E2,1.6645864E1,2.0826347E2,1.5E1,1.9049999E0,3.4858707E1,2.34E1,3.7E1,9.06125E0,9E1,5.8E1,8.427383E0,1.7174677E1,6.2E1,2.7757455E2,8.807083E0,2.5E1,1.5903923E2,2.5E1,2E1,2.9635907E2,4.8675E0,1.2500001E1,2.4E1,5.6E0,7.31615E1,3.3E1,9.220499E0,2.9E1,3.2E1,1.7E0,8.857083E0,1.9134169E1,5E1,5.8E1,2.9E1,5.1529164E0,-6.9256043E-1,1.32195015E1,4E-1,3.010685E1,5.6E1,7.039423E0,8.254999E0,2.6E1,4E1,6.6E1,5.0000005E0,4.5E0,3.151931E-1,2.199078E0,-7.5819546E-1,9.6708184E-1,-9.406474E-1,3.6487985E-1,-1.1405221E0,-2.8918585E-1,2.4655075E-1,-2.5863783E0,-9.151405E-2,-1.3777525E0,1.3565391E-1,2.4567015E0,-1.0864098E0,-1.7423506E0,2.9959872E-1,1.3188026E0,-7.147256E-1,-2.7737558E0,2.8608527E0,2.5952196E-1,-2.3245733E0,-6.459782E-1,2.3322413E0,-1.7206422E0,-2.5374985E-1,4.4299946E0,-1.477408E-1,4.0063467E0,-1.0119789E0,1.8695778E0,3.2854326E0,1.323734E0,6.9341273E0,1.0455176E0,1.6782402E0,-2.3016503E0,2.9750457E0,2.8554142E-1,7.2186117E0,3.0716922E0,1.2563001E0,-2.8795877E0,4.7110257E0,-2.373951E0,1.6227998E0,-1.1183472E-1,1.4462689E-1,1.9813366E0,-1.0098387E0,3.6340444E0,1.4978948E0,-1.4906085E0,-3.6844807E0,1.1220818E-1,-1.83892E0,1.305386E0,1.0736389E0,-6.052582E-1],"split_indices":[0,0,6,4,4,2,5,3,6,6,3,5,5,3,6,5,6,0,3,5,5,1,3,0,0,5,5,0,6,3,2,6,0,2,6,3,4,0,4,6,0,5,2,1,4,3,3,1,2,1,3,0,3,4,5,0,0,3,2,1,0,4,4,0,0,0,0,0,0,0,0,0,0,0,0,0,0,0,0,0,0,0,0,0,0,0,0,0,0,0,0,0,0,0,0,0,0,0,0,0,0,0,0,0,0,0,0,0,0,0,0,0,0,0,0,0,0,0,0,0,0,0,0],"split_type":[0,0,0,0,0,0,0,0,0,0,0,0,0,0,0,0,0,0,0,0,0,0,0,0,0,0,0,0,0,0,0,0,0,0,0,0,0,0,0,0,0,0,0,0,0,0,0,0,0,0,0,0,0,0,0,0,0,0,0,0,0,0,0,0,0,0,0,0,0,0,0,0,0,0,0,0,0,0,0,0,0,0,0,0,0,0,0,0,0,0,0,0,0,0,0,0,0,0,0,0,0,0,0,0,0,0,0,0,0,0,0,0,0,0,0,0,0,0,0,0,0,0,0],"sum_hessian":[3.24E3,2.649E3,5.91E2,1.644E3,1.005E3,3.74E2,2.17E2,4.69E2,1.175E3,6.99E2,3.06E2,2.93E2,8.1E1,3.7E1,1.8E2,1.04E2,3.65E2,2.11E2,9.64E2,4.16E2,2.83E2,2.1E1,2.85E2,2.32E2,6.1E1,2E1,6.1E1,1.4E1,2.3E1,1.5E1,1.65E2,4.5E1,5.9E1,1.38E2,2.27E2,1.4E1,1.97E2,1.4E1,9.5E2,4.09E2,7E0,2.18E2,6.5E1,1.3E1,8E0,1.07E2,1.78E2,2.11E2,2.1E1,1.7E1,4.4E1,1E0,1.9E1,1.9E1,4.2E1,6E0,8E0,1.3E1,1E1,7E0,8E0,1.4E1,1.51E2,1.3E1,3.2E1,4.1E1,1.8E1,4.2E1,9.6E1,1.71E2,5.6E1,2E0,1.2E1,1.75E2,2.2E1,7E0,7E0,7.88E2,1.62E2,1.41E2,2.68E2,1E0,6E0,1.1E1,2.07E2,1.7E1,4.8E1,9E0,4E0,1E0,7E0,1.03E2,4E0,1.7E2,8E0,9.8E1,1.13E2,1.5E1,6E0,4E0,1.3E1,1.1E1,3.3E1,1.5E1,4E0,1.5E1,4E0,4.1E1,1E0,4E0,2E0,9E0,4E0,1E0,9E0,2E0,5E0,7E0,1E0,1.2E1,2E0,1.3E2,2.1E1],"tree_param":{"num_deleted":"0","num_feature":"7","num_nodes":"123","size_leaf_vector":"1"}},{"base_weights":[6.1765548E-2,-1.735249E0,2.6749399E0,-2.599029E0,-8.1776375E-1,1.3980647E0,5.9903097E0,-1.5533142E0,-3.2162106E0,1.3793096E-1,-1.6636875E0,2.28113E0,-1.2131205E0,1.7657606E1,5.5119696E0,-3.4311962E-1,-3.0806575E0,-4.951366E0,-2.724035E0,1.9837009E0,-1.0247313E0,-1.1419524E0,-3.3395326E0,4.0113297E0,1.3743641E0,-8.3952886E-1,-4.090557E0,1.20794525E1,8.574938E0,9.21663E0,4.2141056E0,2.378225E0,-7.471703E-1,2.6162465E0,-3.5101457E0,-3.9764023E0,-5.7879333E0,-1.9121307E0,-3.7909505E0,-5.713666E0,2.349316E0,-1.4771416E0,3.467975E0,1.2888156E-1,-1.9125378E0,-3.987493E0,2.6624124E0,2.6826217E0,9.551789E0,5.324269E0,8.380532E-1,1.0248699E1,-1.1733465E0,1.349073E1,-3.0499822E-1,7.840502E0,1.6870281E1,6.343544E0,1.0303177E0,-3.6785054E0,1.0238706E0,8.466846E-2,-6.0645515E-1,-4.3207213E-1,3.3267841E0,-6.6122365E-1,-1.3013914E0,-2.3296452E0,-9.725669E-1,6.8413556E-1,-1.7807323E0,-3.0404484E-1,-8.3721054E-1,-1.3716623E0,-4.882154E-1,-2.4969463E0,-7.450026E-1,-3.3621955E-1,8.696071E-1,-2.153091E-1,-1.2889957E0,-9.114423E-1,1.347981E0,1.4723475E0,-1.394564E-1,-6.499133E-1,9.019001E-1,-9.181761E-1,-2.7030158E0,2.30334E0,-6.050507E-1,5.6652516E-1,2.7973578E0,1.1254008E0,4.0061502E0,-5.694506E-1,2.2011495E0,6.3427284E-2,1.4074252E0,1.7055254E0,4.3315473E0,1.6738368E0,-4.614016E-1,4.4616375E0,1.5930302E0,3.241166E0,1.4491323E0,-5.886761E-1,5.580954E0,-2.3798375E0,2.0585818E0,1.8749589E-1,4.462044E0],"categories":[],"categories_nodes":[],"categories_segments":[],"categories_sizes":[],"default_left":[0,0,0,0,0,0,0,0,0,0,0,0,0,0,0,0,0,0,0,0,0,0,0,0,0,0,0,0,0,0,0,0,0,0,0,0,0,0,0,0,0,0,0,0,0,0,0,0,0,0,0,0,0,0,0,0,0,0,0,0,0,0,0,0,0,0,0,0,0,0,0,0,0,0,0,0,0,0,0,0,0,0,0,0,0,0,0,0,0,0,0,0,0,0,0,0,0,0,0,0,0,0,0,0,0,0,0,0,0,0,0,0,0],"id":5,"left_children":[1,3,5,7,9,11,13,15,17,19,21,23,25,27,29,31,33,35,37,39,41,43,45,47,49,51,-1,53,-1,55,57,59,61,63,65,67,69,71,73,75,77,79,81,83,85,87,89,91,93,95,97,99,101,103,-1,105,107,109,111,-1,-1,-1,-1,-1,-1,-1,-1,-1,-1,-1,-1,-1,-1,-1,-1,-1,-1,-1,-1,-1,-1,-1,-1,-1,-1,-1,-1,-1,-1,-1,-1,-1,-1,-1,-1,-1,-1,-1,-1,-1,-1,-1,-1,-1,-1,-1,-1,-1,-1,-1,-1,-1,-1],"loss_changes":[1.5224093E4,1.5202773E3,5.583832E3,6.333013E2,7.545084E2,2.2048516E3,1.950876E3,6.8099615E2,5.1684717E2,9.441299E2,4.2898816E2,1.1146716E3,1.1116217E3,5.0795068E2,1.6632432E3,2.2938612E2,4.0800415E2,8.790967E1,4.1374072E2,4.918495E2,5.539103E2,3.713959E2,4.6563208E2,1.777981E3,9.9117505E2,8.8556665E2,0E0,2.1702002E2,0E0,8.2617725E2,1.7832998E3,4.508324E2,2.3800826E2,4.2842026E2,1.5478052E2,1.585116E2,9.8227295E1,2.1665991E2,3.4583203E2,4.6766724E1,3.139845E2,5.236669E2,1.804184E2,4.1087164E2,3.011836E2,4.6590063E2,2.971037E2,1.0321224E3,9.864238E2,8.28056E2,1.00107947E3,5.176013E1,5.749491E2,3.4034546E1,0E0,6.5249023E2,4.6075757E2,1.2237578E3,5.9108856E2,0E0,0E0,0E0,0E0,0E0,0E0,0E0,0E0,0E0,0E0,0E0,0E0,0E0,0E0,0E0,0E0,0E0,0E0,0E0,0E0,0E0,0E0,0E0,0E0,0E0,0E0,0E0,0E0,0E0,0E0,0E0,0E0,0E0,0E0,0E0,0E0,0E0,0E0,0E0,0E0,0E0,0E0,0E0,0E0,0E0,0E0,0E0,0E0,0E0,0E0,0E0,0E0,0E0,0E0],"parents":[2147483647,0,0,1,1,2,2,3,3,4,4,5,5,6,6,7,7,8,8,9,9,10,10,11,11,12,12,13,13,14,14,15,15,16,16,17,17,18,18,19,19,20,20,21,21,22,22,23,23,24,24,25,25,27,27,29,29,30,30,31,31,32,32,33,33,34,34,35,35,36,36,37,37,38,38,39,39,40,40,41,41,42,42,43,43,44,44,45,45,46,46,47,47,48,48,49,49,50,50,51,51,52,52,53,53,55,55,56,56,57,57,58,58],"right_children":[2,4,6,8,10,12,14,16,18,20,22,24,26,28,30,32,34,36,38,40,42,44,46,48,50,52,-1,54,-1,56,58,60,62,64,66,68,70,72,74,76,78,80,82,84,86,88,90,92,94,96,98,100,102,104,-1,106,108,110,112,-1,-1,-1,-1,-1,-1,-1,-1,-1,-1,-1,-1,-1,-1,-1,-1,-1,-1,-1,-1,-1,-1,-1,-1,-1,-1,-1,-1,-1,-1,-1,-1,-1,-1,-1,-1,-1,-1,-1,-1,-1,-1,-1,-1,-1,-1,-1,-1,-1,-1,-1,-1,-1,-1],"split_conditions":[3.6E1,2.4E1,6E1,9.359166E0,2.0969805E1,2.464094E1,-2.4291663E-1,2.5772078E1,1.5E1,9.182083E0,4.2999997E0,3.5E1,7.8E1,1.8861387E1,1.4039999E1,1.4264361E1,1.5775093E2,1.3442414E1,2.33691E2,9E0,1.9282082E1,2.1769868E2,5.8E1,5E1,3.2654164E0,-8.783334E-1,-4.090557E0,7.2E1,8.574938E0,8.2E1,2.0019254E2,8E0,2.4632536E2,5.5175E0,1.7E0,9.802915E0,9E0,2.3333443E1,3.1267447E2,2.6E1,5.9336384E1,1.697375E1,1.224E1,1.9E1,3.8776527E1,2.6508652E2,2.959235E1,2.286496E1,6.3174157E0,4.1E1,1.8294584E1,2.1E0,2.2E1,1E-1,-3.0499822E-1,5.8E1,8.427383E0,1.24378195E1,3.56017E2,-3.6785054E0,1.0238706E0,8.466846E-2,-6.0645515E-1,-4.3207213E-1,3.3267841E0,-6.6122365E-1,-1.3013914E0,-2.3296452E0,-9.725669E-1,6.8413556E-1,-1.7807323E0,-3.0404484E-1,-8.3721054E-1,-1.3716623E0,-4.882154E-1,-2.4969463E0,-7.450026E-1,-3.3621955E-1,8.696071E-1,-2.153091E-1,-1.2889957E0,-9.114423E-1,1.347981E0,1.4723475E0,-1.394564E-1,-6.499133E-1,9.019001E-1,-9.181761E-1,-2.7030158E0,2.30334E0,-6.050507E-1,5.6652516E-1,2.7973578E0,1.1254008E0,4.0061502E0,-5.694506E-1,2.2011495E0,6.3427284E-2,1.4074252E0,1.7055254E0,4.3315473E0,1.6738368E0,-4.614016E-1,4.4616375E0,1.5930302E0,3.241166E0,1.4491323E0,-5.886761E-1,5.580954E0,-2.3798375E0,2.0585818E0,1.8749589E-1,4.462044E0],"split_indices":[0,0,0,3,5,5,3,5,0,3,4,1,1,5,5,5,6,3,6,5,3,6,2,0,3,3,0,1,0,2,6,0,6,3,4,3,2,5,6,0,6,3,5,1,5,6,5,5,3,1,3,4,1,4,0,1,5,6,6,0,0,0,0,0,0,0,0,0,0,0,0,0,0,0,0,0,0,0,0,0,0,0,0,0,0,0,0,0,0,0,0,0,0,0,0,0,0,0,0,0,0,0,0,0,0,0,0,0,0,0,0,0,0],"split_type":[0,0,0,0,0,0,0,0,0,0,0,0,0,0,0,0,0,0,0,0,0,0,0,0,0,0,0,0,0,0,0,0,0,0,0,0,0,0,0,0,0,0,0,0,0,0,0,0,0,0,0,0,0,0,0,0,0,0,0,0,0,0,0,0,0,0,0,0,0,0,0,0,0,0,0,0,0,0,0,0,0,0,0,0,0,0,0,0,0,0,0,0,0,0,0,0,0,0,0,0,0,0,0,0,0,0,0,0,0,0,0,0,0],"sum_hessian":[3.24E3,1.92E3,1.32E3,9.88E2,9.32E2,9.54E2,3.66E2,3.68E2,6.2E2,4.38E2,4.94E2,7.13E2,2.41E2,1.3E1,3.53E2,2.06E2,1.62E2,1.35E2,4.85E2,1.69E2,2.69E2,3.78E2,1.16E2,2.44E2,4.69E2,2.35E2,6E0,1E1,3E0,9E1,2.63E2,2.6E1,1.8E2,1.1E1,1.51E2,6.5E1,7E1,2.77E2,2.08E2,7E0,1.62E2,2.45E2,2.4E1,1.43E2,2.35E2,1.05E2,1.1E1,1.98E2,4.6E1,5.5E1,4.14E2,6E0,2.29E2,9E0,1E0,7.8E1,1.2E1,1.57E2,1.06E2,1E0,2.5E1,1E2,8E1,8E0,3E0,6E1,9.1E1,9E0,5.6E1,1E0,6.9E1,1.38E2,1.39E2,1.52E2,5.6E1,3E0,4E0,2.2E1,1.4E2,1.94E2,5.1E1,3E0,2.1E1,1.5E1,1.28E2,2.24E2,1.1E1,9E1,1.5E1,5E0,6E0,1.78E2,2E1,1.9E1,2.7E1,1.2E1,4.3E1,3.57E2,5.7E1,4E0,2E0,1.1E1,2.18E2,7E0,2E0,3.8E1,4E1,1E0,1.1E1,5E0,1.52E2,1.04E2,2E0],"tree_param":{"num_deleted":"0","num_feature":"7","num_nodes":"113","size_leaf_vector":"1"}},{"base_weights":[5.2286904E-2,-5.785874E-1,3.9263513E0,-1.2218364E0,8.4567523E-1,5.4683385E0,2.0434332E0,-1.9579923E0,-6.717857E-1,1.5743347E0,-1.0897441E0,4.863939E0,1.6066368E1,4.700191E0,-4.1084892E-1,-1.037691E0,-2.399658E0,5.377861E-1,-9.727313E-1,5.939019E0,1.2530175E0,-1.9765911E0,2.6548479E0,5.7868075E0,3.0225215E-2,2.5626686E1,8.969929E0,2.8144054E0,8.745966E0,3.3765614E0,-2.6004949E0,-2.3973995E-1,-2.274132E0,-8.714802E-1,-2.7302473E0,1.4367557E0,-1.5365286E0,-1.065193E0,4.0983357E0,2.8201368E0,1.4755756E1,1.5597525E0,-3.7998524E0,-1.3325928E0,-1.0115384E1,7.5507607E0,9.003963E-1,4.7026825E0,1.7116693E1,-7.231306E0,3.1412306E0,2.1181693E0,8.550923E0,1.3801656E1,-5.201435E-1,-4.5058126E0,4.13149E0,2.451126E0,1.0828904E1,1.8183168E0,1.1903561E1,-4.8391256E0,4.0111327E0,-6.144918E-1,5.0545746E-1,-1.2841055E0,-1.912237E-1,2.7323097E-1,-1.1047367E0,-9.151356E-1,-4.247719E-1,4.092733E0,3.559205E-1,-1.6558884E0,-2.2227113E-1,-1.2579422E-1,-4.7120026E-1,2.3240557E0,3.4036237E-1,1.6068543E0,-8.2166296E-1,4.6452257E-1,5.2556033E0,8.479939E-1,2.1654776E-1,-2.0321486E0,-3.2863796E-1,-2.0087816E-2,-9.4338673E-1,1.7105974E0,-3.531216E0,2.6106284E0,-7.670849E-1,-6.066774E-1,1.0404041E0,2.0679772E0,6.778577E-1,5.5843406E0,-1.027153E0,5.903522E-1,-3.623058E0,2.0501661E0,-9.5605934E-1,8.13435E-1,5.600669E0,-5.003746E-1,1.2552567E-1,5.4862005E-1,-2.1329577E0,4.1981673E0,6.93017E-1,-8.4477E-1,1.6661867E0,3.4852173E0,-9.776676E-1,2.976639E0,-6.014293E-2,3.9152436E0,9.250958E-1,-2.0236375E0,-1.5525956E-1,-3.0160706E0,1.6289564E0],"categories":[],"categories_nodes":[],"categories_segments":[],"categories_sizes":[],"default_left":[0,0,0,0,0,0,0,0,0,0,0,0,0,0,0,0,0,0,0,0,0,0,0,0,0,0,0,0,0,0,0,0,0,0,0,0,0,0,0,0,0,0,0,0,0,0,0,0,0,0,0,0,0,0,0,0,0,0,0,0,0,0,0,0,0,0,0,0,0,0,0,0,0,0,0,0,0,0,0,0,0,0,0,0,0,0,0,0,0,0,0,0,0,0,0,0,0,0,0,0,0,0,0,0,0,0,0,0,0,0,0,0,0,0,0,0,0,0,0,0,0,0,0],"id":6,"left_children":[1,3,5,7,9,11,13,15,17,19,21,23,25,27,29,31,33,35,37,39,41,43,45,47,49,51,53,55,57,59,61,63,65,67,69,71,73,75,77,79,81,83,85,87,89,91,93,95,97,99,101,-1,-1,103,105,107,109,111,113,115,117,119,121,-1,-1,-1,-1,-1,-1,-1,-1,-1,-1,-1,-1,-1,-1,-1,-1,-1,-1,-1,-1,-1,-1,-1,-1,-1,-1,-1,-1,-1,-1,-1,-1,-1,-1,-1,-1,-1,-1,-1,-1,-1,-1,-1,-1,-1,-1,-1,-1,-1,-1,-1,-1,-1,-1,-1,-1,-1,-1,-1,-1],"loss_changes":[7.9234297E3,2.555275E3,1.3069858E3,7.7654224E2,1.2258228E3,1.51681E3,1.3451401E3,3.3121753E2,4.0130392E2,8.775028E2,7.9561707E2,1.0570547E3,6.521052E2,7.3070215E2,9.0443414E2,2.6386877E2,2.7750122E2,4.1245166E2,4.1791754E2,1.1408163E3,9.1881287E2,9.981045E2,3.8832492E2,2.3638257E3,9.0375104E2,6.576904E1,4.1985974E2,6.838686E2,3.7992188E2,5.098415E2,1.0406788E3,5.7429614E2,3.4205164E2,5.0433994E2,1.8717139E2,4.5439902E2,2.0823701E2,2.823955E2,1.642261E2,4.7990063E2,3.7427344E2,5.8818933E2,2.6603467E2,4.1259515E2,4.3367932E2,1.6189886E2,2.6966226E2,9.6382544E2,5.867388E2,5.586648E2,6.760681E2,0E0,0E0,2.7325244E2,5.0069094E0,1.9445201E2,1.0275319E3,1.6272354E2,2.9334448E2,5.745864E2,2.0467773E1,4.2490552E2,4.1375958E2,0E0,0E0,0E0,0E0,0E0,0E0,0E0,0E0,0E0,0E0,0E0,0E0,0E0,0E0,0E0,0E0,0E0,0E0,0E0,0E0,0E0,0E0,0E0,0E0,0E0,0E0,0E0,0E0,0E0,0E0,0E0,0E0,0E0,0E0,0E0,0E0,0E0,0E0,0E0,0E0,0E0,0E0,0E0,0E0,0E0,0E0,0E0,0E0,0E0,0E0,0E0,0E0,0E0,0E0,0E0,0E0,0E0,0E0,0E0,0E0],"parents":[2147483647,0,0,1,1,2,2,3,3,4,4,5,5,6,6,7,7,8,8,9,9,10,10,11,11,12,12,13,13,14,14,15,15,16,16,17,17,18,18,19,19,20,20,21,21,22,22,23,23,24,24,25,25,26,26,27,27,28,28,29,29,30,30,31,31,32,32,33,33,34,34,35,35,36,36,37,37,38,38,39,39,40,40,41,41,42,42,43,43,44,44,45,45,46,46,47,47,48,48,49,49,50,50,53,53,54,54,55,55,56,56,57,57,58,58,59,59,60,60,61,61,62,62],"right_children":[2,4,6,8,10,12,14,16,18,20,22,24,26,28,30,32,34,36,38,40,42,44,46,48,50,52,54,56,58,60,62,64,66,68,70,72,74,76,78,80,82,84,86,88,90,92,94,96,98,100,102,-1,-1,104,106,108,110,112,114,116,118,120,122,-1,-1,-1,-1,-1,-1,-1,-1,-1,-1,-1,-1,-1,-1,-1,-1,-1,-1,-1,-1,-1,-1,-1,-1,-1,-1,-1,-1,-1,-1,-1,-1,-1,-1,-1,-1,-1,-1,-1,-1,-1,-1,-1,-1,-1,-1,-1,-1,-1,-1,-1,-1,-1,-1,-1,-1,-1,-1,-1,-1],"split_conditions":[5.7E1,3.6E1,8.965416E0,2.2E1,4.9E1,8.594583E0,1.5093439E2,2E-1,1.5379206E1,1.4050002E0,1.6075832E1,8.6E1,4.8E1,7.3E1,5E-1,2.2E1,6.68625E0,1.5350833E1,1.9454998E1,3.9E1,3.2917862E1,1.4502917E1,1.3202726E1,9E1,7.31615E1,3.3E1,8.73E0,1.2397806E1,7.2E1,2.4766848E1,2.414173E2,1.7E1,2.7E1,2.884047E1,1.59904175E1,1E1,1.8E1,2.1769868E2,1.8668005E1,5.2583325E-1,6.3294598E1,1.7476389E2,2.1717136E2,2.291837E2,2.7E1,5.6E1,1.8055176E2,2.1076077E2,2.9414444E1,2.6171404E1,2.134971E2,2.1181693E0,8.550923E0,6E1,6.4E1,1.1200571E1,1.3979872E1,1E-1,2.7959742E1,1.7476389E2,5.8E1,7E1,2.5E1,-6.144918E-1,5.0545746E-1,-1.2841055E0,-1.912237E-1,2.7323097E-1,-1.1047367E0,-9.151356E-1,-4.247719E-1,4.092733E0,3.559205E-1,-1.6558884E0,-2.2227113E-1,-1.2579422E-1,-4.7120026E-1,2.3240557E0,3.4036237E-1,1.6068543E0,-8.2166296E-1,4.6452257E-1,5.2556033E0,8.479939E-1,2.1654776E-1,-2.0321486E0,-3.2863796E-1,-2.0087816E-2,-9.4338673E-1,1.7105974E0,-3.531216E0,2.6106284E0,-7.670849E-1,-6.066774E-1,1.0404041E0,2.0679772E0,6.778577E-1,5.5843406E0,-1.027153E0,5.903522E-1,-3.623058E0,2.0501661E0,-9.5605934E-1,8.13435E-1,5.600669E0,-5.003746E-1,1.2552567E-1,5.4862005E-1,-2.1329577E0,4.1981673E0,6.93017E-1,-8.4477E-1,1.6661867E0,3.4852173E0,-9.776676E-1,2.976639E0,-6.014293E-2,3.9152436E0,9.250958E-1,-2.0236375E0,-1.5525956E-1,-3.0160706E0,1.6289564E0],"split_indices":[0,0,3,0,1,3,6,4,5,3,3,1,1,1,4,1,3,3,3,1,5,3,5,0,6,1,3,5,0,5,6,0,2,5,3,2,2,6,5,3,6,6,6,6,2,0,6,6,5,6,6,0,0,0,0,5,5,4,5,6,1,0,1,0,0,0,0,0,0,0,0,0,0,0,0,0,0,0,0,0,0,0,0,0,0,0,0,0,0,0,0,0,0,0,0,0,0,0,0,0,0,0,0,0,0,0,0,0,0,0,0,0,0,0,0,0,0,0,0,0,0,0,0],"split_type":[0,0,0,0,0,0,0,0,0,0,0,0,0,0,0,0,0,0,0,0,0,0,0,0,0,0,0,0,0,0,0,0,0,0,0,0,0,0,0,0,0,0,0,0,0,0,0,0,0,0,0,0,0,0,0,0,0,0,0,0,0,0,0,0,0,0,0,0,0,0,0,0,0,0,0,0,0,0,0,0,0,0,0,0,0,0,0,0,0,0,0,0,0,0,0,0,0,0,0,0,0,0,0,0,0,0,0,0,0,0,0,0,0,0,0,0,0,0,0,0,0,0,0],"sum_hessian":[3.24E3,2.787E3,4.53E2,1.92E3,8.67E2,2.48E2,2.05E2,8.2E2,1.1E3,6.3E2,2.37E2,2.36E2,1.2E1,9.8E1,1.07E2,2.67E2,5.53E2,2.19E2,8.81E2,4.2E1,5.88E2,1.92E2,4.5E1,1.98E2,3.8E1,4E0,8E0,6.8E1,3E1,3.9E1,6.8E1,1.63E2,1.04E2,9.9E1,4.54E2,1.53E2,6.6E1,8.66E2,1.5E1,3.2E1,1E1,5.55E2,3.3E1,1.79E2,1.3E1,1.1E1,3.4E1,1.82E2,1.6E1,1.1E1,2.7E1,1E0,3E0,5E0,3E0,1E1,5.8E1,8E0,2.2E1,3.4E1,5E0,5.1E1,1.7E1,8.4E1,7.9E1,4.6E1,5.8E1,6.1E1,3.8E1,3.64E2,9E1,2E0,1.51E2,1E1,5.6E1,3.81E2,4.85E2,6E0,9E0,2.2E1,1E1,2E0,8E0,2.2E2,3.35E2,1.5E1,1.8E1,1.06E2,7.3E1,1E0,1.2E1,1E1,1E0,1.6E1,1.8E1,9.5E1,8.7E1,1.5E1,1E0,4E0,7E0,1.7E1,1E1,2E0,3E0,1E0,2E0,3E0,7E0,8E0,5E1,3E0,5E0,2.1E1,1E0,6E0,2.8E1,4E0,1E0,3.5E1,1.6E1,1E0,1.6E1],"tree_param":{"num_deleted":"0","num_feature":"7","num_nodes":"123","size_leaf_vector":"1"}},{"base_weights":[4.847481E-2,-4.0300825E-1,2.8209116E0,-1.1309558E0,2.466892E-1,1.08143E1,2.5231552E0,-9.0787876E-1,-2.2744136E0,2.4900196E0,-7.124901E-2,6.0711956E0,1.7707607E1,2.8823142E0,-3.5398114E0,-2.3852897E0,-7.3499405E-1,-3.1769683E0,-1.3591565E0,4.3931646E0,1.0021194E0,-2.7256987E0,1.513128E-1,9.101334E0,3.0394974E0,6.3215905E-1,6.1218753E0,2.1068313E0,5.0671887E0,3.1960673E0,-5.835145E0,6.1348653E0,-2.828341E0,1.6603123E0,-8.590738E-1,-2.5164313E0,-4.8668118E0,5.9147077E0,-1.6233118E0,8.4856415E0,2.6945417E0,7.330918E0,-1.4690188E-1,-2.110545E0,-8.711082E0,1.1591977E0,-5.851007E-1,-2.7098466E-2,3.4265494E0,-6.6206247E-1,4.2817054E0,2.8559413E0,-1.2419857E0,1.0321522E1,2.1836417E0,2.3634923E0,-2.2851896E0,-8.887626E0,-1.4559852E0,1.1022748E0,2.765692E0,1.0511333E0,-9.489719E-1,1.2816634E0,-1.8783946E-1,-1.0933491E0,-2.2992136E-1,-4.948885E-1,-1.1213993E0,-5.86872E-1,-1.7647341E0,7.384701E-2,3.4380543E0,4.2911373E-2,-7.881771E-1,3.148669E0,-1.1056112E0,-8.0782115E-1,1.0460314E0,3.0975932E-1,2.8033009E0,-1.1190895E0,3.933445E-1,-8.534101E-1,9.062647E-1,3.7453425E-1,-3.033624E0,2.1237485E-1,2.731686E0,-2.4524327E-1,7.834215E-1,1.6857849E0,-3.6092722E-1,1.5031391E0,4.4938898E-1,6.5687644E-1,-2.168685E0,4.771881E0,1.1698805E0,-7.7034885E-1,1.3541654E0,3.441124E-1,-1.1434842E0,-7.889374E-1,-3.2716773E0,-1.3322285E0,1.0155528E0],"categories":[],"categories_nodes":[],"categories_segments":[],"categories_sizes":[],"default_left":[0,0,0,0,0,0,0,0,0,0,0,0,0,0,0,0,0,0,0,0,0,0,0,0,0,0,0,0,0,0,0,0,0,0,0,0,0,0,0,0,0,0,0,0,0,0,0,0,0,0,0,0,0,0,0,0,0,0,0,0,0,0,0,0,0,0,0,0,0,0,0,0,0,0,0,0,0,0,0,0,0,0,0,0,0,0,0,0,0,0,0,0,0,0,0,0,0,0,0,0,0,0,0,0,0,0,0],"id":7,"left_children":[1,3,5,7,9,11,13,15,17,19,21,23,25,27,29,31,33,35,37,39,41,43,45,47,49,-1,-1,51,53,55,57,59,61,63,65,67,69,71,73,75,77,79,81,83,85,87,89,-1,-1,-1,91,93,95,97,99,-1,101,103,105,-1,-1,-1,-1,-1,-1,-1,-1,-1,-1,-1,-1,-1,-1,-1,-1,-1,-1,-1,-1,-1,-1,-1,-1,-1,-1,-1,-1,-1,-1,-1,-1,-1,-1,-1,-1,-1,-1,-1,-1,-1,-1,-1,-1,-1,-1,-1,-1],"loss_changes":[4.0579236E3,1.3188516E3,1.0532717E3,3.3336426E2,1.0514939E3,4.156244E2,9.6615576E2,2.7972156E2,1.7246094E2,5.1379675E2,7.6369904E2,7.33876E1,2.0959973E2,6.924724E2,4.0517676E2,4.51461E2,2.9506897E2,1.0718689E2,2.1711578E2,5.332612E2,7.5735706E2,3.498081E2,8.861468E2,1.07677795E2,5.506878E1,0E0,0E0,7.762058E2,1.6137817E3,1.9765535E2,2.4103845E2,1.1660019E1,2.4435126E2,2.9530103E2,2.3984271E2,7.748346E1,7.421887E1,1.229182E2,1.8657422E2,6.013237E2,2.5693057E2,1.932522E2,4.6989566E2,3.5518185E2,1.3820392E2,1.8009353E3,5.146625E2,0E0,0E0,0E0,5.077854E1,7.2979443E2,1.1868767E3,1.3008347E3,7.977087E2,0E0,2.5328236E1,1.1022955E2,1.450808E2,0E0,0E0,0E0,0E0,0E0,0E0,0E0,0E0,0E0,0E0,0E0,0E0,0E0,0E0,0E0,0E0,0E0,0E0,0E0,0E0,0E0,0E0,0E0,0E0,0E0,0E0,0E0,0E0,0E0,0E0,0E0,0E0,0E0,0E0,0E0,0E0,0E0,0E0,0E0,0E0,0E0,0E0,0E0,0E0,0E0,0E0,0E0,0E0],"parents":[2147483647,0,0,1,1,2,2,3,3,4,4,5,5,6,6,7,7,8,8,9,9,10,10,11,11,12,12,13,13,14,14,15,15,16,16,17,17,18,18,19,19,20,20,21,21,22,22,23,23,24,24,27,27,28,28,29,29,30,30,31,31,32,32,33,33,34,34,35,35,36,36,37,37,38,38,39,39,40,40,41,41,42,42,43,43,44,44,45,45,46,46,50,50,51,51,52,52,53,53,54,54,56,56,57,57,58,58],"right_children":[2,4,6,8,10,12,14,16,18,20,22,24,26,28,30,32,34,36,38,40,42,44,46,48,50,-1,-1,52,54,56,58,60,62,64,66,68,70,72,74,76,78,80,82,84,86,88,90,-1,-1,-1,92,94,96,98,100,-1,102,104,106,-1,-1,-1,-1,-1,-1,-1,-1,-1,-1,-1,-1,-1,-1,-1,-1,-1,-1,-1,-1,-1,-1,-1,-1,-1,-1,-1,-1,-1,-1,-1,-1,-1,-1,-1,-1,-1,-1,-1,-1,-1,-1,-1,-1,-1,-1,-1,-1],"split_conditions":[5.7E1,2.8E1,-2.4291663E-1,4.8999996E0,1.2599998E1,-1.4158331E0,3.1104082E1,1.4E1,9.1E0,8.965416E0,1.8E1,4.1E1,1.1200571E1,6.7E1,4.4E1,1.1119281E1,2.9820836E0,2.5107524E2,1.5273505E1,2.4E1,4.262899E1,7.7E0,3.5E1,5.8E1,4.8E1,6.3215905E-1,6.1218753E0,3.3E0,7.2E1,2E-1,1.9574371E2,2.2E1,7E0,2.4684642E2,3.74875E0,2.9E1,1.8861387E1,2E1,9.407083E0,2.9457043E2,7.31615E1,9.746631E0,2.9E1,3.6E1,1.1E1,5E1,1.8294584E1,-2.7098466E-2,3.4265494E0,-6.6206247E-1,7.3E1,5.2E1,2.3532547E1,8.005E0,5.3487496E0,2.3634923E0,6.3E1,2.1425002E0,9.182083E0,1.1022748E0,2.765692E0,1.0511333E0,-9.489719E-1,1.2816634E0,-1.8783946E-1,-1.0933491E0,-2.2992136E-1,-4.948885E-1,-1.1213993E0,-5.86872E-1,-1.7647341E0,7.384701E-2,3.4380543E0,4.2911373E-2,-7.881771E-1,3.148669E0,-1.1056112E0,-8.0782115E-1,1.0460314E0,3.0975932E-1,2.8033009E0,-1.1190895E0,3.933445E-1,-8.534101E-1,9.062647E-1,3.7453425E-1,-3.033624E0,2.1237485E-1,2.731686E0,-2.4524327E-1,7.834215E-1,1.6857849E0,-3.6092722E-1,1.5031391E0,4.4938898E-1,6.5687644E-1,-2.168685E0,4.771881E0,1.1698805E0,-7.7034885E-1,1.3541654E0,3.441124E-1,-1.1434842E0,-7.889374E-1,-3.2716773E0,-1.3322285E0,1.0155528E0],"split_indices":[0,0,3,4,5,3,5,2,4,3,2,2,5,2,1,5,3,6,5,2,6,4,1,0,1,0,0,4,1,4,6,0,1,6,3,2,5,0,3,6,6,5,1,1,2,0,3,0,0,0,0,1,5,3,3,0,0,3,3,0,0,0,0,0,0,0,0,0,0,0,0,0,0,0,0,0,0,0,0,0,0,0,0,0,0,0,0,0,0,0,0,0,0,0,0,0,0,0,0,0,0,0,0,0,0,0,0],"split_type":[0,0,0,0,0,0,0,0,0,0,0,0,0,0,0,0,0,0,0,0,0,0,0,0,0,0,0,0,0,0,0,0,0,0,0,0,0,0,0,0,0,0,0,0,0,0,0,0,0,0,0,0,0,0,0,0,0,0,0,0,0,0,0,0,0,0,0,0,0,0,0,0,0,0,0,0,0,0,0,0,0,0,0,0,0,0,0,0,0,0,0,0,0,0,0,0,0,0,0,0,0,0,0,0,0,0,0],"sum_hessian":[3.24E3,2.787E3,4.53E2,1.314E3,1.473E3,1.5E1,4.38E2,1.101E3,2.13E2,1.82E2,1.291E3,1E1,5E0,4.14E2,2.4E1,1.14E2,9.87E2,1.06E2,1.07E2,7.9E1,1.03E2,9.9E1,1.192E3,4E0,6E0,1E0,4E0,3.07E2,1.07E2,6E0,1.8E1,5E0,1.09E2,4.8E1,9.39E2,7.8E1,2.8E1,3E0,1.04E2,2.2E1,5.7E1,1.5E1,8.8E1,9.1E1,8E0,5.03E2,6.89E2,1E0,3E0,1E0,5E0,2.51E2,5.6E1,3.7E1,7E1,3E0,3E0,1E1,8E0,4E0,1E0,5E0,1.04E2,2.2E1,2.6E1,2.9E1,9.1E2,4.7E1,3.1E1,8E0,2E1,2E0,1E0,3.8E1,6.6E1,1.9E1,3E0,7E0,5E1,4E0,1.1E1,2.5E1,6.3E1,8E1,1.1E1,1E0,7E0,4.77E2,2.6E1,6.43E2,4.6E1,4E0,1E0,9.6E1,1.55E2,3.6E1,2E1,1.9E1,1.8E1,2.3E1,4.7E1,1E0,2E0,3E0,7E0,5E0,3E0],"tree_param":{"num_deleted":"0","num_feature":"7","num_nodes":"107","size_leaf_vector":"1"}},{"base_weights":[4.1045405E-2,-5.8015734E-1,1.0760089E0,7.779845E-1,-7.691618E-1,3.3002002E0,6.583302E-1,1.5621688E0,-1.4538293E0,-3.8653347E0,-6.9936293E-1,3.0487952E0,5.4367332E0,1.6718373E0,-1.5043351E-1,-2.0908165E0,2.434285E0,1.9563705E0,-2.4283228E0,-2.8375468E0,-3.6447277E0,-1.0686639E-1,-1.054001E0,4.399531E0,9.19007E-1,-1.0666615E1,1.8326348E0,2.9891294E-1,-2.3492906E0,-3.7247806E0,4.093656E0,1.0106477E0,5.5023775E0,-2.4802783E0,4.422723E0,1.6950643E0,-2.7028978E0,-5.1864495E0,-4.6292576E-1,2.335229E-1,-1.9695239E0,-1.4121667E0,1.4741355E-1,3.3490443E0,9.932788E0,1.3613231E-1,9.899377E0,1.7830213E0,-5.2011566E0,-5.0485034E0,2.1310353E0,-1.1438163E-1,5.0548105E0,-8.87764E0,-7.4944335E-1,-4.6598566E-1,-2.1410787E0,2.1032143E0,-1.728241E-1,6.814046E-1,-1.6501871E0,3.6280663E0,1.1520752E0,-1.055865E0,-8.034707E-2,3.1752206E-2,1.6466141E0,-1.8452387E0,-5.699124E-1,-1.8350635E0,4.5139563E-1,2.2815724E-1,-9.721464E-1,-1.4417399E0,1.14887156E-1,-7.166772E-1,1.5207394E0,-3.0576822E-1,-6.411325E-1,3.7308056E0,-3.7018422E-4,8.5224915E-1,2.886779E0,3.9910758E0,-4.476004E-1,-1.329584E-1,2.941748E0,3.970783E0,1.4766326E0,6.973824E-1,1.0497723E-1,-2.135069E0,6.499125E-1,1.5172398E-1,1.0913923E0,-1.2407146E-1,1.1481099E0,1.7364817E0,-1.6294991E0,-4.4499006E0,-1.4964036E0,1.6117711E0,-6.80471E-1],"categories":[],"categories_nodes":[],"categories_segments":[],"categories_sizes":[],"default_left":[0,0,0,0,0,0,0,0,0,0,0,0,0,0,0,0,0,0,0,0,0,0,0,0,0,0,0,0,0,0,0,0,0,0,0,0,0,0,0,0,0,0,0,0,0,0,0,0,0,0,0,0,0,0,0,0,0,0,0,0,0,0,0,0,0,0,0,0,0,0,0,0,0,0,0,0,0,0,0,0,0,0,0,0,0,0,0,0,0,0,0,0,0,0,0,0,0,0,0,0,0,0,0],"id":8,"left_children":[1,3,5,7,9,11,13,15,17,19,21,23,-1,25,27,29,31,33,35,37,-1,39,41,43,45,47,49,51,53,55,57,59,61,63,65,-1,67,69,71,73,75,77,79,81,83,85,87,89,-1,91,93,95,97,99,101,-1,-1,-1,-1,-1,-1,-1,-1,-1,-1,-1,-1,-1,-1,-1,-1,-1,-1,-1,-1,-1,-1,-1,-1,-1,-1,-1,-1,-1,-1,-1,-1,-1,-1,-1,-1,-1,-1,-1,-1,-1,-1,-1,-1,-1,-1,-1,-1],"loss_changes":[2.0843352E3,5.206624E2,1.1274883E3,4.3630917E2,3.8175537E2,6.6021436E2,8.404315E2,5.9128186E2,2.2075984E2,2.975703E2,3.657094E2,5.425449E2,0E0,9.222645E2,5.64878E2,3.7903546E2,6.4524896E2,1.7510466E2,1.2839835E2,1.983982E2,0E0,4.1448065E2,4.6881104E2,6.409978E2,5.2594025E2,5.291899E2,9.3475916E2,9.342319E2,1.0064498E3,2.0378873E2,1.1301387E2,8.579967E2,4.6846008E2,1.2853428E1,4.5436615E1,0E0,1.2678113E2,1.21264435E2,6.703041E1,4.1827563E2,3.1026306E2,2.3681775E2,4.5850958E2,2.8830627E2,7.1304065E2,3.9647992E2,3.4493164E1,1.5150023E0,0E0,2.9895865E2,1.0562191E3,5.180861E2,3.2371405E2,3.6613147E2,7.46734E2,0E0,0E0,0E0,0E0,0E0,0E0,0E0,0E0,0E0,0E0,0E0,0E0,0E0,0E0,0E0,0E0,0E0,0E0,0E0,0E0,0E0,0E0,0E0,0E0,0E0,0E0,0E0,0E0,0E0,0E0,0E0,0E0,0E0,0E0,0E0,0E0,0E0,0E0,0E0,0E0,0E0,0E0,0E0,0E0,0E0,0E0,0E0,0E0],"parents":[2147483647,0,0,1,1,2,2,3,3,4,4,5,5,6,6,7,7,8,8,9,9,10,10,11,11,13,13,14,14,15,15,16,16,17,17,18,18,19,19,21,21,22,22,23,23,24,24,25,25,26,26,27,27,28,28,29,29,30,30,31,31,32,32,33,33,34,34,36,36,37,37,38,38,39,39,40,40,41,41,42,42,43,43,44,44,45,45,46,46,47,47,49,49,50,50,51,51,52,52,53,53,54,54],"right_children":[2,4,6,8,10,12,14,16,18,20,22,24,-1,26,28,30,32,34,36,38,-1,40,42,44,46,48,50,52,54,56,58,60,62,64,66,-1,68,70,72,74,76,78,80,82,84,86,88,90,-1,92,94,96,98,100,102,-1,-1,-1,-1,-1,-1,-1,-1,-1,-1,-1,-1,-1,-1,-1,-1,-1,-1,-1,-1,-1,-1,-1,-1,-1,-1,-1,-1,-1,-1,-1,-1,-1,-1,-1,-1,-1,-1,-1,-1,-1,-1,-1,-1,-1,-1,-1,-1],"split_conditions":[3.8E1,4.7237506E0,1.2599998E1,2.5630886E1,2.2417027E1,1.08E2,1.7476389E2,6.0930576E1,1.1723441E2,3.3E1,2.1511206E2,1.0400832E1,5.4367332E0,1.2768586E1,4.0999994E0,9.0000004E-1,3.74875E0,2.4E1,3.1958327E-1,2.7E1,-3.6447277E0,4E1,2.9635907E2,1.224E1,4.7999997E0,5.1E1,1.7E1,2.4999998E0,5.0000005E0,2E-1,2.175097E1,3.3591669E0,1.5093439E2,3.3E1,2E-1,1.6950643E0,2.7059933E1,2.5E1,1.7891016E1,1.2E1,7.3E1,2.5416705E2,8E0,9.802915E0,8.532083E0,7.2E1,1.0495713E1,4.2E1,-5.2011566E0,1.0244582E1,6.53362E1,1.8452919E1,1.8867502E1,4.4E1,3.1E1,-4.6598566E-1,-2.1410787E0,2.1032143E0,-1.728241E-1,6.814046E-1,-1.6501871E0,3.6280663E0,1.1520752E0,-1.055865E0,-8.034707E-2,3.1752206E-2,1.6466141E0,-1.8452387E0,-5.699124E-1,-1.8350635E0,4.5139563E-1,2.2815724E-1,-9.721464E-1,-1.4417399E0,1.14887156E-1,-7.166772E-1,1.5207394E0,-3.0576822E-1,-6.411325E-1,3.7308056E0,-3.7018422E-4,8.5224915E-1,2.886779E0,3.9910758E0,-4.476004E-1,-1.329584E-1,2.941748E0,3.970783E0,1.4766326E0,6.973824E-1,1.0497723E-1,-2.135069E0,6.499125E-1,1.5172398E-1,1.0913923E0,-1.2407146E-1,1.1481099E0,1.7364817E0,-1.6294991E0,-4.4499006E0,-1.4964036E0,1.6117711E0,-6.80471E-1],"split_indices":[0,3,5,5,6,0,6,6,6,0,6,3,0,5,4,4,3,0,3,2,0,1,6,5,4,0,2,4,4,4,5,3,6,1,4,0,5,1,6,1,1,6,0,3,3,1,5,0,0,3,6,3,3,1,1,0,0,0,0,0,0,0,0,0,0,0,0,0,0,0,0,0,0,0,0,0,0,0,0,0,0,0,0,0,0,0,0,0,0,0,0,0,0,0,0,0,0,0,0,0,0,0,0],"split_type":[0,0,0,0,0,0,0,0,0,0,0,0,0,0,0,0,0,0,0,0,0,0,0,0,0,0,0,0,0,0,0,0,0,0,0,0,0,0,0,0,0,0,0,0,0,0,0,0,0,0,0,0,0,0,0,0,0,0,0,0,0,0,0,0,0,0,0,0,0,0,0,0,0,0,0,0,0,0,0,0,0,0,0,0,0,0,0,0,0,0,0,0,0,0,0,0,0,0,0,0,0,0,0],"sum_hessian":[3.24E3,2.025E3,1.215E3,2.47E2,1.778E3,1.91E2,1.024E3,1.83E2,6.4E1,3.8E1,1.74E3,1.89E2,2E0,4.54E2,5.7E2,3.5E1,1.48E2,1.4E1,5E1,3.5E1,3E0,6.52E2,1.088E3,1.15E2,7.4E1,5E0,4.49E2,4.74E2,9.6E1,2.8E1,7E0,1.02E2,4.6E1,5E0,9E0,1E0,4.9E1,1.7E1,1.8E1,5.52E2,1E2,8.38E2,2.5E2,9.8E1,1.7E1,6.9E1,5E0,2E0,3E0,1.8E1,4.31E2,4.37E2,3.7E1,1.8E1,7.8E1,1.8E1,1E1,4E0,3E0,8.6E1,1.6E1,8E0,3.8E1,3E0,2E0,2E0,7E0,8E0,4.1E1,1.5E1,2E0,1.3E1,5E0,1.5E1,5.37E2,9.5E1,5E0,5.45E2,2.93E2,2E0,2.48E2,9.2E1,6E0,1.3E1,4E0,6.6E1,3E0,2E0,3E0,1E0,1E0,1.4E1,4E0,2.08E2,2.23E2,4.07E2,3E1,3.5E1,2E0,6E0,1.2E1,1.5E1,6.3E1],"tree_param":{"num_deleted":"0","num_feature":"7","num_nodes":"103","size_leaf_vector":"1"}},{"base_weights":[3.2402225E-2,-1.0680697E-1,3.2114563E0,9.761028E-1,-3.0560917E-1,1.1302131E1,2.47964E0,7.544889E-1,6.6469026E0,-2.4122007E0,-1.80569E-1,-3.1146011E0,1.9985205E1,4.8738856E0,2.2395365E0,8.99338E0,6.453849E-1,1.6559498E1,3.560417E0,-2.0350852E0,-7.375174E0,2.4367179E-1,-7.610432E-1,-1.9071862E0,1.1662852E0,2.2430735E0,7.0479426E0,3.0048275E0,-1.1062635E0,2.4633343E0,3.4927707E0,-8.166969E-1,1.2300335E0,1.0885346E0,5.8981094E0,7.947365E0,-2.4725553E-1,1.9485423E-1,-2.6301594E0,-3.3876784E0,-4.083242E0,-2.0373182E0,5.0995284E-1,-1.2785257E0,3.1877643E-1,4.858635E-1,3.8964845E-2,1.3103096E0,6.3553243E0,-6.5200295E0,3.976156E0,9.1220486E-1,1.9629565E-1,-2.259617E0,-1.8064131E-1,1.5946472E-1,7.628065E-1,8.142932E-1,3.3580735E0,2.6306847E-1,-8.3635634E-1,7.4516755E-1,-1.0337079E0,-8.442833E-1,1.44403E0,-1.4833142E0,1.6253816E-1,-4.6704435E-1,-2.2300136E0,4.1479126E-1,-1.893676E-2,-1.6819903E0,-3.53026E-1,1.4518134E-1,-2.6867588E0,2.1381044E-1,2.6451468E0,-1.6007875E0,2.1758335E0,4.983406E-1,-2.496713E0,2.8579557E0,-6.4266866E-1],"categories":[],"categories_nodes":[],"categories_segments":[],"categories_sizes":[],"default_left":[0,0,0,0,0,0,0,0,0,0,0,0,0,0,0,0,0,0,0,0,0,0,0,0,0,0,0,0,0,0,0,0,0,0,0,0,0,0,0,0,0,0,0,0,0,0,0,0,0,0,0,0,0,0,0,0,0,0,0,0,0,0,0,0,0,0,0,0,0,0,0,0,0,0,0,0,0,0,0,0,0,0,0],"id":9,"left_children":[1,3,5,7,9,11,13,15,17,19,21,23,25,-1,27,29,31,33,35,37,39,41,43,-1,45,-1,-1,47,49,51,-1,53,55,-1,-1,57,59,61,63,-1,65,67,69,71,73,-1,-1,75,77,79,81,-1,-1,-1,-1,-1,-1,-1,-1,-1,-1,-1,-1,-1,-1,-1,-1,-1,-1,-1,-1,-1,-1,-1,-1,-1,-1,-1,-1,-1,-1,-1,-1],"loss_changes":[1.4346592E3,6.6897296E2,7.772157E2,6.00728E2,6.9101184E2,1.4392432E3,3.800985E2,4.121824E2,4.9175287E2,2.601181E2,6.106661E2,7.6822266E1,1.3149194E2,0E0,3.2338788E2,7.5116394E1,3.9421448E2,8.905322E1,2.5252597E2,1.8363574E2,8.2838806E1,8.714208E2,5.854583E2,0E0,1.1989279E0,0E0,0E0,5.707751E2,6.8628534E2,1.1437187E0,0E0,1.8565585E2,3.0029834E2,0E0,0E0,8.8530396E1,2.814879E1,2.5855917E2,1.6293066E2,0E0,3.0558395E1,3.7735175E2,6.4223376E2,3.0526367E2,5.251501E2,0E0,0E0,3.032606E2,3.9544177E2,1.9076813E2,4.6187827E2,0E0,0E0,0E0,0E0,0E0,0E0,0E0,0E0,0E0,0E0,0E0,0E0,0E0,0E0,0E0,0E0,0E0,0E0,0E0,0E0,0E0,0E0,0E0,0E0,0E0,0E0,0E0,0E0,0E0,0E0,0E0,0E0],"parents":[2147483647,0,0,1,1,2,2,3,3,4,4,5,5,6,6,7,7,8,8,9,9,10,10,11,11,12,12,14,14,15,15,16,16,17,17,18,18,19,19,20,20,21,21,22,22,24,24,27,27,28,28,29,29,31,31,32,32,35,35,36,36,37,37,38,38,40,40,41,41,42,42,43,43,44,44,47,47,48,48,49,49,50,50],"right_children":[2,4,6,8,10,12,14,16,18,20,22,24,26,-1,28,30,32,34,36,38,40,42,44,-1,46,-1,-1,48,50,52,-1,54,56,-1,-1,58,60,62,64,-1,66,68,70,72,74,-1,-1,76,78,80,82,-1,-1,-1,-1,-1,-1,-1,-1,-1,-1,-1,-1,-1,-1,-1,-1,-1,-1,-1,-1,-1,-1,-1,-1,-1,-1,-1,-1,-1,-1,-1,-1],"split_conditions":[7.6E1,1.3979872E1,4.9E1,7.6E1,1.4E1,2.6E1,-2.4291663E-1,1E1,1.0299999E0,4.1E1,2.323787E2,2.8E1,-2.4291663E-1,4.8738856E0,8.3E1,1.8E1,2.8E1,2.3E1,5.6E1,1.3E1,1.5E1,3.722545E1,2.9457043E2,-1.9071862E0,7.9E1,2.2430735E0,7.0479426E0,6.4E1,9.5E1,1.4E1,3.4927707E0,1.1E1,1E-1,1.0885346E0,5.8981094E0,8E1,8.1E1,1.32195015E1,4.1798775E1,-3.3876784E0,5.1E1,6.8E1,9.229999E0,1.1E1,8.5E1,4.858635E-1,3.8964845E-2,7.2000003E0,1.2883334E0,1.2599998E1,1.06E2,9.1220486E-1,1.9629565E-1,-2.259617E0,-1.8064131E-1,1.5946472E-1,7.628065E-1,8.142932E-1,3.3580735E0,2.6306847E-1,-8.3635634E-1,7.4516755E-1,-1.0337079E0,-8.442833E-1,1.44403E0,-1.4833142E0,1.6253816E-1,-4.6704435E-1,-2.2300136E0,4.1479126E-1,-1.893676E-2,-1.6819903E0,-3.53026E-1,1.4518134E-1,-2.6867588E0,2.1381044E-1,2.6451468E0,-1.6007875E0,2.1758335E0,4.983406E-1,-2.496713E0,2.8579557E0,-6.4266866E-1],"split_indices":[0,5,1,2,2,2,3,2,3,0,6,1,3,0,2,1,0,0,1,1,1,6,6,0,0,0,0,2,2,0,0,0,4,0,0,2,1,3,5,0,0,1,3,0,2,0,0,4,3,5,2,0,0,0,0,0,0,0,0,0,0,0,0,0,0,0,0,0,0,0,0,0,0,0,0,0,0,0,0,0,0,0,0],"split_type":[0,0,0,0,0,0,0,0,0,0,0,0,0,0,0,0,0,0,0,0,0,0,0,0,0,0,0,0,0,0,0,0,0,0,0,0,0,0,0,0,0,0,0,0,0,0,0,0,0,0,0,0,0,0,0,0,0,0,0,0,0,0,0,0,0,0,0,0,0,0,0,0,0,0,0,0,0,0,0,0,0,0,0],"sum_hessian":[3.24E3,3.105E3,1.35E2,4.81E2,2.624E3,1E1,1.25E2,4.64E2,1.7E1,1.46E2,2.478E3,4E0,6E0,1E0,1.24E2,5E0,4.59E2,3E0,1.4E1,1.37E2,9E0,1.432E3,1.046E3,2E0,2E0,2E0,4E0,1.01E2,2.3E1,2E0,3E0,1.31E2,3.28E2,1E0,2E0,6E0,8E0,2.9E1,1.08E2,3E0,6E0,1.49E2,1.283E3,7.07E2,3.39E2,1E0,1E0,6.8E1,3.3E1,1.1E1,1.2E1,1E0,1E0,3E0,1.28E2,2.15E2,1.13E2,3E0,3E0,6E0,2E0,1.8E1,1.1E1,1.06E2,2E0,5E0,1E0,1.38E2,1.1E1,5.08E2,7.75E2,1.5E1,6.92E2,3.34E2,5E0,6.4E1,4E0,2E0,3.1E1,2E0,9E0,6E0,6E0],"tree_param":{"num_deleted":"0","num_feature":"7","num_nodes":"83","size_leaf_vector":"1"}},{"base_weights":[2.8490543E-2,-1.5521011E-1,1.4674847E0,2.468145E-1,-5.4773366E-1,-5.225414E0,1.7477283E0,9.071795E-1,-2.6692775E-1,-5.9621704E-1,4.8760514E0,2.3096542E-1,-7.230549E0,-2.9342623E0,1.8744904E0,-8.993922E-1,1.3231117E0,-7.227236E0,-1.6967419E-1,-5.30579E-1,-3.5688088E0,-1.8326766E0,8.061339E0,1.0062195E0,-1.3883257E0,-3.110525E0,-1.3914245E0,2.5117426E0,-2.0572768E-1,-8.314272E-2,-8.75751E0,2.304677E0,2.427896E-1,9.1183925E-1,-8.557852E0,6.934656E-1,-6.370878E-1,5.162982E0,-5.7075346E-1,-9.917745E0,-1.966408E0,-8.34297E-1,-2.734712E-1,5.497528E0,4.487734E0,-1.0106793E-1,-4.8795167E-1,-1.5257493E0,8.3003694E-1,4.95854E0,1.3677778E0,-1.2433318E0,2.916881E0,-2.808883E-1,1.5635821E0,-3.0583622E0,8.419184E-1,7.9668534E-1,-1.5946871E0,1.12089366E-1,-3.0916412E0,-2.6977787E0,-6.967735E-1,7.8958124E-2,1.7064909E0,-1.4200087E0,-1.487076E-1,-2.00043E0,2.6862798E0,-1.28632E-1,-5.186544E-1,-3.3283215E0,-6.0516703E-1,2.9755867E-1,-1.5002928E0,-1.7841111E-1,5.5349067E-2,1.3139306E-1,1.5011107E0,9.849188E-1,3.767569E0,8.260079E-1,-1.0596048E0,-2.3703165E0,1.9370918E-1,-6.823671E-1,1.8859736E0],"categories":[],"categories_nodes":[],"categories_segments":[],"categories_sizes":[],"default_left":[0,0,0,0,0,0,0,0,0,0,0,0,0,0,0,0,0,0,0,0,0,0,0,0,0,0,0,0,0,0,0,0,0,0,0,0,0,0,0,0,0,0,0,0,0,0,0,0,0,0,0,0,0,0,0,0,0,0,0,0,0,0,0,0,0,0,0,0,0,0,0,0,0,0,0,0,0,0,0,0,0,0,0,0,0,0,0],"id":10,"left_children":[1,3,5,7,9,11,13,15,17,19,21,23,25,-1,27,29,31,33,35,37,39,41,43,-1,45,-1,47,49,51,53,55,57,59,-1,61,63,65,67,69,71,73,-1,75,-1,77,-1,-1,-1,-1,79,81,83,85,-1,-1,-1,-1,-1,-1,-1,-1,-1,-1,-1,-1,-1,-1,-1,-1,-1,-1,-1,-1,-1,-1,-1,-1,-1,-1,-1,-1,-1,-1,-1,-1,-1,-1],"loss_changes":[8.569673E2,4.5382202E2,6.9749316E2,4.8232687E2,3.8551874E2,1.6578165E2,5.342042E2,4.685679E2,5.4030554E2,2.7965765E2,2.925738E2,2.9942572E1,1.871195E2,0E0,4.644851E2,7.497315E2,5.3600635E2,1.7628271E2,3.1916202E2,3.261509E2,2.9587738E2,6.632555E0,2.4786938E2,0E0,4.5376205E-1,0E0,9.088209E1,7.4336316E2,2.7254932E2,4.8825327E2,2.1140436E2,7.227987E2,3.378471E2,0E0,6.2214355E0,5.9596326E2,2.9478137E2,5.0825775E2,2.3011346E2,3.339746E1,2.383641E2,0E0,5.5106366E-1,0E0,1.4524872E1,0E0,0E0,0E0,0E0,1.0411309E3,1.2589126E3,7.9742944E2,3.8166425E2,0E0,0E0,0E0,0E0,0E0,0E0,0E0,0E0,0E0,0E0,0E0,0E0,0E0,0E0,0E0,0E0,0E0,0E0,0E0,0E0,0E0,0E0,0E0,0E0,0E0,0E0,0E0,0E0,0E0,0E0,0E0,0E0,0E0,0E0],"parents":[2147483647,0,0,1,1,2,2,3,3,4,4,5,5,6,6,7,7,8,8,9,9,10,10,11,11,12,12,14,14,15,15,16,16,17,17,18,18,19,19,20,20,21,21,22,22,24,24,26,26,27,27,28,28,29,29,30,30,31,31,32,32,34,34,35,35,36,36,37,37,38,38,39,39,40,40,42,42,44,44,49,49,50,50,51,51,52,52],"right_children":[2,4,6,8,10,12,14,16,18,20,22,24,26,-1,28,30,32,34,36,38,40,42,44,-1,46,-1,48,50,52,54,56,58,60,-1,62,64,66,68,70,72,74,-1,76,-1,78,-1,-1,-1,-1,80,82,84,86,-1,-1,-1,-1,-1,-1,-1,-1,-1,-1,-1,-1,-1,-1,-1,-1,-1,-1,-1,-1,-1,-1,-1,-1,-1,-1,-1,-1,-1,-1,-1,-1,-1,-1],"split_conditions":[6E1,2.1068459E1,2.4E1,1.0134166E1,2.069875E1,7.3195834E0,8.261842E0,7.31615E1,1.0244582E1,5.6E1,1.5E1,6.1E1,7.6E1,-2.9342623E0,8E1,6.6892426E1,2.4516632E2,1.9E1,1.767379E2,-8.783334E-1,5.7E1,1.5E1,2.113E1,1.0062195E0,3.6E1,-3.110525E0,2.8E1,1.0165642E2,1.03E2,8.857083E0,1.835647E1,6.2999997E0,8.3E1,9.1183925E-1,3.8E1,1.9770523E1,1.85062E2,3.3E1,4.9E1,1.0759166E1,4.6E1,-8.34297E-1,1.9E1,5.497528E0,7.0699135E1,-1.0106793E-1,-4.8795167E-1,-1.5257493E0,8.3003694E-1,8.7E1,3.3E0,6.1E1,6.9174995E0,-2.808883E-1,1.5635821E0,-3.0583622E0,8.419184E-1,7.9668534E-1,-1.5946871E0,1.12089366E-1,-3.0916412E0,-2.6977787E0,-6.967735E-1,7.8958124E-2,1.7064909E0,-1.4200087E0,-1.487076E-1,-2.00043E0,2.6862798E0,-1.28632E-1,-5.186544E-1,-3.3283215E0,-6.0516703E-1,2.9755867E-1,-1.5002928E0,-1.7841111E-1,5.5349067E-2,1.3139306E-1,1.5011107E0,9.849188E-1,3.767569E0,8.260079E-1,-1.0596048E0,-2.3703165E0,1.9370918E-1,-6.823671E-1,1.8859736E0],"split_indices":[0,5,2,3,3,3,6,6,3,0,2,0,0,0,1,6,6,0,6,3,0,0,3,0,1,0,1,6,0,3,5,4,1,0,1,5,6,0,1,3,2,0,0,0,6,0,0,0,0,0,4,2,3,0,0,0,0,0,0,0,0,0,0,0,0,0,0,0,0,0,0,0,0,0,0,0,0,0,0,0,0,0,0,0,0,0,0],"split_type":[0,0,0,0,0,0,0,0,0,0,0,0,0,0,0,0,0,0,0,0,0,0,0,0,0,0,0,0,0,0,0,0,0,0,0,0,0,0,0,0,0,0,0,0,0,0,0,0,0,0,0,0,0,0,0,0,0,0,0,0,0,0,0,0,0,0,0,0,0,0,0,0,0,0,0,0,0,0,0,0,0,0,0,0,0,0,0],"sum_hessian":[3.24E3,2.874E3,3.66E2,1.42E3,1.454E3,1.4E1,3.52E2,6.21E2,7.99E2,1.442E3,1.2E1,4E0,1E1,3E0,3.49E2,1.16E2,5.05E2,1E1,7.89E2,1.412E3,3E1,4E0,8E0,1E0,3E0,6E0,4E0,2.67E2,8.2E1,1.06E2,1E1,2.64E2,2.41E2,1E0,9E0,2.77E2,5.12E2,9E0,1.403E3,5E0,2.5E1,2E0,2E0,1E0,7E0,1E0,2E0,2E0,2E0,8.4E1,1.83E2,6.2E1,2E1,9.2E1,1.4E1,9E0,1E0,2.53E2,1.1E1,2.39E2,2E0,8E0,1E0,2.56E2,2.1E1,1.6E1,4.96E2,2E0,7E0,1.251E3,1.52E2,4E0,1E0,1.3E1,1.2E1,1E0,1E0,1E0,6E0,7E1,1.4E1,1.43E2,4E1,1.3E1,4.9E1,8E0,1.2E1],"tree_param":{"num_deleted":"0","num_feature":"7","num_nodes":"87","size_leaf_vector":"1"}},{"base_weights":[1.7265197E-2,-3.014212E-1,4.8068634E-1,-9.163585E-1,-1.5018165E-1,6.377056E-1,-1.4021004E0,5.315113E-1,-1.4301821E0,5.698001E-1,-3.8674176E-1,6.051958E-1,1.0369389E1,-4.9620605E-1,-5.9023843E0,2.6049476E0,-9.5350283E-1,-1.5151389E0,2.702032E0,4.525966E-1,9.3164215E0,-1.1480299E0,-1.071781E-1,-1.7786647E0,7.088562E-1,4.2899065E0,-2.1322604E-1,-2.6609166E0,9.70353E-1,-7.3470407E0,3.2883606E0,1.0161511E0,4.2476435E0,-2.1073582E0,3.1280816E-1,1.4026874E0,-1.6305386E0,-6.046849E-1,5.56476E0,1.320264E0,-6.5158355E-1,4.361465E0,-1.735614E0,3.303402E-1,-2.0246692E0,-4.029931E-1,1.8283482E0,-6.928532E-1,-7.528295E0,-4.849768E0,7.514091E-1,4.6888537E0,-3.2484436E0,-2.2969778E0,1.6547903E0,-8.1983795E0,6.857552E-1,-9.7018605E-1,2.4499483E0,-2.2773471E-1,1.3465558E0,-8.726329E-1,5.15004E-1,-9.285515E-2,2.6606877E0,1.1576381E0,-3.861599E-1,-1.3969991E0,-4.554663E-1,2.1615412E0,7.848767E-1,2.8400557E-2,7.776263E-1,-1.7356426E0,-7.574762E-2,3.4387648E-1,-7.708345E-1,-3.4282255E-1,-1.1003888E0,-2.7833122E-1,1.4421058E-1,9.9328285E-1,7.643674E-3,-2.1015851E0,2.0721672E-1,3.452242E-1,-2.6797652E0,7.334127E-1,-2.6713376E0,7.3182565E-1,1.7952038E-1,1.8874584E0,2.2252579E-1,-6.495604E-1,-2.0887804E0,6.679828E-1,-1.6004473E0,-2.691912E0,-7.100842E-1],"categories":[],"categories_nodes":[],"categories_segments":[],"categories_sizes":[],"default_left":[0,0,0,0,0,0,0,0,0,0,0,0,0,0,0,0,0,0,0,0,0,0,0,0,0,0,0,0,0,0,0,0,0,0,0,0,0,0,0,0,0,0,0,0,0,0,0,0,0,0,0,0,0,0,0,0,0,0,0,0,0,0,0,0,0,0,0,0,0,0,0,0,0,0,0,0,0,0,0,0,0,0,0,0,0,0,0,0,0,0,0,0,0,0,0,0,0,0,0],"id":11,"left_children":[1,3,5,7,9,11,13,15,17,19,21,23,25,27,29,31,33,35,37,39,41,43,45,47,49,-1,-1,51,53,55,57,59,-1,61,63,65,67,-1,69,71,73,-1,-1,75,77,79,81,83,85,87,89,91,93,-1,95,97,-1,-1,-1,-1,-1,-1,-1,-1,-1,-1,-1,-1,-1,-1,-1,-1,-1,-1,-1,-1,-1,-1,-1,-1,-1,-1,-1,-1,-1,-1,-1,-1,-1,-1,-1,-1,-1,-1,-1,-1,-1,-1,-1],"loss_changes":[4.7879526E2,1.7852083E2,3.9142648E2,2.8271704E2,2.6302252E2,3.797022E2,4.1290298E2,3.1039206E2,1.02390625E2,3.8738474E2,2.471837E2,3.019961E2,1.843566E2,2.7560416E2,2.4987677E2,7.5659546E2,8.6866455E1,9.4884155E1,9.224849E1,3.6300735E2,4.784016E2,4.0501996E2,4.8798343E2,3.1317773E2,2.7968103E2,0E0,0E0,1.663681E2,3.197094E2,1.4175299E2,1.2186023E2,2.3765375E2,0E0,9.999768E1,1.5716165E2,7.764016E1,8.3000305E1,0E0,4.961548E-1,3.3020776E2,3.4070428E2,0E0,0E0,2.7976492E2,2.7986456E2,3.4315234E2,3.0195605E2,3.8912262E2,1.0777991E2,2.8796042E2,2.9788525E2,1.4310989E1,1.1769455E2,0E0,2.0772144E2,4.2004578E1,0E0,0E0,0E0,0E0,0E0,0E0,0E0,0E0,0E0,0E0,0E0,0E0,0E0,0E0,0E0,0E0,0E0,0E0,0E0,0E0,0E0,0E0,0E0,0E0,0E0,0E0,0E0,0E0,0E0,0E0,0E0,0E0,0E0,0E0,0E0,0E0,0E0,0E0,0E0,0E0,0E0,0E0,0E0],"parents":[2147483647,0,0,1,1,2,2,3,3,4,4,5,5,6,6,7,7,8,8,9,9,10,10,11,11,12,12,13,13,14,14,15,15,16,16,17,17,18,18,19,19,20,20,21,21,22,22,23,23,24,24,27,27,28,28,29,29,30,30,31,31,33,33,34,34,35,35,36,36,38,38,39,39,40,40,43,43,44,44,45,45,46,46,47,47,48,48,49,49,50,50,51,51,52,52,54,54,55,55],"right_children":[2,4,6,8,10,12,14,16,18,20,22,24,26,28,30,32,34,36,38,40,42,44,46,48,50,-1,-1,52,54,56,58,60,-1,62,64,66,68,-1,70,72,74,-1,-1,76,78,80,82,84,86,88,90,92,94,-1,96,98,-1,-1,-1,-1,-1,-1,-1,-1,-1,-1,-1,-1,-1,-1,-1,-1,-1,-1,-1,-1,-1,-1,-1,-1,-1,-1,-1,-1,-1,-1,-1,-1,-1,-1,-1,-1,-1,-1,-1,-1,-1,-1,-1],"split_conditions":[3.6E1,1.7E1,3.096837E1,7.938333E0,2E1,3.0802622E1,6.5E1,2.1E1,6.9E1,3.5E1,2.4E1,1.7891016E1,8.807083E0,3.1E1,3.975841E1,7.1841674E0,2.7248455E1,1.2483748E1,1.85062E2,2.3333443E1,1.8E1,9.802915E0,2.9927515E2,2.2999997E0,1.5E1,4.2899065E0,-2.1322604E-1,1.2E1,4.6699127E1,1.1971665E1,4.2E1,1.8E1,4.2476435E0,4.2E1,5.699999E0,1.24904175E1,7.651694E1,-6.046849E-1,2.7E1,2E1,2.4231236E1,4.361465E0,-1.735614E0,2.6284418E2,2.3882631E2,1.2688333E1,3.251407E2,4E1,6.3174157E0,3.9E1,4.4017185E1,3.9E1,1.1082081E1,-2.2969778E0,2.44449E2,8.6E1,6.857552E-1,-9.7018605E-1,2.4499483E0,-2.2773471E-1,1.3465558E0,-8.726329E-1,5.15004E-1,-9.285515E-2,2.6606877E0,1.1576381E0,-3.861599E-1,-1.3969991E0,-4.554663E-1,2.1615412E0,7.848767E-1,2.8400557E-2,7.776263E-1,-1.7356426E0,-7.574762E-2,3.4387648E-1,-7.708345E-1,-3.4282255E-1,-1.1003888E0,-2.7833122E-1,1.4421058E-1,9.9328285E-1,7.643674E-3,-2.1015851E0,2.0721672E-1,3.452242E-1,-2.6797652E0,7.334127E-1,-2.6713376E0,7.3182565E-1,1.7952038E-1,1.8874584E0,2.2252579E-1,-6.495604E-1,-2.0887804E0,6.679828E-1,-1.6004473E0,-2.691912E0,-7.100842E-1],"split_indices":[0,0,5,3,1,5,1,2,2,0,2,6,3,2,5,3,5,5,6,5,1,3,6,4,1,0,0,2,6,3,0,2,0,1,4,3,6,0,1,2,5,0,0,6,6,3,6,0,3,0,6,0,3,0,6,0,0,0,0,0,0,0,0,0,0,0,0,0,0,0,0,0,0,0,0,0,0,0,0,0,0,0,0,0,0,0,0,0,0,0,0,0,0,0,0,0,0,0,0],"split_type":[0,0,0,0,0,0,0,0,0,0,0,0,0,0,0,0,0,0,0,0,0,0,0,0,0,0,0,0,0,0,0,0,0,0,0,0,0,0,0,0,0,0,0,0,0,0,0,0,0,0,0,0,0,0,0,0,0,0,0,0,0,0,0,0,0,0,0,0,0,0,0,0,0,0,0,0,0,0,0,0,0,0,0,0,0,0,0,0,0,0,0,0,0,0,0,0,0,0,0],"sum_hessian":[3.24E3,1.92E3,1.32E3,3.78E2,1.542E3,1.219E3,1.01E2,9.9E1,2.79E2,3.81E2,1.161E3,1.216E3,3E0,8.5E1,1.6E1,4.1E1,5.8E1,2.74E2,5E0,3.77E2,4E0,3.11E2,8.5E2,5E1,1.166E3,2E0,1E0,3.4E1,5.1E1,1.4E1,2E0,3.7E1,4E0,3E1,2.8E1,1E1,2.64E2,2E0,3E0,2.11E2,1.66E2,3E0,1E0,1.16E2,1.95E2,7.38E2,1.12E2,4.3E1,7E0,8E0,1.158E3,2E0,3.2E1,3E0,4.8E1,1.3E1,1E0,1E0,1E0,2.5E1,1.2E1,2.5E1,5E0,2.7E1,1E0,5E0,5E0,8E0,2.56E2,1E0,2E0,1.08E2,1.03E2,1.1E1,1.55E2,9.1E1,2.5E1,1.28E2,6.7E1,4.63E2,2.75E2,6.1E1,5.1E1,7E0,3.6E1,1E0,6E0,3E0,5E0,9.5E1,1.063E3,1E0,1E0,2.6E1,6E0,4.5E1,3E0,1.1E1,2E0],"tree_param":{"num_deleted":"0","num_feature":"7","num_nodes":"99","size_leaf_vector":"1"}},{"base_weights":[1.3067679E-2,-6.593212E-2,1.3975208E0,-8.723747E-2,5.8610125E0,7.324052E0,9.1627896E-1,1.4422838E-1,-6.062863E-1,3.4229012E0,1.0603987E0,-2.9792004E0,1.4135984E1,1.420376E0,-1.6754829E0,1.8008469E-1,-3.1249673E0,2.0867205E0,-7.4671555E-1,-3.8536987E0,5.7093964E0,4.99925E-1,-4.8437443E0,1.5717557E1,4.5974696E-1,1.1231577E0,4.296521E0,3.705615E0,-3.7441478E0,9.4222926E-2,1.7420621E0,-3.9574554E0,2.2784655E0,3.2135272E0,-6.1487145E0,-6.244093E-1,-6.078623E0,-4.3428802E-1,-1.6607872E0,-2.8891754E-1,2.4763703E0,-3.65839E-2,2.6155016E-1,-1.8431344E0,-1.4154512E-1,1.5286156E0,5.6842046E0,6.086735E-1,4.9115925E0,1.9336572E0,1.7180582E0,-4.888861E0,2.7008114E0,5.957916E-2,-3.00042E-1,2.597797E-1,3.0987465E0,-1.8100095E0,1.2886699E-1,6.278506E-1,2.5554037E0,-8.0250704E-1,-2.1650412E0,-2.573753E-1,3.793615E-1,-3.2155972E0,6.663782E-1,1.2810215E0,3.7177075E-2,2.7403035E0,-1.0946159E0,1.1239701E-1,8.809723E-1,8.2834095E-1,-1.7853844E0],"categories":[],"categories_nodes":[],"categories_segments":[],"categories_sizes":[],"default_left":[0,0,0,0,0,0,0,0,0,0,0,0,0,0,0,0,0,0,0,0,0,0,0,0,0,0,0,0,0,0,0,0,0,0,0,0,0,0,0,0,0,0,0,0,0,0,0,0,0,0,0,0,0,0,0,0,0,0,0,0,0,0,0,0,0,0,0,0,0,0,0,0,0,0,0],"id":12,"left_children":[1,3,5,7,9,11,13,15,17,-1,19,21,23,25,27,29,31,33,35,37,39,41,43,45,-1,47,-1,49,51,53,55,57,-1,59,61,63,65,-1,-1,-1,-1,-1,-1,-1,-1,-1,-1,67,69,-1,71,73,-1,-1,-1,-1,-1,-1,-1,-1,-1,-1,-1,-1,-1,-1,-1,-1,-1,-1,-1,-1,-1,-1,-1],"loss_changes":[3.5456525E2,3.877987E2,4.9240573E2,3.6736176E2,2.8090768E2,9.5451965E2,2.153392E2,2.4848586E2,3.58179E2,0E0,1.8192168E2,4.1343403E1,1.3537976E2,5.0924362E2,3.1442996E2,2.805368E2,2.3531184E2,4.5590707E2,5.8116095E2,8.176544E0,7.587979E1,8.0015516E-1,1.9835922E1,1.4360767E2,0E0,2.601376E2,0E0,3.2492004E1,3.358429E2,2.2693195E2,8.111071E2,2.029465E2,0E0,2.318504E2,2.9561615E0,3.883575E2,7.940437E2,0E0,0E0,0E0,0E0,0E0,0E0,0E0,0E0,0E0,0E0,2.1245435E2,6.11698E2,0E0,8.721533E0,1.7085495E2,0E0,0E0,0E0,0E0,0E0,0E0,0E0,0E0,0E0,0E0,0E0,0E0,0E0,0E0,0E0,0E0,0E0,0E0,0E0,0E0,0E0,0E0,0E0],"parents":[2147483647,0,0,1,1,2,2,3,3,4,4,5,5,6,6,7,7,8,8,10,10,11,11,12,12,13,13,14,14,15,15,16,16,17,17,18,18,19,19,20,20,21,21,22,22,23,23,25,25,27,27,28,28,29,29,30,30,31,31,33,33,34,34,35,35,36,36,47,47,48,48,50,50,51,51],"right_children":[2,4,6,8,10,12,14,16,18,-1,20,22,24,26,28,30,32,34,36,38,40,42,44,46,-1,48,-1,50,52,54,56,58,-1,60,62,64,66,-1,-1,-1,-1,-1,-1,-1,-1,-1,-1,68,70,-1,72,74,-1,-1,-1,-1,-1,-1,-1,-1,-1,-1,-1,-1,-1,-1,-1,-1,-1,-1,-1,-1,-1,-1,-1],"split_conditions":[7.2E1,1.1E2,4.8E1,1.8E0,1.26E2,2.6E1,8.3E1,8.6E1,2.9820836E0,3.4229012E0,6.1E1,1.9E1,9.802915E0,1.1E2,1.2979984E1,6.1E1,1.43E2,3.2414255E2,6.5E1,3.7E1,3.4E1,7.7E1,8E1,-2.4291663E-1,4.5974696E-1,6.7E0,4.296521E0,9.5E1,2.4783359E2,5.5E1,7.7E1,1.1971665E1,2.2784655E0,5.5E1,3E1,4.8E1,5.9E1,-4.3428802E-1,-1.6607872E0,-2.8891754E-1,2.4763703E0,-3.65839E-2,2.6155016E-1,-1.8431344E0,-1.4154512E-1,1.5286156E0,5.6842046E0,1.53625E0,1.2500001E1,1.9336572E0,1.0400832E1,1.9049999E0,2.7008114E0,5.957916E-2,-3.00042E-1,2.597797E-1,3.0987465E0,-1.8100095E0,1.2886699E-1,6.278506E-1,2.5554037E0,-8.0250704E-1,-2.1650412E0,-2.573753E-1,3.793615E-1,-3.2155972E0,6.663782E-1,1.2810215E0,3.7177075E-2,2.7403035E0,-1.0946159E0,1.1239701E-1,8.809723E-1,8.2834095E-1,-1.7853844E0],"split_indices":[0,2,1,4,2,2,2,1,3,0,1,2,3,1,5,0,1,6,0,0,0,0,0,3,0,4,0,0,6,1,2,3,0,2,1,0,2,0,0,0,0,0,0,0,0,0,0,3,4,0,3,3,0,0,0,0,0,0,0,0,0,0,0,0,0,0,0,0,0,0,0,0,0,0,0],"split_type":[0,0,0,0,0,0,0,0,0,0,0,0,0,0,0,0,0,0,0,0,0,0,0,0,0,0,0,0,0,0,0,0,0,0,0,0,0,0,0,0,0,0,0,0,0,0,0,0,0,0,0,0,0,0,0,0,0,0,0,0,0,0,0,0,0,0,0,0,0,0,0,0,0,0,0],"sum_hessian":[3.24E3,3.066E3,1.74E2,3.056E3,1E1,1.2E1,1.62E2,2.114E3,9.42E2,4E0,6E0,5E0,7E0,1.36E2,2.6E1,2.092E3,2.2E1,4.6E1,8.96E2,3E0,3E0,2E0,3E0,6E0,1E0,1.34E2,2E0,7E0,1.9E1,1.984E3,1.08E2,2.1E1,1E0,4.1E1,5E0,8.77E2,1.9E1,2E0,1E0,1E0,2E0,1E0,1E0,2E0,1E0,2E0,4E0,1.19E2,1.5E1,2E0,5E0,1.8E1,1E0,1.812E3,1.72E2,9.9E1,9E0,1.4E1,7E0,3.5E1,6E0,2E0,3E0,7.81E2,9.6E1,1.2E1,7E0,1.3E1,1.06E2,1E1,5E0,3E0,2E0,2E0,1.6E1],"tree_param":{"num_deleted":"0","num_feature":"7","num_nodes":"75","size_leaf_vector":"1"}},{"base_weights":[1.6201809E-2,3.3969486E-1,-2.3122548E-1,1.5435815E-1,3.0784447E0,-6.456265E0,-1.833188E-1,-1.5037848E0,4.973856E-1,-2.7214744E0,4.909618E0,-8.454585E0,6.531801E-1,8.6872226E-1,-3.8768587E-1,-2.6642199E0,1.5409002E0,2.0886323E0,2.0784305E-1,-4.775366E0,7.758539E-1,1.2094627E1,2.9914405E0,2.4595013E-1,-9.46401E0,2.4446298E-1,2.5213623E-2,6.5687215E-1,1.1033974E1,3.0626197E0,-4.4244975E-1,-1.2223607E0,-4.7334437E0,-1.3574725E-1,3.9321196E0,-4.7032198E-1,3.272066E0,2.9147698E-2,1.8061806E0,-1.5336571E0,-5.9186835E0,3.5021102E0,-1.0522482E0,1.9094955E1,6.0838947E0,1.1602859E1,2.271496E0,-1.0010365E1,-6.820233E-1,8.3907974E-1,-2.4504614E0,3.8328457E0,3.484623E-1,6.5285163E0,1.5446255E0,-1.3923485E0,-2.4110958E-1,-6.837594E-1,1.5844387E0,-1.6693517E0,6.273607E-1,1.429562E0,-6.1688215E-1,-4.1623923E-1,2.2030728E0,3.8185725E-1,-1.662526E0,1.4207454E0,1.7497167E-2,2.9148737E-2,-1.3896878E0,2.8971586E-1,2.219645E0,-5.7287526E-1,-1.9395334E-1,-1.3410616E-1,-1.9430932E0,9.948178E-2,1.5013384E0,2.5888035E0,8.005236E0,-2.3523961E-1,2.447462E0,4.447809E0,2.900013E-1,2.611363E0,3.729521E-1,-3.1602726E0,-8.7290156E-1,1.1148865E0,6.0468957E-2,-4.196337E-1,2.4248586E0,-1.0027727E-1,1.948972E0,-1.7960607E-1,-8.103162E-1,-6.050038E-2,-1.52523E0],"categories":[],"categories_nodes":[],"categories_segments":[],"categories_sizes":[],"default_left":[0,0,0,0,0,0,0,0,0,0,0,0,0,0,0,0,0,0,0,0,0,0,0,0,0,0,0,0,0,0,0,0,0,0,0,0,0,0,0,0,0,0,0,0,0,0,0,0,0,0,0,0,0,0,0,0,0,0,0,0,0,0,0,0,0,0,0,0,0,0,0,0,0,0,0,0,0,0,0,0,0,0,0,0,0,0,0,0,0,0,0,0,0,0,0,0,0,0,0],"id":13,"left_children":[1,3,5,7,9,11,13,15,17,19,21,23,25,27,29,31,33,35,37,39,41,43,45,-1,47,-1,-1,49,51,53,55,57,59,61,63,65,67,69,71,73,75,77,-1,79,81,83,85,87,-1,89,-1,-1,-1,91,93,95,97,-1,-1,-1,-1,-1,-1,-1,-1,-1,-1,-1,-1,-1,-1,-1,-1,-1,-1,-1,-1,-1,-1,-1,-1,-1,-1,-1,-1,-1,-1,-1,-1,-1,-1,-1,-1,-1,-1,-1,-1,-1,-1],"loss_changes":[2.5949142E2,7.1268994E2,5.466483E2,7.498424E2,9.5859973E2,2.0441962E2,3.9250143E2,8.0259937E2,5.0268698E2,1.6173387E2,9.01004E2,1.10739136E2,2.9962182E-1,6.323444E2,2.9007394E2,4.8351282E2,2.5311537E2,5.103023E2,2.641417E2,4.2811035E1,1.17381165E2,4.729077E2,3.1463E2,0E0,1.6528381E1,0E0,0E0,4.7638864E2,8.835718E1,1.1618495E2,2.8749973E2,6.856388E2,3.9164062E2,3.6747018E2,4.820246E2,4.8443625E2,5.4069775E2,2.6455002E2,4.299914E2,4.3294334E-1,2.7652618E1,2.6919746E1,0E0,2.4628491E2,1.3461499E2,1.2279712E2,3.331715E2,2.8278809E0,0E0,5.256859E2,0E0,0E0,0E0,9.755847E1,1.6964587E2,2.715529E2,2.3640704E2,0E0,0E0,0E0,0E0,0E0,0E0,0E0,0E0,0E0,0E0,0E0,0E0,0E0,0E0,0E0,0E0,0E0,0E0,0E0,0E0,0E0,0E0,0E0,0E0,0E0,0E0,0E0,0E0,0E0,0E0,0E0,0E0,0E0,0E0,0E0,0E0,0E0,0E0,0E0,0E0,0E0,0E0],"parents":[2147483647,0,0,1,1,2,2,3,3,4,4,5,5,6,6,7,7,8,8,9,9,10,10,11,11,12,12,13,13,14,14,15,15,16,16,17,17,18,18,19,19,20,20,21,21,22,22,24,24,27,27,28,28,29,29,30,30,31,31,32,32,33,33,34,34,35,35,36,36,37,37,38,38,39,39,40,40,41,41,43,43,44,44,45,45,46,46,47,47,49,49,53,53,54,54,55,55,56,56],"right_children":[2,4,6,8,10,12,14,16,18,20,22,24,26,28,30,32,34,36,38,40,42,44,46,-1,48,-1,-1,50,52,54,56,58,60,62,64,66,68,70,72,74,76,78,-1,80,82,84,86,88,-1,90,-1,-1,-1,92,94,96,98,-1,-1,-1,-1,-1,-1,-1,-1,-1,-1,-1,-1,-1,-1,-1,-1,-1,-1,-1,-1,-1,-1,-1,-1,-1,-1,-1,-1,-1,-1,-1,-1,-1,-1,-1,-1,-1,-1,-1,-1,-1,-1],"split_conditions":[9.229999E0,8.857083E0,9.271666E0,7.31615E1,1.9E1,6.1E1,8.5543655E1,1.1E0,1.60307E2,2.7959742E1,1.731746E1,2.1E1,7.9E1,1.03E2,8.669949E0,2.0056877E1,4.7E1,3.1E1,6.3E1,1.6E1,2.5E1,1.6988655E2,1.7E1,2.4595013E-1,5.3E1,2.4446298E-1,2.5213623E-2,2.2300003E1,1.16E2,1.60307E2,1.0815414E1,1.835647E1,6.226335E1,2.1E1,2.9135378E1,2.7E1,6E1,6.1E1,7.9E1,2.4684642E2,1.2E1,2.1E1,-1.0522482E0,1.484318E1,4.1E1,2E1,8.915334E0,6.9999995E0,-6.820233E-1,2.2E1,-2.4504614E0,3.8328457E0,3.484623E-1,1.2E1,4.7E1,2.6420174E1,9.1E1,-6.837594E-1,1.5844387E0,-1.6693517E0,6.273607E-1,1.429562E0,-6.1688215E-1,-4.1623923E-1,2.2030728E0,3.8185725E-1,-1.662526E0,1.4207454E0,1.7497167E-2,2.9148737E-2,-1.3896878E0,2.8971586E-1,2.219645E0,-5.7287526E-1,-1.9395334E-1,-1.3410616E-1,-1.9430932E0,9.948178E-2,1.5013384E0,2.5888035E0,8.005236E0,-2.3523961E-1,2.447462E0,4.447809E0,2.900013E-1,2.611363E0,3.729521E-1,-3.1602726E0,-8.7290156E-1,1.1148865E0,6.0468957E-2,-4.196337E-1,2.4248586E0,-1.0027727E-1,1.948972E0,-1.7960607E-1,-8.103162E-1,-6.050038E-2,-1.52523E0],"split_indices":[3,3,3,6,2,2,6,4,6,5,5,0,0,0,5,5,0,1,0,2,1,6,1,0,2,0,0,4,0,6,3,5,6,1,6,1,1,0,2,6,0,0,0,5,0,0,3,4,0,2,0,0,0,1,1,5,0,0,0,0,0,0,0,0,0,0,0,0,0,0,0,0,0,0,0,0,0,0,0,0,0,0,0,0,0,0,0,0,0,0,0,0,0,0,0,0,0,0,0],"split_type":[0,0,0,0,0,0,0,0,0,0,0,0,0,0,0,0,0,0,0,0,0,0,0,0,0,0,0,0,0,0,0,0,0,0,0,0,0,0,0,0,0,0,0,0,0,0,0,0,0,0,0,0,0,0,0,0,0,0,0,0,0,0,0,0,0,0,0,0,0,0,0,0,0,0,0,0,0,0,0,0,0,0,0,0,0,0,0,0,0,0,0,0,0,0,0,0,0,0,0],"sum_hessian":[3.24E3,1.404E3,1.836E3,1.316E3,8.8E1,1.3E1,1.823E3,2.25E2,1.091E3,2.1E1,6.7E1,1E1,3E0,2.96E2,1.527E3,1.63E2,6.2E1,1.67E2,9.24E2,1.3E1,8E0,1.3E1,5.4E1,1E0,9E0,2E0,1E0,2.91E2,5E0,2.3E1,1.504E3,9.7E1,6.6E1,3.7E1,2.5E1,5.3E1,1.14E2,8.32E2,9.2E1,4E0,9E0,5E0,3E0,5E0,8E0,3E0,5.1E1,8E0,1E0,2.86E2,5E0,4E0,1E0,6E0,1.7E1,2.62E2,1.242E3,8.4E1,1.3E1,5.9E1,7E0,1E1,2.7E1,1E1,1.5E1,4E1,1.3E1,7.8E1,3.6E1,8.21E2,1.1E1,8.1E1,1.1E1,2E0,2E0,1E0,8E0,2E0,3E0,3E0,2E0,2E0,6E0,2E0,1E0,6E0,4.5E1,7E0,1E0,5.1E1,2.35E2,1E0,5E0,1.3E1,4E0,1.64E2,9.8E1,1.233E3,9E0],"tree_param":{"num_deleted":"0","num_feature":"7","num_nodes":"99","size_leaf_vector":"1"}},{"base_weights":[1.8124169E-2,-1.1477611E0,6.0995508E-2,-5.00683E-1,-4.6069775E0,3.3575824E-1,-1.471175E-1,-1.8677438E0,1.9055814E0,-6.063977E0,3.9401704E-1,1.885451E-1,2.44144E0,-4.8043323E0,-1.1279006E-1,6.39086E-1,-4.0247188E0,3.4392054E0,-6.3357396E0,-8.957844E-1,-7.392049E0,-1.0637501E0,2.265438E0,-4.2125486E-2,1.2011127E0,-2.0093713E0,3.8664613E0,-1.0055304E1,-2.2235105E0,8.8787067E-1,-2.7054298E-1,-2.5066468E-1,4.2398663E0,-2.479244E-1,-6.3509283E0,-2.1884067E0,6.2232304E0,-9.203479E0,-4.0017447E-1,-4.9227524E-1,2.0094223E-1,-8.601558E0,-9.375058E-1,9.9811023E-1,-1.3790245E-1,1.2040423E-1,-2.3751323E0,5.605287E0,8.73862E-1,-3.7619739E0,4.6994925E-1,8.74415E0,1.7535396E0,-3.458461E0,-8.454907E-1,-3.4762404E0,5.246444E-1,-5.9832E-1,2.442106E0,-1.6152905E-1,-1.5035592E0,1.9877143E-1,-1.210837E0,1.4298163E-1,1.4691592E0,-6.407139E-1,4.304643E-1,-2.64159E0,-9.9576014E-1,1.3099308E-1,-1.3346168E0,2.0704691E0,-4.418602E-2,-4.2299998E-1,-3.399392E0,2.989729E-1,-4.790514E-1,-8.401421E-1,-3.0205524E0,-4.5783114E-2,2.670653E-1,-2.3480873E0,-2.3620474E-1,6.498348E-1,5.9358974E0,1.8415151E0,1.7778024E-1,-7.697237E-1,-2.0682456E0,6.674025E-1,-8.1549245E-1,4.539643E0,1.6818031E0,1.3444618E0,-2.1814044E-1,2.0905752E-1,-1.28637E0,1.9557019E-1,2.1431351E-2,-3.0228072E-1,2.2856498E0,2.1037878E-1,1.414604E0,-1.8317097E-1,8.632249E-2,-7.514483E-1,2.7554163E-1],"categories":[],"categories_nodes":[],"categories_segments":[],"categories_sizes":[],"default_left":[0,0,0,0,0,0,0,0,0,0,0,0,0,0,0,0,0,0,0,0,0,0,0,0,0,0,0,0,0,0,0,0,0,0,0,0,0,0,0,0,0,0,0,0,0,0,0,0,0,0,0,0,0,0,0,0,0,0,0,0,0,0,0,0,0,0,0,0,0,0,0,0,0,0,0,0,0,0,0,0,0,0,0,0,0,0,0,0,0,0,0,0,0,0,0,0,0,0,0,0,0,0,0,0,0,0,0],"id":14,"left_children":[1,3,5,7,9,11,13,15,17,19,21,23,25,27,29,31,33,35,37,39,41,-1,43,45,47,49,51,53,55,57,59,61,63,65,67,69,71,73,75,-1,-1,77,-1,-1,-1,79,81,83,85,87,89,91,93,-1,-1,95,97,99,101,103,105,-1,-1,-1,-1,-1,-1,-1,-1,-1,-1,-1,-1,-1,-1,-1,-1,-1,-1,-1,-1,-1,-1,-1,-1,-1,-1,-1,-1,-1,-1,-1,-1,-1,-1,-1,-1,-1,-1,-1,-1,-1,-1,-1,-1,-1,-1],"loss_changes":[1.6206511E2,2.5510739E2,1.7885657E2,3.259311E2,1.3354538E2,4.173982E2,2.8402716E2,3.4322382E2,4.7679706E2,8.947058E1,4.4898464E1,2.9458182E2,5.659091E2,1.5381561E2,2.7933163E2,9.717668E1,2.971364E2,4.9930872E2,9.8446915E1,5.765395E0,2.9891052E1,0E0,1.3101231E1,3.9008603E2,3.3235873E2,9.736372E1,6.751805E2,1.0147522E1,3.6250744E1,5.581447E2,2.0514468E2,8.9099655E1,1.2508217E1,4.7539417E1,1.2703406E2,6.721037E1,9.1764465E1,5.035553E1,6.605693E0,0E0,0E0,3.988257E1,0E0,0E0,0E0,2.0231969E2,5.7381067E2,7.374767E2,3.2063696E2,3.101979E1,6.199252E1,3.160974E2,3.2808807E2,0E0,0E0,2.6698013E1,1.8412304E-1,4.2470547E2,4.636612E2,2.836216E2,3.030134E2,0E0,0E0,0E0,0E0,0E0,0E0,0E0,0E0,0E0,0E0,0E0,0E0,0E0,0E0,0E0,0E0,0E0,0E0,0E0,0E0,0E0,0E0,0E0,0E0,0E0,0E0,0E0,0E0,0E0,0E0,0E0,0E0,0E0,0E0,0E0,0E0,0E0,0E0,0E0,0E0,0E0,0E0,0E0,0E0,0E0,0E0],"parents":[2147483647,0,0,1,1,2,2,3,3,4,4,5,5,6,6,7,7,8,8,9,9,10,10,11,11,12,12,13,13,14,14,15,15,16,16,17,17,18,18,19,19,20,20,22,22,23,23,24,24,25,25,26,26,27,27,28,28,29,29,30,30,31,31,32,32,33,33,34,34,35,35,36,36,37,37,38,38,41,41,45,45,46,46,47,47,48,48,49,49,50,50,51,51,52,52,55,55,56,56,57,57,58,58,59,59,60,60],"right_children":[2,4,6,8,10,12,14,16,18,20,22,24,26,28,30,32,34,36,38,40,42,-1,44,46,48,50,52,54,56,58,60,62,64,66,68,70,72,74,76,-1,-1,78,-1,-1,-1,80,82,84,86,88,90,92,94,-1,-1,96,98,100,102,104,106,-1,-1,-1,-1,-1,-1,-1,-1,-1,-1,-1,-1,-1,-1,-1,-1,-1,-1,-1,-1,-1,-1,-1,-1,-1,-1,-1,-1,-1,-1,-1,-1,-1,-1,-1,-1,-1,-1,-1,-1,-1,-1,-1,-1,-1,-1],"split_conditions":[2.2417027E1,5.7E1,9.229999E0,4E1,1.0561251E1,8.857083E0,9.271666E0,1.24378195E1,6.9999995E0,1.0823973E1,5.2E1,5.7E1,1.9E1,6.882633E1,8.5543655E1,2.347741E1,1.481259E1,5.4070835E0,5.2E1,8.7E1,5.5E1,-1.0637501E0,6.4E1,5.1E1,3.9035503E1,2.6987997E1,1.9376562E1,3.6E1,6.1E1,1E-1,5.9E1,2.2553936E1,1.53625E0,2.7E1,4E-1,3.74875E0,7E1,4.5E1,5.4E1,-4.9227524E-1,2.0094223E-1,5E1,-9.375058E-1,9.9811023E-1,-1.3790245E-1,4E1,7.651694E1,6.738333E0,5.8E1,4.7E1,2.5E1,1.6988655E2,3.4E1,-3.458461E0,-8.454907E-1,2.1E1,7.9E1,8.077702E1,1.4798748E1,2.8E1,7.2E1,1.9877143E-1,-1.210837E0,1.4298163E-1,1.4691592E0,-6.407139E-1,4.304643E-1,-2.64159E0,-9.9576014E-1,1.3099308E-1,-1.3346168E0,2.0704691E0,-4.418602E-2,-4.2299998E-1,-3.399392E0,2.989729E-1,-4.790514E-1,-8.401421E-1,-3.0205524E0,-4.5783114E-2,2.670653E-1,-2.3480873E0,-2.3620474E-1,6.498348E-1,5.9358974E0,1.8415151E0,1.7778024E-1,-7.697237E-1,-2.0682456E0,6.674025E-1,-8.1549245E-1,4.539643E0,1.6818031E0,1.3444618E0,-2.1814044E-1,2.0905752E-1,-1.28637E0,1.9557019E-1,2.1431351E-2,-3.0228072E-1,2.2856498E0,2.1037878E-1,1.414604E0,-1.8317097E-1,8.632249E-2,-7.514483E-1,2.7554163E-1],"split_indices":[6,0,3,0,3,3,3,6,4,5,1,0,2,6,6,5,5,3,0,0,2,0,1,0,6,5,5,2,2,4,1,5,3,2,4,3,2,0,0,0,0,1,0,0,0,1,6,3,0,0,1,6,2,0,0,0,0,6,3,2,2,0,0,0,0,0,0,0,0,0,0,0,0,0,0,0,0,0,0,0,0,0,0,0,0,0,0,0,0,0,0,0,0,0,0,0,0,0,0,0,0,0,0,0,0,0,0],"split_type":[0,0,0,0,0,0,0,0,0,0,0,0,0,0,0,0,0,0,0,0,0,0,0,0,0,0,0,0,0,0,0,0,0,0,0,0,0,0,0,0,0,0,0,0,0,0,0,0,0,0,0,0,0,0,0,0,0,0,0,0,0,0,0,0,0,0,0,0,0,0,0,0,0,0,0,0,0,0,0,0,0,0,0,0,0,0,0,0,0,0,0,0,0,0,0,0,0,0,0,0,0,0,0,0,0,0,0],"sum_hessian":[3.24E3,1.14E2,3.126E3,9.7E1,1.7E1,1.347E3,1.779E3,6.2E1,3.5E1,1.3E1,4E0,1.26E3,8.7E1,1.2E1,1.767E3,2.9E1,3.3E1,3E1,5E0,3E0,1E1,1E0,3E0,1.027E3,2.33E2,2.1E1,6.6E1,3E0,9E0,2.4E2,1.527E3,2.4E1,5E0,1.3E1,2E1,1E1,2E1,3E0,2E0,2E0,1E0,7E0,3E0,2E0,1E0,9.61E2,6.6E1,1.5E1,2.18E2,1.2E1,9E0,1.9E1,4.7E1,2E0,1E0,6E0,3E0,1.23E2,1.17E2,1.404E3,1.23E2,2E1,4E0,1E0,4E0,6E0,7E0,1E1,1E1,5E0,5E0,1.8E1,2E0,1E0,2E0,1E0,1E0,2E0,5E0,7.1E2,2.51E2,1.4E1,5.2E1,1.3E1,2E0,1E1,2.08E2,1E1,2E0,6E0,3E0,5E0,1.4E1,2.2E1,2.5E1,1E0,5E0,2E0,1E0,1.18E2,5E0,6.7E1,5E1,7.02E2,7.02E2,8.7E1,3.6E1],"tree_param":{"num_deleted":"0","num_feature":"7","num_nodes":"107","size_leaf_vector":"1"}},{"base_weights":[1.1685524E-2,2.229691E-2,-4.2794275E0,-4.881478E-3,2.4367793E0,-7.99983E0,4.5878525E0,-1.8723626E-2,4.0085273E0,4.9398084E0,-3.700997E0,-9.347948E0,-1.8888588E-1,1.9056565E0,1.588772E-1,1.2904596E-1,-3.5096043E-1,5.590235E0,-1.7712834E0,5.826217E0,-3.7980626E0,-1.0804819E1,1.9018756E0,-3.2819436E0,-4.4707376E-1,1.7914535E-1,-1.3813981E0,-5.661262E-1,1.4515781E0,7.711857E-1,8.674404E0,9.459336E0,2.5554645E0,-1.7434388E0,3.4310535E-2,-3.795198E0,-5.132189E-1,2.8680649E0,-5.84289E-1,4.651992E-2,1.9712346E0,9.500254E-1,-6.0276204E-1,-1.1752678E-1,-1.0922422E0,6.889069E-1,-7.479045E-1,1.264539E0,-3.4307486E-1,2.8386364E0,7.1037316E-1,7.222744E-1,3.5408394E0,1.7288773E0,-1.3111643E0,1.1179553E0,2.3023187E-1],"categories":[],"categories_nodes":[],"categories_segments":[],"categories_sizes":[],"default_left":[0,0,0,0,0,0,0,0,0,0,0,0,0,0,0,0,0,0,0,0,0,0,0,0,0,0,0,0,0,0,0,0,0,0,0,0,0,0,0,0,0,0,0,0,0,0,0,0,0,0,0,0,0,0,0,0,0],"id":15,"left_children":[1,3,5,7,9,11,13,15,17,19,21,23,-1,-1,-1,25,27,29,-1,31,33,35,37,-1,-1,39,41,43,45,47,49,51,53,-1,-1,-1,-1,55,-1,-1,-1,-1,-1,-1,-1,-1,-1,-1,-1,-1,-1,-1,-1,-1,-1,-1,-1],"loss_changes":[1.4767322E2,2.1223259E2,3.0062082E2,1.7779292E2,5.7135144E2,5.372986E1,1.8116348E1,1.5660764E2,2.054771E2,2.2350671E2,4.5836935E2,4.6238922E1,0E0,0E0,0E0,1.6733192E2,3.816853E2,1.4193805E2,0E0,2.6101978E2,2.4296513E1,6.2289368E1,3.1621387E1,0E0,0E0,3.2802756E2,2.0909377E2,4.6929858E2,3.556169E2,3.7792126E1,7.4009094E0,1.533645E2,3.361958E2,0E0,0E0,0E0,0E0,7.9598503E0,0E0,0E0,0E0,0E0,0E0,0E0,0E0,0E0,0E0,0E0,0E0,0E0,0E0,0E0,0E0,0E0,0E0,0E0,0E0],"parents":[2147483647,0,0,1,1,2,2,3,3,4,4,5,5,6,6,7,7,8,8,9,9,10,10,11,11,15,15,16,16,17,17,19,19,20,20,21,21,22,22,25,25,26,26,27,27,28,28,29,29,30,30,31,31,32,32,37,37],"right_children":[2,4,6,8,10,12,14,16,18,20,22,24,-1,-1,-1,26,28,30,-1,32,34,36,38,-1,-1,40,42,44,46,48,50,52,54,-1,-1,-1,-1,56,-1,-1,-1,-1,-1,-1,-1,-1,-1,-1,-1,-1,-1,-1,-1,-1,-1,-1,-1],"split_conditions":[1.34E2,9.9E1,5.3487496E0,1.1E2,1.967195E1,1.43E2,6E1,1.8E0,7E1,1.41E2,2.3928492E1,1.06E2,-1.8888588E-1,1.9056565E0,1.588772E-1,7.8E1,5.9E1,3.7E1,-1.7712834E0,7.2362494E0,1.5E2,1.26E2,1.25E2,-3.2819436E0,-4.4707376E-1,9E1,3.6E1,6.3E1,1.5094582E1,4E1,1.41E2,4.4E1,9.832712E1,-1.7434388E0,3.4310535E-2,-3.795198E0,-5.132189E-1,2.4951921E1,-5.84289E-1,4.651992E-2,1.9712346E0,9.500254E-1,-6.0276204E-1,-1.1752678E-1,-1.0922422E0,6.889069E-1,-7.479045E-1,1.264539E0,-3.4307486E-1,2.8386364E0,7.1037316E-1,7.222744E-1,3.5408394E0,1.7288773E0,-1.3111643E0,1.1179553E0,2.3023187E-1],"split_indices":[1,0,3,2,5,1,0,4,0,0,5,2,0,0,0,1,2,0,0,3,0,0,0,0,0,0,0,0,3,1,2,2,6,0,0,0,0,5,0,0,0,0,0,0,0,0,0,0,0,0,0,0,0,0,0,0,0],"split_type":[0,0,0,0,0,0,0,0,0,0,0,0,0,0,0,0,0,0,0,0,0,0,0,0,0,0,0,0,0,0,0,0,0,0,0,0,0,0,0,0,0,0,0,0,0,0,0,0,0,0,0,0,0,0,0,0,0],"sum_hessian":[3.24E3,3.233E3,7E0,3.198E3,3.5E1,5E0,2E0,3.188E3,1E1,2.5E1,1E1,4E0,1E0,1E0,1E0,2.207E3,9.81E2,9E0,1E0,2.3E1,2E0,4E0,6E0,3E0,1E0,2.137E3,7E1,8.77E2,1.04E2,4E0,5E0,1E1,1.3E1,1E0,1E0,3E0,1E0,5E0,1E0,2.13E3,7E0,8E0,6.2E1,8.31E2,4.6E1,8.6E1,1.8E1,1E0,3E0,4E0,1E0,3E0,7E0,9E0,4E0,3E0,2E0],"tree_param":{"num_deleted":"0","num_feature":"7","num_nodes":"57","size_leaf_vector":"1"}},{"base_weights":[8.6023165E-3,-2.9645782E-2,9.315305E-1,4.1437782E-2,-8.299188E-1,-8.956651E-1,2.099321E0,2.2985591E-1,-3.065677E-1,-1.3325456E0,1.9751406E0,1.3226355E0,-2.624122E0,6.209998E0,6.941065E-1,6.230986E-2,1.1648034E0,8.6224055E-1,-6.126836E-1,-1.5438321E0,6.319786E0,-1.3782375E0,5.2297616E0,1.911858E0,-1.7460389E0,1.6583474E0,-3.1126852E0,4.3920326E0,1.2383851E1,-3.3012694E-1,3.5313816E0,-7.2969335E-1,3.2715234E-1,-4.590214E-1,1.9791573E0,3.2060392E0,4.969186E-1,-4.3418935E-1,-2.0277364E0,-4.6802405E-1,-3.529206E0,2.4853272E0,4.7810212E-1,3.2782686E-1,-3.9783123E0,2.4651107E-1,6.460167E0,2.395358E0,-1.236247E0,2.5246212E0,-3.643425E0,6.405975E0,5.9983337E-1,5.62249E0,-1.0034243E0,-9.352207E-1,1.8317668E0,-4.396925E-1,5.376387E0,6.724565E-1,-2.7328464E-1,3.0794173E-1,-6.067203E-2,2.6079397E0,-2.5558555E-1,1.4954636E0,3.7034422E-1,3.1419246E0,5.7452124E-1,-9.3531805E-1,2.5207692E-1,-5.522729E-1,-7.494538E-2,-1.136708E0,-4.2090885E-2,-3.7937534E-1,9.0358526E-1,-1.5007154E0,-3.2122338E-1,-1.3193808E0,4.7606066E-1,5.9791374E-1,-1.5348253E0,7.4030346E-1,-6.170479E-1,2.486586E0,1.0786911E0,3.0694672E-1,1.9745325E0,6.759854E-2,1.0684811E0,-1.8238087E0,-5.988605E-1,-6.133839E-1,2.2366486E0,1.608081E0,-3.2608527E-1,-6.39704E-1,3.430142E-1,5.247902E-1,-1.707699E0,1.899296E0,-6.2544084E-1],"categories":[],"categories_nodes":[],"categories_segments":[],"categories_sizes":[],"default_left":[0,0,0,0,0,0,0,0,0,0,0,0,0,0,0,0,0,0,0,0,0,0,0,0,0,0,0,0,0,0,0,0,0,0,0,0,0,0,0,0,0,0,0,0,0,0,0,0,0,0,0,0,0,0,0,0,0,0,0,0,0,0,0,0,0,0,0,0,0,0,0,0,0,0,0,0,0,0,0,0,0,0,0,0,0,0,0,0,0,0,0,0,0,0,0,0,0,0,0,0,0,0,0],"id":16,"left_children":[1,3,5,7,9,11,13,15,17,19,21,23,25,27,29,31,33,35,37,39,41,43,45,47,-1,-1,49,51,53,55,57,59,61,63,65,67,69,71,73,75,77,-1,-1,79,81,83,85,87,-1,89,91,93,95,-1,-1,97,-1,99,101,-1,-1,-1,-1,-1,-1,-1,-1,-1,-1,-1,-1,-1,-1,-1,-1,-1,-1,-1,-1,-1,-1,-1,-1,-1,-1,-1,-1,-1,-1,-1,-1,-1,-1,-1,-1,-1,-1,-1,-1,-1,-1,-1,-1],"loss_changes":[1.1443572E2,1.771213E2,2.7713812E2,1.8760222E2,3.607461E2,1.9901685E2,4.5202383E2,2.9066382E2,3.6010797E2,3.589929E2,4.3285287E2,1.0792685E2,1.3270586E2,1.7008679E2,1.7552773E2,3.3060458E2,3.7381628E2,1.7736128E2,2.0042487E2,4.4901926E2,4.2507904E1,9.0022095E1,1.2103589E2,7.404049E1,0E0,0E0,9.297266E1,1.2599106E2,4.62682E2,1.8095805E2,1.1959042E2,2.1476862E2,4.3743124E2,3.4904123E2,4.146447E2,2.4262589E2,2.2848978E2,1.8342561E2,2.9533273E2,3.8634622E2,2.6265326E2,0E0,0E0,8.432808E1,6.454894E1,3.0656069E1,5.3999634E1,1.1390266E2,0E0,6.3504467E0,9.2190186E1,1.1280325E2,6.2035156E1,0E0,0E0,1.06948685E2,0E0,7.894551E1,9.154578E1,0E0,0E0,0E0,0E0,0E0,0E0,0E0,0E0,0E0,0E0,0E0,0E0,0E0,0E0,0E0,0E0,0E0,0E0,0E0,0E0,0E0,0E0,0E0,0E0,0E0,0E0,0E0,0E0,0E0,0E0,0E0,0E0,0E0,0E0,0E0,0E0,0E0,0E0,0E0,0E0,0E0,0E0,0E0,0E0],"parents":[2147483647,0,0,1,1,2,2,3,3,4,4,5,5,6,6,7,7,8,8,9,9,10,10,11,11,12,12,13,13,14,14,15,15,16,16,17,17,18,18,19,19,20,20,21,21,22,22,23,23,26,26,27,27,28,28,29,29,30,30,31,31,32,32,33,33,34,34,35,35,36,36,37,37,38,38,39,39,40,40,43,43,44,44,45,45,46,46,47,47,49,49,50,50,51,51,52,52,55,55,57,57,58,58],"right_children":[2,4,6,8,10,12,14,16,18,20,22,24,26,28,30,32,34,36,38,40,42,44,46,48,-1,-1,50,52,54,56,58,60,62,64,66,68,70,72,74,76,78,-1,-1,80,82,84,86,88,-1,90,92,94,96,-1,-1,98,-1,100,102,-1,-1,-1,-1,-1,-1,-1,-1,-1,-1,-1,-1,-1,-1,-1,-1,-1,-1,-1,-1,-1,-1,-1,-1,-1,-1,-1,-1,-1,-1,-1,-1,-1,-1,-1,-1,-1,-1,-1,-1,-1,-1,-1,-1],"split_conditions":[1.9282082E1,1.697375E1,1.503835E1,2.42327E2,2.723942E2,2.069875E1,7.651694E1,1.4744583E1,1.5124284E1,7.2E1,2.3E1,1.481259E1,8.427383E0,2.1900904E1,2.3286487E2,7.31615E1,1.909358E1,9.504272E0,1.5055E1,3.7E1,8E1,2.3E1,1E-1,5.3E1,-1.7460389E0,1.6583474E0,6.532015E0,1.8584509E1,2.347741E1,4.7E0,3.5E1,1.8E1,5E-1,1.4798748E1,1.5093439E2,2.5566452E2,2.4845891E2,1.6645864E1,1.6075832E1,3.6E1,1.7934166E1,2.4853272E0,4.7810212E-1,1.4E1,1.0296251E1,3.2E1,1.6923828E1,4.3E1,-1.236247E0,3.1E1,9.432178E1,2E1,9E0,5.62249E0,-1.0034243E0,2.113E1,1.8317668E0,3.4E1,5.4E1,6.724565E-1,-2.7328464E-1,3.0794173E-1,-6.067203E-2,2.6079397E0,-2.5558555E-1,1.4954636E0,3.7034422E-1,3.1419246E0,5.7452124E-1,-9.3531805E-1,2.5207692E-1,-5.522729E-1,-7.494538E-2,-1.136708E0,-4.2090885E-2,-3.7937534E-1,9.0358526E-1,-1.5007154E0,-3.2122338E-1,-1.3193808E0,4.7606066E-1,5.9791374E-1,-1.5348253E0,7.4030346E-1,-6.170479E-1,2.486586E0,1.0786911E0,3.0694672E-1,1.9745325E0,6.759854E-2,1.0684811E0,-1.8238087E0,-5.988605E-1,-6.133839E-1,2.2366486E0,1.608081E0,-3.2608527E-1,-6.39704E-1,3.430142E-1,5.247902E-1,-1.707699E0,1.899296E0,-6.2544084E-1],"split_indices":[3,3,5,6,6,3,6,3,5,1,2,5,5,5,6,6,5,5,3,1,1,0,4,2,0,0,6,5,5,4,2,0,4,3,6,6,6,5,3,0,3,0,0,0,5,0,5,2,0,0,6,0,2,0,0,3,0,2,2,0,0,0,0,0,0,0,0,0,0,0,0,0,0,0,0,0,0,0,0,0,0,0,0,0,0,0,0,0,0,0,0,0,0,0,0,0,0,0,0,0,0,0,0],"split_type":[0,0,0,0,0,0,0,0,0,0,0,0,0,0,0,0,0,0,0,0,0,0,0,0,0,0,0,0,0,0,0,0,0,0,0,0,0,0,0,0,0,0,0,0,0,0,0,0,0,0,0,0,0,0,0,0,0,0,0,0,0,0,0,0,0,0,0,0,0,0,0,0,0,0,0,0,0,0,0,0,0,0,0,0,0,0,0,0,0,0,0,0,0,0,0,0,0,0,0,0,0,0,0],"sum_hessian":[3.24E3,3.112E3,1.28E2,2.859E3,2.53E2,5E1,7.8E1,1.855E3,1.004E3,2.15E2,3.8E1,2.2E1,2.8E1,1.9E1,5.9E1,1.574E3,2.81E2,2.08E2,7.96E2,2.1E2,5E0,1.9E1,1.9E1,2.1E1,1E0,1E0,2.7E1,1.6E1,3E0,4.4E1,1.5E1,3.94E2,1.18E3,9.4E1,1.87E2,2.7E1,1.81E2,7.08E2,8.8E1,1.37E2,7.3E1,3E0,2E0,1.2E1,7E0,4E0,1.5E1,2E1,1E0,2E0,2.5E1,1E1,6E0,2E0,1E0,4.1E1,3E0,5E0,1E1,2.2E1,3.72E2,5.08E2,6.72E2,3E0,9.1E1,3.6E1,1.51E2,3E0,2.4E1,1.5E1,1.66E2,8.1E1,6.27E2,4.5E1,4.3E1,1.12E2,2.5E1,4.5E1,2.8E1,2E0,1E1,1E0,6E0,2E0,2E0,8E0,7E0,1.6E1,4E0,1E0,1E0,9E0,1.6E1,1E0,9E0,1E0,5E0,2.6E1,1.5E1,4E0,1E0,9E0,1E0],"tree_param":{"num_deleted":"0","num_feature":"7","num_nodes":"103","size_leaf_vector":"1"}},{"base_weights":[1.1725852E-2,9.751742E-2,-3.2455847E-1,8.0870375E-2,1.0810486E1,-8.493113E-1,6.579123E-1,9.740156E-2,-3.4649203E0,3.835126E0,7.3360294E-1,8.0724835E-1,-1.236098E0,3.5607762E0,2.3790751E-1,-4.5153085E-2,4.934764E-1,-5.1223927E0,3.2149608E0,3.472092E0,-1.3537616E0,-1.627196E0,9.78849E-1,5.0719E0,-1.9130257E0,-1.3355271E0,8.505641E-1,-9.41915E-1,1.0295372E-1,1.1601133E0,-6.1588913E-2,-1.3257456E-1,-7.2419467E0,1.2205749E0,2.2615758E-1,-1.7693636E0,6.739472E0,-1.9802101E0,8.285403E0,-2.4759169E0,-3.0030993E-1,2.6823592E0,4.912824E-1,6.473031E0,1.6356494E0,-1.1242057E0,3.995571E-1,-4.536009E0,9.6291655E-1,1.892993E0,-5.5284196E-1,-4.1374785E-1,3.9462033E-1,8.019466E-1,6.877959E-3,1.08122736E-1,6.331189E-1,1.8397686E-1,-4.2981735E-1,2.0266773E-1,-1.8814164E-1,-5.270185E-1,-2.3590086E0,9.3150675E-1,-1.6091871E0,-2.5116512E-1,2.6671863E0,-4.0402487E-1,-3.0565763E0,7.110203E-1,3.0174112E0,1.392138E0,-8.366632E-1,-4.0316138E-1,5.463813E-1,2.075892E0,-6.091146E-2,2.1097322E0,-2.877159E-1,8.6935514E-1,-1.0799636E0,4.7950745E-3,1.5662614E-1,-1.2089457E-1,-1.7673889E0,1.2235591E0,-3.480038E-1,2.551272E0,1.3477638E-1,-1.5120026E0,8.6505786E-2],"categories":[],"categories_nodes":[],"categories_segments":[],"categories_sizes":[],"default_left":[0,0,0,0,0,0,0,0,0,0,0,0,0,0,0,0,0,0,0,0,0,0,0,0,0,0,0,0,0,0,0,0,0,0,0,0,0,0,0,0,0,0,0,0,0,0,0,0,0,0,0,0,0,0,0,0,0,0,0,0,0,0,0,0,0,0,0,0,0,0,0,0,0,0,0,0,0,0,0,0,0,0,0,0,0,0,0,0,0,0,0],"id":17,