{"learner":{"attributes":{"scikit_learn":"{\"_estimator_type\": \"regressor\"}"},"feature_names":["pm_25_1_day_lag","pm_25_2_day_lag","pm_25_3_day_lag","temperature_2m_mean","precipitation_sum","wind_speed_10m_max","wind_direction_10m_dominant"],"feature_types":["float","float","float","float","float","float","float"],"gradient_booster":{"model":{"gbtree_model_param":{"num_parallel_tree":"1","num_trees":"100"},"iteration_indptr":[0,1,2,3,4,5,6,7,8,9,10,11,12,13,14,15,16,17,18,19,20,21,22,23,24,25,26,27,28,29,30,31,32,33,34,35,36,37,38,39,40,41,42,43,44,45,46,47,48,49,50,51,52,53,54,55,56,57,58,59,60,61,62,63,64,65,66,67,68,69,70,71,72,73,74,75,76,77,78,79,80,81,82,83,84,85,86,87,88,89,90,91,92,93,94,95,96,97,98,99,100],"tree_info":[0,0,0,0,0,0,0,0,0,0,0,0,0,0,0,0,0,0,0,0,0,0,0,0,0,0,0,0,0,0,0,0,0,0,0,0,0,0,0,0,0,0,0,0,0,0,0,0,0,0,0,0,0,0,0,0,0,0,0,0,0,0,0,0,0,0,0,0,0,0,0,0,0,0,0,0,0,0,0,0,0,0,0,0,0,0,0,0,0,0,0,0,0,0,0,0,0,0,0,0],"trees":[{"base_weights":[5.306353E-7,-8.245062E0,1.431392E1,-5.1411456E-1,-1.0514616E1,8.48213E0,3.013085E1,-3.1009467E0,3.978544E0,-1.3376375E1,-6.2535806E0,1.5978452E1,3.5932016E0,2.5046453E1,4.9007957E1,-8.978907E-1,-7.011897E0,6.6369195E0,1.8860102E-2,-1.5376793E1,-1.1656204E1,2.3984647E0,-8.288943E0,1.1623666E1,2.108632E1,1.0233146E1,-1.3880827E0,3.2420578E1,1.8650637E1,5.7471134E1,2.0944962E1,-3.5762284E0,-4.568494E-1,-5.0254216E0,-1.0624913E1,5.434898E0,1.2590044E1,2.47475E0,-7.555039E0,-1.4591261E0,-1.5610913E1,-8.386469E0,-1.3167056E1,-2.0521193E0,6.6897683E0,-5.4805593E0,-9.874725E0,1.588431E1,7.63068E0,2.382225E1,1.5563547E1,1.1934825E1,9.750867E-1,1.5888542E-1,-1.0835402E1,3.8281216E1,2.5089863E1,2.660248E1,1.156349E1,2.2879238E1,6.1320744E1,1.6437718E0,2.7992918E1,-3.2784408E-1,4.5837717E0,-3.9276958E-1,-2.0876203E0,-3.430899E0,1.3273573E0,1.246135E0,3.9728756E0,4.5728755E0,1.2410359E0,1.277605E-1,2.3892431E0,-2.8502595E0,2.0773573E0,-1.1762284E0,1.6273574E0,-3.5913293E0,-4.9572625E0,-1.5846021E0,-2.9254742E0,-3.9892128E0,2.6773574E0,2.3698099E0,-8.241533E-1,3.3931367E0,5.295003E-1,-4.7293267E-1,-2.3240016E0,-3.2106118E0,-1.8372556E0,5.214426E0,2.2497406E0,3.480847E0,5.66621E-1,9.997734E0,6.2391744E0,5.0302944E0,3.4103596E-1,3.814277E0,-1.8877379E0,9.140139E-1,-2.3762283E0,2.8692434E0,-1.1957367E-1,-3.7659543E0,-1.4271247E0,1.3514014E1,9.024956E0,-2.1226428E0,7.8451276E0,5.2162023E0,9.374189E0,2.874408E0,8.483772E0,8.291037E0,5.773573E-1,2.0094103E1,9.946898E0,1.0662263E1,1.0698098E0],"categories":[],"categories_nodes":[],"categories_segments":[],"categories_sizes":[],"default_left":[0,0,0,0,0,0,0,0,0,0,0,0,0,0,0,0,0,0,0,0,0,0,0,0,0,0,0,0,0,0,0,0,0,0,0,0,0,0,0,0,0,0,0,0,0,0,0,0,0,0,0,0,0,0,0,0,0,0,0,0,0,0,0,0,0,0,0,0,0,0,0,0,0,0,0,0,0,0,0,0,0,0,0,0,0,0,0,0,0,0,0,0,0,0,0,0,0,0,0,0,0,0,0,0,0,0,0,0,0,0,0,0,0,0,0,0,0,0,0,0,0,0,0],"id":0,"left_children":[1,3,5,7,9,11,13,15,17,19,21,23,25,27,29,31,33,35,37,39,41,43,45,47,49,51,53,55,57,59,61,-1,63,65,67,69,71,73,75,77,79,81,83,85,87,89,91,93,95,97,99,101,103,105,107,109,111,113,115,117,119,-1,121,-1,-1,-1,-1,-1,-1,-1,-1,-1,-1,-1,-1,-1,-1,-1,-1,-1,-1,-1,-1,-1,-1,-1,-1,-1,-1,-1,-1,-1,-1,-1,-1,-1,-1,-1,-1,-1,-1,-1,-1,-1,-1,-1,-1,-1,-1,-1,-1,-1,-1,-1,-1,-1,-1,-1,-1,-1,-1,-1,-1],"loss_changes":[2.6058631E5,2.4576258E4,7.418291E4,3.7196765E3,1.3122508E4,2.1602137E4,1.9599906E4,1.7427607E3,1.231455E3,2.0471406E3,7.7154688E3,4.9376797E3,1.1888291E4,7.554633E3,9.483859E3,6.3141583E2,4.7053882E2,4.3247925E2,9.1152856E2,9.4171094E2,1.6284805E3,1.6180278E3,1.522416E3,2.056416E3,1.2308945E3,2.4145156E3,3.01235E3,2.4335781E3,5.0461875E3,3.1246484E3,1.1546411E3,0E0,1.287661E3,3.4293262E2,3.5588354E2,5.451697E2,1.8362292E2,4.1275174E2,4.038855E2,1.2293848E2,7.6953906E2,4.316167E2,8.067461E2,3.1220923E2,9.5853674E2,1.1379194E3,6.3260547E2,6.354199E2,1.5290171E3,1.2905391E3,6.410469E2,1.9269023E3,4.8485413E2,9.3708307E2,2.4307861E2,9.743281E2,1.481334E3,1.3400098E3,1.4519512E3,4.452776E2,2.5611562E3,0E0,1.3482446E3,0E0,0E0,0E0,0E0,0E0,0E0,0E0,0E0,0E0,0E0,0E0,0E0,0E0,0E0,0E0,0E0,0E0,0E0,0E0,0E0,0E0,0E0,0E0,0E0,0E0,0E0,0E0,0E0,0E0,0E0,0E0,0E0,0E0,0E0,0E0,0E0,0E0,0E0,0E0,0E0,0E0,0E0,0E0,0E0,0E0,0E0,0E0,0E0,0E0,0E0,0E0,0E0,0E0,0E0,0E0,0E0,0E0,0E0,0E0,0E0],"parents":[2147483647,0,0,1,1,2,2,3,3,4,4,5,5,6,6,7,7,8,8,9,9,10,10,11,11,12,12,13,13,14,14,15,15,16,16,17,17,18,18,19,19,20,20,21,21,22,22,23,23,24,24,25,25,26,26,27,27,28,28,29,29,30,30,32,32,33,33,34,34,35,35,36,36,37,37,38,38,39,39,40,40,41,41,42,42,43,43,44,44,45,45,46,46,47,47,48,48,49,49,50,50,51,51,52,52,53,53,54,54,55,55,56,56,57,57,58,58,59,59,60,60,62,62],"right_children":[2,4,6,8,10,12,14,16,18,20,22,24,26,28,30,32,34,36,38,40,42,44,46,48,50,52,54,56,58,60,62,-1,64,66,68,70,72,74,76,78,80,82,84,86,88,90,92,94,96,98,100,102,104,106,108,110,112,114,116,118,120,-1,122,-1,-1,-1,-1,-1,-1,-1,-1,-1,-1,-1,-1,-1,-1,-1,-1,-1,-1,-1,-1,-1,-1,-1,-1,-1,-1,-1,-1,-1,-1,-1,-1,-1,-1,-1,-1,-1,-1,-1,-1,-1,-1,-1,-1,-1,-1,-1,-1,-1,-1,-1,-1,-1,-1,-1,-1,-1,-1,-1,-1],"split_conditions":[3.5E1,1.7922787E2,6E1,2.8E1,2.3E1,1.6563911E1,8.4E1,2.1774048E1,2.008916E1,1.7E1,1.5990646E1,4.5E1,1.8646304E2,1.6563911E1,1.9242327E1,1.5E1,4.8E0,1.602466E2,4.2E0,1.0805999E1,1.992479E1,2.9E1,2.2461807E1,9.669583E0,2.1272408E2,7E0,3.2271744E1,8.0425005E0,1.4508885E2,3.9862506E0,2.3966375E1,-3.5762284E0,1.7476389E2,2.4E1,2.13E1,1.9576189E1,1.7277959E2,1.1471154E2,5.6E1,2.4E1,7.6820836E0,1.4565548E1,3.4603308E2,1.9183362E2,8.715416E0,9.146666E0,3.1E1,5.6E1,1.7687793E2,3.9862506E0,1.5575981E1,3.305145E1,5.8E1,2E1,4.9E1,5.6E1,1.8E1,6.5E1,3.2953796E2,1.06E2,1.3240415E1,1.6437718E0,2.9162222E1,-3.2784408E-1,4.5837717E0,-3.9276958E-1,-2.0876203E0,-3.430899E0,1.3273573E0,1.246135E0,3.9728756E0,4.5728755E0,1.2410359E0,1.277605E-1,2.3892431E0,-2.8502595E0,2.0773573E0,-1.1762284E0,1.6273574E0,-3.5913293E0,-4.9572625E0,-1.5846021E0,-2.9254742E0,-3.9892128E0,2.6773574E0,2.3698099E0,-8.241533E-1,3.3931367E0,5.295003E-1,-4.7293267E-1,-2.3240016E0,-3.2106118E0,-1.8372556E0,5.214426E0,2.2497406E0,3.480847E0,5.66621E-1,9.997734E0,6.2391744E0,5.0302944E0,3.4103596E-1,3.814277E0,-1.8877379E0,9.140139E-1,-2.3762283E0,2.8692434E0,-1.1957367E-1,-3.7659543E0,-1.4271247E0,1.3514014E1,9.024956E0,-2.1226428E0,7.8451276E0,5.2162023E0,9.374189E0,2.874408E0,8.483772E0,8.291037E0,5.773573E-1,2.0094103E1,9.946898E0,1.0662263E1,1.0698098E0],"split_indices":[0,6,0,0,0,5,0,5,5,0,5,0,6,5,5,0,4,6,4,5,5,0,5,3,6,4,5,3,6,3,5,0,6,2,4,5,6,6,2,1,3,5,6,6,3,3,0,2,6,3,5,5,1,1,0,1,2,0,6,0,3,0,5,0,0,0,0,0,0,0,0,0,0,0,0,0,0,0,0,0,0,0,0,0,0,0,0,0,0,0,0,0,0,0,0,0,0,0,0,0,0,0,0,0,0,0,0,0,0,0,0,0,0,0,0,0,0,0,0,0,0,0,0],"split_type":[0,0,0,0,0,0,0,0,0,0,0,0,0,0,0,0,0,0,0,0,0,0,0,0,0,0,0,0,0,0,0,0,0,0,0,0,0,0,0,0,0,0,0,0,0,0,0,0,0,0,0,0,0,0,0,0,0,0,0,0,0,0,0,0,0,0,0,0,0,0,0,0,0,0,0,0,0,0,0,0,0,0,0,0,0,0,0,0,0,0,0,0,0,0,0,0,0,0,0,0,0,0,0,0,0,0,0,0,0,0,0,0,0,0,0,0,0,0,0,0,0,0,0],"sum_hessian":[2.206E3,1.4E3,8.06E2,3.18E2,1.082E3,5.9E2,2.16E2,2.02E2,1.16E2,6.46E2,4.36E2,2.32E2,3.58E2,1.72E2,4.4E1,1.3E2,7.2E1,6.9E1,4.7E1,2.95E2,3.51E2,8.3E1,3.53E2,1.27E2,1.05E2,1.53E2,2.05E2,7.8E1,9.4E1,3.3E1,1.1E1,4E0,1.26E2,4.8E1,2.4E1,5.9E1,1E1,3.6E1,1.1E1,5E0,2.9E2,1.13E2,2.38E2,4.1E1,4.2E1,1.29E2,2.24E2,6E1,6.7E1,6.8E1,3.7E1,1.29E2,2.4E1,1.77E2,2.8E1,4.1E1,3.7E1,4.3E1,5.1E1,4E0,2.9E1,4E0,7E0,1.22E2,4E0,1.7E1,3.1E1,2.3E1,1E0,5.2E1,7E0,7E0,3E0,2.7E1,9E0,1E1,1E0,4E0,1E0,6.1E1,2.29E2,3.6E1,7.7E1,2.37E2,1E0,2E0,3.9E1,2.1E1,2.1E1,4.8E1,8.1E1,1.82E2,4.2E1,5E1,1E1,3.9E1,2.8E1,1.4E1,5.4E1,3.4E1,3E0,1.24E2,5E0,2E1,4E0,9E0,1.68E2,2.1E1,7E0,2E1,2.1E1,1E0,3.6E1,1.6E1,2.7E1,4.7E1,4E0,3E0,1E0,2.3E1,6E0,5E0,2E0],"tree_param":{"num_deleted":"0","num_feature":"7","num_nodes":"123","size_leaf_vector":"1"}},{"base_weights":[5.9000187E-2,-3.707136E0,1.6330381E1,-7.0922594E0,2.1708791E0,1.3965154E1,3.5467464E1,-2.0227563E0,-8.388178E0,7.2327266E0,-5.9740204E-1,1.9335049E1,9.71033E0,4.271969E1,1.8115038E1,-6.5078884E-1,-4.961838E0,-1.0342562E1,-6.7078385E0,9.630495E0,4.3905616E0,4.5649066E0,-3.1223173E0,1.5652865E1,2.3052145E1,1.4897839E1,4.8144712E0,4.4013603E1,5.853224E-1,2.0243622E1,2.8528264E0,-3.4836073E0,9.5070875E-1,-9.5380335E0,-3.2075512E0,-8.237914E0,-1.1953299E1,-3.4128504E0,-7.7672596E0,1.0250512E1,-2.2855704E0,1.946076E0,1.0982572E1,-1.7642251E0,5.6966376E0,-8.9659184E-1,-5.7489653E0,1.4229652E1,8.843616E0,2.673539E1,1.6486626E1,1.7219175E1,6.732753E0,7.9418E0,-7.7871615E-1,1.7789146E1,4.7363937E1,2.6326189E1,8.759593E0,-3.3114053E-2,1.316886E0,-7.388593E-1,-2.441066E0,8.581297E-1,-6.7696226E-1,-3.3869774E0,-1.4015026E0,-5.455373E-1,-2.1437166E0,-1.5283307E0,-2.8615994E0,-1.6125302E0,-3.6308503E0,9.269145E-1,-1.4193234E0,-1.0386416E0,-2.4493809E0,4.9024982E0,2.7436974E0,-1.9889218E0,7.8899723E-1,1.0660503E0,-1.0204887E0,4.6568627E0,1.7130287E0,5.1871884E-1,-1.294698E0,2.0369604E0,-7.00724E-1,-1.382868E0,3.176153E-1,2.996971E0,-1.7840637E0,-1.3085389E-1,4.698467E0,8.955797E0,3.9758296E0,2.9406343E0,7.876079E0,1.0531313E0,5.8975453E0,4.115181E-2,3.2042868E0,6.2874657E-1,3.3428977E0,-1.768408E0,6.608279E-1,6.4255533E0,4.9075356E-1,1.6014576E1,7.021032E0,8.588754E0,1.5307915E0,7.961872E-1,4.1941733E0],"categories":[],"categories_nodes":[],"categories_segments":[],"categories_sizes":[],"default_left":[0,0,0,0,0,0,0,0,0,0,0,0,0,0,0,0,0,0,0,0,0,0,0,0,0,0,0,0,0,0,0,0,0,0,0,0,0,0,0,0,0,0,0,0,0,0,0,0,0,0,0,0,0,0,0,0,0,0,0,0,0,0,0,0,0,0,0,0,0,0,0,0,0,0,0,0,0,0,0,0,0,0,0,0,0,0,0,0,0,0,0,0,0,0,0,0,0,0,0,0,0,0,0,0,0,0,0,0,0,0,0,0,0,0,0],"id":1,"left_children":[1,3,5,7,9,11,13,15,17,19,21,23,25,27,29,31,33,35,37,39,41,43,45,47,49,51,53,55,-1,57,59,61,63,65,67,69,71,73,75,77,79,81,83,85,87,89,91,93,-1,95,97,99,101,103,105,107,109,111,113,-1,-1,-1,-1,-1,-1,-1,-1,-1,-1,-1,-1,-1,-1,-1,-1,-1,-1,-1,-1,-1,-1,-1,-1,-1,-1,-1,-1,-1,-1,-1,-1,-1,-1,-1,-1,-1,-1,-1,-1,-1,-1,-1,-1,-1,-1,-1,-1,-1,-1,-1,-1,-1,-1,-1,-1],"loss_changes":[1.35306E5,3.5692164E4,1.8289062E4,7.4593047E3,9.196597E3,8.288844E3,4.8890977E3,9.3630225E2,2.9059531E3,1.5387637E3,5.55387E3,1.8701523E3,5.2363145E3,1.5494141E3,4.2955127E2,7.291922E2,5.634752E2,1.3151758E3,1.6839746E3,9.4694727E2,1.7189468E3,1.0128528E3,1.6668579E3,1.253084E3,1.4696328E3,1.7984102E3,1.9127834E3,1.7932578E3,0E0,6.774746E2,1.4146038E1,2.5544849E2,6.373255E2,1.1776367E2,2.8788263E2,7.0375977E2,1.65125E2,1.0518131E3,6.046582E2,6.513955E2,1.6691434E2,6.9977026E2,6.055835E2,2.0354578E2,1.0608269E3,1.1374404E3,4.6746533E2,1.6658359E3,0E0,1.6637891E3,1.7665693E3,2.5392988E3,6.235115E2,1.2866333E3,6.2311096E2,2.5809363E2,2.4997188E3,2.4493652E2,1.5416068E2,0E0,0E0,0E0,0E0,0E0,0E0,0E0,0E0,0E0,0E0,0E0,0E0,0E0,0E0,0E0,0E0,0E0,0E0,0E0,0E0,0E0,0E0,0E0,0E0,0E0,0E0,0E0,0E0,0E0,0E0,0E0,0E0,0E0,0E0,0E0,0E0,0E0,0E0,0E0,0E0,0E0,0E0,0E0,0E0,0E0,0E0,0E0,0E0,0E0,0E0,0E0,0E0,0E0,0E0,0E0,0E0],"parents":[2147483647,0,0,1,1,2,2,3,3,4,4,5,5,6,6,7,7,8,8,9,9,10,10,11,11,12,12,13,13,14,14,15,15,16,16,17,17,18,18,19,19,20,20,21,21,22,22,23,23,24,24,25,25,26,26,27,27,29,29,30,30,31,31,32,32,33,33,34,34,35,35,36,36,37,37,38,38,39,39,40,40,41,41,42,42,43,43,44,44,45,45,46,46,47,47,49,49,50,50,51,51,52,52,53,53,54,54,55,55,56,56,57,57,58,58],"right_children":[2,4,6,8,10,12,14,16,18,20,22,24,26,28,30,32,34,36,38,40,42,44,46,48,50,52,54,56,-1,58,60,62,64,66,68,70,72,74,76,78,80,82,84,86,88,90,92,94,-1,96,98,100,102,104,106,108,110,112,114,-1,-1,-1,-1,-1,-1,-1,-1,-1,-1,-1,-1,-1,-1,-1,-1,-1,-1,-1,-1,-1,-1,-1,-1,-1,-1,-1,-1,-1,-1,-1,-1,-1,-1,-1,-1,-1,-1,-1,-1,-1,-1,-1,-1,-1,-1,-1,-1,-1,-1,-1,-1,-1,-1,-1,-1],"split_conditions":[4.8E1,2.9E1,8.4E1,1.8225227E2,1.6563911E1,1.6563911E1,1.8581022E1,2.6E0,1.9E1,1.3441071E1,1.6441957E2,6E1,1.7277959E2,7.3E0,2.9162222E1,4.5242218E1,1.9E1,6E-1,1.8289274E1,6.1E1,4.2E1,3.7393227E1,1.3000001E0,6.5E1,1.0200833E1,2.4999998E0,2.4881702E1,3.9862506E0,5.853224E-1,8.5E1,8.8E1,3.7E1,1.362375E1,2.5959969E1,3.1E1,7.9612503E0,3.2612507E0,5.8174996E0,4.727917E0,2.32375E0,1.1480557E1,1.5494583E1,3.9E1,2.0431387E1,8.099999E0,3.3E1,6.154167E-1,4.269091E1,8.843616E0,7.6E1,1.7219584E1,3.297889E1,9.592499E0,5.4E1,9E-1,1.06E2,1.3040367E2,8.9E1,1E2,-3.3114053E-2,1.316886E0,-7.388593E-1,-2.441066E0,8.581297E-1,-6.7696226E-1,-3.3869774E0,-1.4015026E0,-5.455373E-1,-2.1437166E0,-1.5283307E0,-2.8615994E0,-1.6125302E0,-3.6308503E0,9.269145E-1,-1.4193234E0,-1.0386416E0,-2.4493809E0,4.9024982E0,2.7436974E0,-1.9889218E0,7.8899723E-1,1.0660503E0,-1.0204887E0,4.6568627E0,1.7130287E0,5.1871884E-1,-1.294698E0,2.0369604E0,-7.00724E-1,-1.382868E0,3.176153E-1,2.996971E0,-1.7840637E0,-1.3085389E-1,4.698467E0,8.955797E0,3.9758296E0,2.9406343E0,7.876079E0,1.0531313E0,5.8975453E0,4.115181E-2,3.2042868E0,6.2874657E-1,3.3428977E0,-1.768408E0,6.608279E-1,6.4255533E0,4.9075356E-1,1.6014576E1,7.021032E0,8.588754E0,1.5307915E0,7.961872E-1,4.1941733E0],"split_indices":[0,0,0,6,5,5,5,4,0,5,6,0,6,4,5,6,0,4,5,1,0,6,4,2,3,4,5,3,0,1,0,1,3,5,1,3,3,3,3,3,5,3,2,5,4,0,3,6,0,1,3,6,3,0,4,0,6,0,1,0,0,0,0,0,0,0,0,0,0,0,0,0,0,0,0,0,0,0,0,0,0,0,0,0,0,0,0,0,0,0,0,0,0,0,0,0,0,0,0,0,0,0,0,0,0,0,0,0,0,0,0,0,0,0,0],"split_type":[0,0,0,0,0,0,0,0,0,0,0,0,0,0,0,0,0,0,0,0,0,0,0,0,0,0,0,0,0,0,0,0,0,0,0,0,0,0,0,0,0,0,0,0,0,0,0,0,0,0,0,0,0,0,0,0,0,0,0,0,0,0,0,0,0,0,0,0,0,0,0,0,0,0,0,0,0,0,0,0,0,0,0,0,0,0,0,0,0,0,0,0,0,0,0,0,0,0,0,0,0,0,0,0,0,0,0,0,0,0,0,0,0,0,0],"sum_hessian":[2.206E3,1.792E3,4.14E2,1.137E3,6.55E2,3.7E2,4.4E1,2.32E2,9.05E2,2.31E2,4.24E2,1.62E2,2.08E2,3E1,1.4E1,1.59E2,7.3E1,4.16E2,4.89E2,1.24E2,1.07E2,1.39E2,2.85E2,8.4E1,7.8E1,1E2,1.08E2,2.9E1,1E0,1.2E1,2E0,5.7E1,1.02E2,1.9E1,5.4E1,1.83E2,2.33E2,1.2E2,3.69E2,1.18E2,6E0,7.9E1,2.8E1,2.1E1,1.18E2,1.55E2,1.3E2,7.8E1,6E0,4.8E1,3E1,7.7E1,2.3E1,6.9E1,3.9E1,4E0,2.5E1,7E0,5E0,1E0,1E0,4.8E1,9E0,6.4E1,3.8E1,1.3E1,6E0,4.1E1,1.3E1,5.5E1,1.28E2,6E0,2.27E2,2E1,1E2,3.2E1,3.37E2,1.6E1,1.02E2,3E0,3E0,6.1E1,1.8E1,1.4E1,1.4E1,9E0,1.2E1,1.04E2,1.4E1,5.3E1,1.02E2,1E0,1.29E2,7E0,7.1E1,3.8E1,1E1,1.9E1,1.1E1,1.2E1,6.5E1,9E0,1.4E1,2.5E1,4.4E1,1.4E1,2.5E1,3E0,1E0,1.9E1,6E0,6E0,1E0,3E0,2E0],"tree_param":{"num_deleted":"0","num_feature":"7","num_nodes":"115","size_leaf_vector":"1"}},{"base_weights":[8.055228E-2,-2.600863E0,1.1665364E1,-4.8435473E0,1.8441216E0,9.559116E0,2.3968012E1,-1.1419052E0,-5.824724E0,3.4352574E0,-3.2871137E0,1.3607676E1,6.259722E0,2.991111E1,1.4451227E1,2.9241845E-1,-3.5406415E0,-3.412659E0,-6.658371E0,5.8681927E0,1.4906895E0,1.6519395E-1,-5.3219748E0,6.2400484E0,1.4871253E1,9.538839E0,3.323707E0,3.1269766E1,4.5426483E0,1.7338774E1,6.147843E0,-4.6239257E0,9.9770236E-1,-2.7810774E0,-8.0593815E0,2.4309784E-1,-4.7978497E0,-8.263356E0,-5.635105E0,4.2496367E0,9.342383E0,4.834048E0,-1.2941588E0,1.7095312E0,-2.3239322E0,-2.584308E0,-8.254209E0,8.415789E0,-7.2865324E0,3.25697E1,1.3940007E1,1.03478985E1,-1.8793019E0,2.4839957E0,1.6904898E1,1.6709911E1,3.5107033E1,2.083136E0,-3.8944244E-2,1.9051453E1,2.4249027E0,-6.3444734E-1,7.6303415E0,-2.683526E-1,-2.7248137E0,5.9539557E-1,-7.09329E-1,-2.2354233E0,-5.6220007E-1,-2.641706E0,-7.9094106E-1,-8.7083787E-1,1.2274528E0,-2.531029E0,-1.1524563E0,-2.6153255E0,-1.2559708E0,-1.2891581E0,-2.0471292E0,8.227414E-1,2.6207514E0,4.011074E0,1.6869015E0,3.9664683E0,1.2291455E0,-5.7311636E-1,1.8486656E0,2.5602098E0,1.44643085E-2,-1.6405894E0,5.1815265E-1,-1.2313514E0,-3.0347936E0,1.4507761E0,4.618827E0,-3.2057538E0,4.3671113E-1,1.605321E1,2.6164577E0,1.6570522E0,4.4969344E0,2.4633207E0,4.6844845E0,-1.4445208E0,2.3602953E0,1.3248155E0,-1.7183712E-1,1.1009817E0,5.6453705E0,5.53531E0,4.171406E-1,5.2610345E0,1.1850382E1,6.7571816E0,2.07216E0,-2.8146746E-2,1.1193529E0,1.1915404E0,3.3553388E0],"categories":[],"categories_nodes":[],"categories_segments":[],"categories_sizes":[],"default_left":[0,0,0,0,0,0,0,0,0,0,0,0,0,0,0,0,0,0,0,0,0,0,0,0,0,0,0,0,0,0,0,0,0,0,0,0,0,0,0,0,0,0,0,0,0,0,0,0,0,0,0,0,0,0,0,0,0,0,0,0,0,0,0,0,0,0,0,0,0,0,0,0,0,0,0,0,0,0,0,0,0,0,0,0,0,0,0,0,0,0,0,0,0,0,0,0,0,0,0,0,0,0,0,0,0,0,0,0,0,0,0,0,0,0,0,0,0,0,0],"id":2,"left_children":[1,3,5,7,9,11,13,15,17,19,21,23,25,27,29,31,33,35,37,39,41,43,45,47,49,51,53,55,57,59,61,63,65,67,69,71,73,75,77,79,81,83,85,87,-1,89,91,93,95,97,99,101,103,105,107,109,111,-1,-1,113,115,-1,117,-1,-1,-1,-1,-1,-1,-1,-1,-1,-1,-1,-1,-1,-1,-1,-1,-1,-1,-1,-1,-1,-1,-1,-1,-1,-1,-1,-1,-1,-1,-1,-1,-1,-1,-1,-1,-1,-1,-1,-1,-1,-1,-1,-1,-1,-1,-1,-1,-1,-1,-1,-1,-1,-1,-1,-1],"loss_changes":[6.858791E4,1.7882805E4,1.0524539E4,4.3226543E3,4.9263174E3,4.6701895E3,2.9613008E3,8.6461707E2,1.871459E3,2.1675156E3,1.00544934E3,1.3874238E3,1.8745483E3,1.0987617E3,4.9281445E2,5.524654E2,3.0021973E2,1.2367632E3,1.1014258E3,1.1074253E3,2.3991177E3,6.730273E2,7.011416E2,7.9708E2,1.7709941E3,8.7857715E2,1.166862E3,1.3129453E3,3.4559086E1,4.1356982E2,1.1413199E2,3.2444885E2,4.6592993E2,3.33417E2,2.9396973E1,8.351311E2,5.835493E2,4.6366992E2,6.5451465E2,9.2940625E2,8.836123E2,6.689739E2,6.5964404E2,5.211208E2,0E0,6.063594E2,2.9068823E2,4.7529382E2,1.3442583E2,2.5297314E3,1.0658086E3,8.509512E2,2.3818678E2,5.9902344E2,8.285071E1,2.1440137E2,1.3146816E3,0E0,0E0,5.191538E2,1.0220501E1,0E0,4.659781E1,0E0,0E0,0E0,0E0,0E0,0E0,0E0,0E0,0E0,0E0,0E0,0E0,0E0,0E0,0E0,0E0,0E0,0E0,0E0,0E0,0E0,0E0,0E0,0E0,0E0,0E0,0E0,0E0,0E0,0E0,0E0,0E0,0E0,0E0,0E0,0E0,0E0,0E0,0E0,0E0,0E0,0E0,0E0,0E0,0E0,0E0,0E0,0E0,0E0,0E0,0E0,0E0,0E0,0E0,0E0,0E0],"parents":[2147483647,0,0,1,1,2,2,3,3,4,4,5,5,6,6,7,7,8,8,9,9,10,10,11,11,12,12,13,13,14,14,15,15,16,16,17,17,18,18,19,19,20,20,21,21,22,22,23,23,24,24,25,25,26,26,27,27,28,28,29,29,30,30,31,31,32,32,33,33,34,34,35,35,36,36,37,37,38,38,39,39,40,40,41,41,42,42,43,43,45,45,46,46,47,47,48,48,49,49,50,50,51,51,52,52,53,53,54,54,55,55,56,56,59,59,60,60,62,62],"right_children":[2,4,6,8,10,12,14,16,18,20,22,24,26,28,30,32,34,36,38,40,42,44,46,48,50,52,54,56,58,60,62,64,66,68,70,72,74,76,78,80,82,84,86,88,-1,90,92,94,96,98,100,102,104,106,108,110,112,-1,-1,114,116,-1,118,-1,-1,-1,-1,-1,-1,-1,-1,-1,-1,-1,-1,-1,-1,-1,-1,-1,-1,-1,-1,-1,-1,-1,-1,-1,-1,-1,-1,-1,-1,-1,-1,-1,-1,-1,-1,-1,-1,-1,-1,-1,-1,-1,-1,-1,-1,-1,-1,-1,-1,-1,-1,-1,-1,-1,-1],"split_conditions":[4.8E1,3E1,7.9E1,1.8225227E2,2.5264202E1,1.6563911E1,1.8581022E1,2.1774048E1,1.8668005E1,1.7687793E2,2.0003462E2,2.4E1,1.7277959E2,1.19E2,8.5E1,1.6E1,1.5305001E1,8.315417E0,1.8E1,1.03389336E2,9.229999E0,3.3541878E1,9.3425E0,9E-1,2.6E1,3.1747936E1,3.323262E2,4.2820835E0,8.9E1,2.9951483E1,8.3E1,1.8E1,2.3999999E0,2.6320002E1,1.7099998E1,2.7219504E2,1.5E1,3.130092E2,1.3000001E0,1.4790417E1,1.1309166E1,1.0464797E1,1.9207083E1,4E-1,-2.3239322E0,7.7070847E0,2.7722336E1,6E1,1.8E1,5.5716667E0,4.269091E1,6.5E1,1.0463332E1,2.4881702E1,5.3E1,8.6E1,3.8E1,2.083136E0,-3.8944244E-2,2.082883E2,8.8E1,-6.3444734E-1,1E2,-2.683526E-1,-2.7248137E0,5.9539557E-1,-7.09329E-1,-2.2354233E0,-5.6220007E-1,-2.641706E0,-7.9094106E-1,-8.7083787E-1,1.2274528E0,-2.531029E0,-1.1524563E0,-2.6153255E0,-1.2559708E0,-1.2891581E0,-2.0471292E0,8.227414E-1,2.6207514E0,4.011074E0,1.6869015E0,3.9664683E0,1.2291455E0,-5.7311636E-1,1.8486656E0,2.5602098E0,1.44643085E-2,-1.6405894E0,5.1815265E-1,-1.2313514E0,-3.0347936E0,1.4507761E0,4.618827E0,-3.2057538E0,4.3671113E-1,1.605321E1,2.6164577E0,1.6570522E0,4.4969344E0,2.4633207E0,4.6844845E0,-1.4445208E0,2.3602953E0,1.3248155E0,-1.7183712E-1,1.1009817E0,5.6453705E0,5.53531E0,4.171406E-1,5.2610345E0,1.1850382E1,6.7571816E0,2.07216E0,-2.8146746E-2,1.1193529E0,1.1915404E0,3.3553388E0],"split_indices":[0,0,0,6,5,5,5,5,5,6,6,2,6,2,1,2,3,3,0,6,3,5,3,4,2,5,6,3,0,5,0,1,4,6,4,6,0,6,4,3,3,5,3,4,0,3,5,0,2,3,6,0,3,5,0,1,2,0,0,6,0,0,1,0,0,0,0,0,0,0,0,0,0,0,0,0,0,0,0,0,0,0,0,0,0,0,0,0,0,0,0,0,0,0,0,0,0,0,0,0,0,0,0,0,0,0,0,0,0,0,0,0,0,0,0,0,0,0,0],"split_type":[0,0,0,0,0,0,0,0,0,0,0,0,0,0,0,0,0,0,0,0,0,0,0,0,0,0,0,0,0,0,0,0,0,0,0,0,0,0,0,0,0,0,0,0,0,0,0,0,0,0,0,0,0,0,0,0,0,0,0,0,0,0,0,0,0,0,0,0,0,0,0,0,0,0,0,0,0,0,0,0,0,0,0,0,0,0,0,0,0,0,0,0,0,0,0,0,0,0,0,0,0,0,0,0,0,0,0,0,0,0,0,0,0,0,0,0,0,0,0],"sum_hessian":[2.206E3,1.792E3,4.14E2,1.191E3,6.01E2,3.55E2,5.9E1,2.5E2,9.41E2,4.59E2,1.42E2,1.58E2,1.97E2,3.5E1,2.4E1,1.57E2,9.3E1,2.43E2,6.98E2,2.03E2,2.56E2,5.3E1,8.9E1,2.4E1,1.34E2,9.2E1,1.05E2,3.3E1,2E0,1.7E1,7E0,1.9E1,1.38E2,8.1E1,1.2E1,6.7E1,1.76E2,2.69E2,4.29E2,1.4E2,6.3E1,1.16E2,1.4E2,4.5E1,8E0,4.7E1,4.2E1,2.1E1,3E0,5E0,1.29E2,8.6E1,6E0,1E2,5E0,8E0,2.5E1,1E0,1E0,1.5E1,2E0,1E0,6E0,1.1E1,8E0,1.07E2,3.1E1,1.2E1,6.9E1,1E1,2E0,3.7E1,3E1,3.5E1,1.41E2,2.41E2,2.8E1,2.04E2,2.25E2,1.06E2,3.4E1,2.9E1,3.4E1,8E0,1.08E2,1.3E2,1E1,8E0,3.7E1,2.8E1,1.9E1,1.4E1,2.8E1,1.5E1,6E0,2E0,1E0,2E0,3E0,1.5E1,1.14E2,6.3E1,2.3E1,5E0,1E0,6.1E1,3.9E1,1E0,4E0,7E0,1E0,6E0,1.9E1,1.1E1,4E0,1E0,1E0,4E0,2E0],"tree_param":{"num_deleted":"0","num_feature":"7","num_nodes":"119","size_leaf_vector":"1"}},{"base_weights":[8.974925E-2,-2.3780797E0,6.6581993E0,-4.3562274E0,-6.1589396E-1,5.0702105E0,1.5653402E1,-8.340481E-1,-4.760204E0,3.6766455E0,-1.5261111E0,6.587078E0,-6.930805E-1,1.9838923E1,9.403773E0,-3.923646E0,2.6027193E0,-3.6757636E0,-5.8086343E0,5.9848795E0,1.4405711E0,2.8698075E-1,-2.8409739E0,8.621104E0,2.8918588E0,2.2432041E-1,-7.414419E0,8.9102745E0,2.187182E1,1.5751344E1,2.9033918E0,-2.7498245E0,-9.399921E0,6.9111238E0,-1.9848037E-1,-4.0817456E0,1.12165E0,-6.2094865E0,-3.5483408E0,4.1689167E0,9.518766E0,9.982493E0,5.7812E-1,-7.0512235E-1,3.383317E0,-1.6723194E0,-4.3501163E0,9.30633E0,1.0961015E0,7.9400296E0,1.405179E0,1.2271777E0,-6.8979454E0,9.2160535E-1,-8.544291E0,1.5088744E1,-4.129616E0,2.9480309E1,1.6919834E1,-4.592729E0,1.8414925E1,8.86818E0,-1.8121487E0,-2.2090359E0,-4.7449514E-1,-7.6246893E-1,-3.0358164E0,3.9227145E0,1.044226E0,-1.5804217E0,2.329823E-1,1.3587126E-1,-1.3926008E0,1.3280206E0,-5.4526013E-1,-1.498615E0,-2.024516E0,-5.8812267E-1,-1.9845881E0,1.6941515E0,1.02953E-1,3.3507333E0,-1.7270044E0,-7.907536E-1,3.7574575E0,1.0654165E0,-4.6782228E-1,1.786318E-2,-1.21149E0,2.155132E0,2.4047314E-1,2.1069527E-1,-1.0666151E0,-1.4338148E0,2.967455E-1,4.1353962E-1,2.9599354E0,1.0860728E0,-1.9977016E0,1.6403443E0,5.446109E0,-6.479242E-1,9.863213E-1,7.518312E-1,-1.3334467E0,-2.5244327E0,1.4680773E0,-3.1408973E0,-6.2284285E-1,1.9479455E0,5.1685057E0,-5.194988E-1,-1.6985213E0,9.157296E0,2.07302E0,2.780987E0,6.766796E0,-3.1276703E-1,-1.7539611E0,7.5939465E0,3.7053175E0,1.42721E-1,3.8955338E0,9.7732204E-1,-1.1592249E0],"categories":[],"categories_nodes":[],"categories_segments":[],"categories_sizes":[],"default_left":[0,0,0,0,0,0,0,0,0,0,0,0,0,0,0,0,0,0,0,0,0,0,0,0,0,0,0,0,0,0,0,0,0,0,0,0,0,0,0,0,0,0,0,0,0,0,0,0,0,0,0,0,0,0,0,0,0,0,0,0,0,0,0,0,0,0,0,0,0,0,0,0,0,0,0,0,0,0,0,0,0,0,0,0,0,0,0,0,0,0,0,0,0,0,0,0,0,0,0,0,0,0,0,0,0,0,0,0,0,0,0,0,0,0,0,0,0,0,0,0,0,0,0,0,0],"id":3,"left_children":[1,3,5,7,9,11,13,15,17,19,21,23,25,27,29,31,33,35,37,39,41,43,45,47,49,51,53,55,57,59,61,63,65,67,69,71,73,75,77,79,81,83,85,87,89,91,93,95,97,99,101,103,105,-1,107,109,111,113,115,117,119,121,123,-1,-1,-1,-1,-1,-1,-1,-1,-1,-1,-1,-1,-1,-1,-1,-1,-1,-1,-1,-1,-1,-1,-1,-1,-1,-1,-1,-1,-1,-1,-1,-1,-1,-1,-1,-1,-1,-1,-1,-1,-1,-1,-1,-1,-1,-1,-1,-1,-1,-1,-1,-1,-1,-1,-1,-1,-1,-1,-1,-1,-1,-1],"loss_changes":[3.5790887E4,5.592129E3,8.534057E3,1.0717236E3,3.3266829E3,4.4980312E3,2.1676523E3,8.4905225E2,7.495088E2,7.6042444E2,1.6743602E3,3.0341523E3,6.6760864E2,9.826094E2,1.5222097E3,2.4413495E2,4.5998236E2,6.589927E2,2.8874023E2,4.2878784E2,5.614872E2,9.116636E2,7.1053687E2,1.3407559E3,1.0845748E3,6.941561E2,1.8027643E2,8.679763E2,1.1589922E3,1.1141484E3,5.786145E2,1.8237634E2,8.821411E0,2.716891E2,1.2273038E2,7.896792E2,2.7033057E2,1.5603125E2,2.5001746E2,2.80833E2,6.6933105E2,2.5757654E2,4.5677444E2,5.737134E2,7.006905E2,1.0354352E3,4.1040576E2,1.0521367E3,4.7433182E2,7.340017E2,7.721753E2,6.27735E2,2.558075E2,0E0,1.27706116E2,1.6871948E1,4.8916016E0,1.6609277E2,1.0412666E3,7.258358E0,3.9846484E2,3.047826E2,1.374251E2,0E0,0E0,0E0,0E0,0E0,0E0,0E0,0E0,0E0,0E0,0E0,0E0,0E0,0E0,0E0,0E0,0E0,0E0,0E0,0E0,0E0,0E0,0E0,0E0,0E0,0E0,0E0,0E0,0E0,0E0,0E0,0E0,0E0,0E0,0E0,0E0,0E0,0E0,0E0,0E0,0E0,0E0,0E0,0E0,0E0,0E0,0E0,0E0,0E0,0E0,0E0,0E0,0E0,0E0,0E0,0E0,0E0,0E0,0E0,0E0,0E0,0E0],"parents":[2147483647,0,0,1,1,2,2,3,3,4,4,5,5,6,6,7,7,8,8,9,9,10,10,11,11,12,12,13,13,14,14,15,15,16,16,17,17,18,18,19,19,20,20,21,21,22,22,23,23,24,24,25,25,26,26,27,27,28,28,29,29,30,30,31,31,32,32,33,33,34,34,35,35,36,36,37,37,38,38,39,39,40,40,41,41,42,42,43,43,44,44,45,45,46,46,47,47,48,48,49,49,50,50,51,51,52,52,54,54,55,55,56,56,57,57,58,58,59,59,60,60,61,61,62,62],"right_children":[2,4,6,8,10,12,14,16,18,20,22,24,26,28,30,32,34,36,38,40,42,44,46,48,50,52,54,56,58,60,62,64,66,68,70,72,74,76,78,80,82,84,86,88,90,92,94,96,98,100,102,104,106,-1,108,110,112,114,116,118,120,122,124,-1,-1,-1,-1,-1,-1,-1,-1,-1,-1,-1,-1,-1,-1,-1,-1,-1,-1,-1,-1,-1,-1,-1,-1,-1,-1,-1,-1,-1,-1,-1,-1,-1,-1,-1,-1,-1,-1,-1,-1,-1,-1,-1,-1,-1,-1,-1,-1,-1,-1,-1,-1,-1,-1,-1,-1,-1,-1,-1,-1,-1,-1],"split_conditions":[4.1E1,2.3E1,7.2E1,1.4508885E2,1.44E1,2.4627787E1,1.571334E2,4.5242218E1,8.000001E-1,1.0400832E1,2.0108704E2,2.193947E2,2.4485692E2,5.2E1,6.4E1,2.2E0,2E-1,3.2414255E2,2.1E1,3.5E1,9.085988E0,3.5E1,3E1,7E0,1.1832176E1,6.4E1,1.6E1,3.0999994E0,7.6E1,2.7E1,7.7633324E0,1.5E1,1.2E1,1.7E1,3E-1,2.0484238E2,1.8E1,8.988335E0,5.699999E0,3.9E1,2E-1,3E1,1.4929459E2,4.1E1,3.3E1,9.838332E0,3.3782593E2,1.53652935E1,6.3E1,4.9E1,2.4872862E2,3.3864883E1,3.975841E1,9.2160535E-1,5.4E1,3.9862506E0,4.7E1,1.6184168E1,8.509166E0,7.7E1,1.4934577E1,4.2820835E0,7.5E1,-2.2090359E0,-4.7449514E-1,-7.6246893E-1,-3.0358164E0,3.9227145E0,1.044226E0,-1.5804217E0,2.329823E-1,1.3587126E-1,-1.3926008E0,1.3280206E0,-5.4526013E-1,-1.498615E0,-2.024516E0,-5.8812267E-1,-1.9845881E0,1.6941515E0,1.02953E-1,3.3507333E0,-1.7270044E0,-7.907536E-1,3.7574575E0,1.0654165E0,-4.6782228E-1,1.786318E-2,-1.21149E0,2.155132E0,2.4047314E-1,2.1069527E-1,-1.0666151E0,-1.4338148E0,2.967455E-1,4.1353962E-1,2.9599354E0,1.0860728E0,-1.9977016E0,1.6403443E0,5.446109E0,-6.479242E-1,9.863213E-1,7.518312E-1,-1.3334467E0,-2.5244327E0,1.4680773E0,-3.1408973E0,-6.2284285E-1,1.9479455E0,5.1685057E0,-5.194988E-1,-1.6985213E0,9.157296E0,2.07302E0,2.780987E0,6.766796E0,-3.1276703E-1,-1.7539611E0,7.5939465E0,3.7053175E0,1.42721E-1,3.8955338E0,9.7732204E-1,-1.1592249E0],"split_indices":[0,0,0,6,5,5,6,6,4,3,6,6,6,1,1,4,4,6,0,0,5,0,1,4,5,1,1,4,1,1,3,2,1,2,4,6,2,3,4,1,4,0,6,1,1,3,6,6,1,2,6,5,5,0,0,3,1,3,3,0,5,3,1,0,0,0,0,0,0,0,0,0,0,0,0,0,0,0,0,0,0,0,0,0,0,0,0,0,0,0,0,0,0,0,0,0,0,0,0,0,0,0,0,0,0,0,0,0,0,0,0,0,0,0,0,0,0,0,0,0,0,0,0,0,0],"split_type":[0,0,0,0,0,0,0,0,0,0,0,0,0,0,0,0,0,0,0,0,0,0,0,0,0,0,0,0,0,0,0,0,0,0,0,0,0,0,0,0,0,0,0,0,0,0,0,0,0,0,0,0,0,0,0,0,0,0,0,0,0,0,0,0,0,0,0,0,0,0,0,0,0,0,0,0,0,0,0,0,0,0,0,0,0,0,0,0,0,0,0,0,0,0,0,0,0,0,0,0,0,0,0,0,0,0,0,0,0,0,0,0,0,0,0,0,0,0,0,0,0,0,0,0,0],"sum_hessian":[2.206E3,1.604E3,6.02E2,7.55E2,8.49E2,5.13E2,8.9E1,7.8E1,6.77E2,1.48E2,7.01E2,4.06E2,1.07E2,5.2E1,3.7E1,4.1E1,3.7E1,3.35E2,3.42E2,7.2E1,7.6E1,2.95E2,4.06E2,2.61E2,1.45E2,9.5E1,1.2E1,9E0,4.3E1,1.8E1,1.9E1,3.5E1,6E0,1.4E1,2.3E1,3.09E2,2.6E1,2.89E2,5.3E1,4.9E1,2.3E1,6E0,7E1,2.24E2,7.1E1,2.3E2,1.76E2,2.39E2,2.2E1,3.2E1,1.13E2,8.4E1,1.1E1,1E0,1.1E1,6E0,3E0,1.5E1,2.8E1,2E0,1.6E1,8E0,1.1E1,6E0,2.9E1,1E0,5E0,4E0,1E1,3E0,2E1,3.4E1,2.75E2,1.2E1,1.4E1,9.2E1,1.97E2,3.6E1,1.7E1,3.5E1,1.4E1,2.1E1,2E0,1E0,5E0,2.9E1,4.1E1,1.83E2,4.1E1,2.8E1,4.3E1,1.02E2,1.28E2,1.63E2,1.3E1,1.6E1,2.23E2,1.7E1,5E0,2.7E1,5E0,3.9E1,7.4E1,6.9E1,1.5E1,1E1,1E0,8E0,3E0,2E0,4E0,2E0,1E0,1.4E1,1E0,1.3E1,1.5E1,1E0,1E0,6E0,1E1,3E0,5E0,3E0,8E0],"tree_param":{"num_deleted":"0","num_feature":"7","num_nodes":"125","size_leaf_vector":"1"}},{"base_weights":[8.137199E-2,-1.3244727E0,6.1551027E0,-2.524104E0,7.5861436E-1,5.084035E0,1.4051565E1,-2.8388804E-1,-2.9756327E0,2.0760539E0,-1.230497E0,7.2024093E0,3.0064428E0,2.0741938E1,1.0179206E1,-6.3022393E-1,6.082447E0,-4.2332542E-1,-3.290006E0,4.4889812E0,9.1586435E-1,1.0537363E0,-2.0526E0,7.735178E0,-3.8388548E0,8.366629E0,1.3477302E0,1.0250835E1,2.5532461E1,5.302803E0,1.5677368E1,7.944473E-1,-2.356267E0,-1.1127684E0,8.994019E0,9.0501165E-1,-5.198484E0,-4.9254394E0,-2.9984257E0,7.536292E0,1.9364035E0,1.4744006E0,-2.7245476E0,-2.3333791E-1,8.799516E0,-1.6298558E0,-6.9605064E0,8.770229E0,2.2931912E0,-7.9607263E0,2.117539E0,7.151587E0,5.618744E0,6.495097E-1,1.4920115E1,1.219676E1,-2.1370699E-1,1.0435847E1,1.5275185E1,6.190368E-1,8.652903E0,1.9908407E1,3.2336097E0,-5.215165E-1,7.4514645E-1,-8.957404E-1,6.107272E-1,3.0708542E0,4.4833377E-2,-3.3612117E-1,1.4770563E0,-2.0881917E0,-5.051853E-1,-6.1921173E-1,-1.8696969E0,-9.589035E-1,1.8822041E-1,2.5929334E0,-1.0489985E0,2.899985E0,2.8196114E-1,2.5528243E-1,1.3119782E0,8.0816394E-1,-1.4736507E0,-8.745359E-1,1.50409E0,6.726764E0,7.772819E-1,-5.555391E-1,1.9392151E0,1.8347484E-1,-2.2635164E0,4.8135333E0,2.0908988E0,-1.1346658E0,2.2397554E0,-3.1802125E0,1.1818749E0,3.1115277E0,1.0772592E0,7.433171E-2,3.385851E0,5.447853E0,1.3643262E0,1.1546216E0,4.622576E0,4.90968E0,1.3099046E0,6.810707E-1,-3.467908E-1,3.0918913E0,2.425194E-1,-6.257859E-2,6.5822906E0,-1.12687685E-1,1.7294925E0],"categories":[],"categories_nodes":[],"categories_segments":[],"categories_sizes":[],"default_left":[0,0,0,0,0,0,0,0,0,0,0,0,0,0,0,0,0,0,0,0,0,0,0,0,0,0,0,0,0,0,0,0,0,0,0,0,0,0,0,0,0,0,0,0,0,0,0,0,0,0,0,0,0,0,0,0,0,0,0,0,0,0,0,0,0,0,0,0,0,0,0,0,0,0,0,0,0,0,0,0,0,0,0,0,0,0,0,0,0,0,0,0,0,0,0,0,0,0,0,0,0,0,0,0,0,0,0,0,0,0,0,0,0,0,0,0,0],"id":4,"left_children":[1,3,5,7,9,11,13,15,17,19,21,23,25,27,29,31,33,35,37,39,41,43,45,47,49,51,53,55,57,59,61,63,65,-1,67,69,71,73,75,77,79,81,83,85,87,89,91,93,95,97,-1,99,-1,101,103,105,-1,-1,107,109,111,113,115,-1,-1,-1,-1,-1,-1,-1,-1,-1,-1,-1,-1,-1,-1,-1,-1,-1,-1,-1,-1,-1,-1,-1,-1,-1,-1,-1,-1,-1,-1,-1,-1,-1,-1,-1,-1,-1,-1,-1,-1,-1,-1,-1,-1,-1,-1,-1,-1,-1,-1,-1,-1,-1,-1],"loss_changes":[1.8853111E4,4.482509E3,3.4384854E3,1.1502661E3,1.7216248E3,1.5935557E3,1.058333E3,4.2717218E2,7.58458E2,1.1016729E3,4.9416605E2,1.094415E3,1.6513422E3,5.926548E2,8.016372E2,4.5187695E2,3.184525E2,6.707218E2,3.872246E2,9.8105444E2,5.4894214E2,6.9991077E2,3.8908966E2,9.5435156E2,4.6044653E2,4.2005615E2,1.3549276E3,1.580232E2,5.1273047E2,2.9277417E2,7.253745E2,4.3648743E2,2.3556754E2,0E0,8.636133E1,6.810658E2,1.3072107E2,4.5831543E2,5.172573E2,7.384885E2,5.3785693E2,4.173844E2,4.3995758E2,8.729604E2,7.877006E2,3.335202E2,7.100812E1,1.7875137E3,9.395923E2,2.616786E2,0E0,4.3286792E2,0E0,5.8689746E2,1.5261621E2,1.015708E2,0E0,0E0,1.1808105E1,2.9002314E1,1.343396E2,4.5435547E2,4.784694E1,0E0,0E0,0E0,0E0,0E0,0E0,0E0,0E0,0E0,0E0,0E0,0E0,0E0,0E0,0E0,0E0,0E0,0E0,0E0,0E0,0E0,0E0,0E0,0E0,0E0,0E0,0E0,0E0,0E0,0E0,0E0,0E0,0E0,0E0,0E0,0E0,0E0,0E0,0E0,0E0,0E0,0E0,0E0,0E0,0E0,0E0,0E0,0E0,0E0,0E0,0E0,0E0,0E0,0E0],"parents":[2147483647,0,0,1,1,2,2,3,3,4,4,5,5,6,6,7,7,8,8,9,9,10,10,11,11,12,12,13,13,14,14,15,15,16,16,17,17,18,18,19,19,20,20,21,21,22,22,23,23,24,24,25,25,26,26,27,27,28,28,29,29,30,30,31,31,32,32,34,34,35,35,36,36,37,37,38,38,39,39,40,40,41,41,42,42,43,43,44,44,45,45,46,46,47,47,48,48,49,49,51,51,53,53,54,54,55,55,58,58,59,59,60,60,61,61,62,62],"right_children":[2,4,6,8,10,12,14,16,18,20,22,24,26,28,30,32,34,36,38,40,42,44,46,48,50,52,54,56,58,60,62,64,66,-1,68,70,72,74,76,78,80,82,84,86,88,90,92,94,96,98,-1,100,-1,102,104,106,-1,-1,108,110,112,114,116,-1,-1,-1,-1,-1,-1,-1,-1,-1,-1,-1,-1,-1,-1,-1,-1,-1,-1,-1,-1,-1,-1,-1,-1,-1,-1,-1,-1,-1,-1,-1,-1,-1,-1,-1,-1,-1,-1,-1,-1,-1,-1,-1,-1,-1,-1,-1,-1,-1,-1,-1,-1,-1,-1],"split_conditions":[4.8E1,2.9E1,8.2E1,1.5815435E1,2.0969805E1,1.7277959E2,6.5E1,1.5629971E1,4.8841667E0,7.1612496E0,1.4157512E2,1.18E1,1.2984975E1,3.7E1,9.7E1,1E-1,1.7E1,2.858545E1,1.5E1,2.1574039E2,4.9E1,1.4790417E1,9.7E0,2.5223133E1,6.8E1,1.2261157E1,3.3969388E2,7.3E0,7.846938E1,1.872346E1,1.8581022E1,2.2E1,2.6E1,-1.1127684E0,2.8E1,2.4E1,2.4673781E2,9.300833E0,3.2289737E2,6E1,1.0195057E1,4.2E1,1.1805702E2,6.905465E1,4.378982E1,8.700001E0,2.3E1,3.7E1,2.8017622E1,9.0584E1,2.117539E0,9.885262E0,5.618744E0,1.3000001E1,1.8892282E1,5.5716667E0,-2.1370699E-1,1.0435847E1,9.9E1,8.9E1,2.9162222E1,3.1445835E0,1E2,-5.215165E-1,7.4514645E-1,-8.957404E-1,6.107272E-1,3.0708542E0,4.4833377E-2,-3.3612117E-1,1.4770563E0,-2.0881917E0,-5.051853E-1,-6.1921173E-1,-1.8696969E0,-9.589035E-1,1.8822041E-1,2.5929334E0,-1.0489985E0,2.899985E0,2.8196114E-1,2.5528243E-1,1.3119782E0,8.0816394E-1,-1.4736507E0,-8.745359E-1,1.50409E0,6.726764E0,7.772819E-1,-5.555391E-1,1.9392151E0,1.8347484E-1,-2.2635164E0,4.8135333E0,2.0908988E0,-1.1346658E0,2.2397554E0,-3.1802125E0,1.1818749E0,3.1115277E0,1.0772592E0,7.433171E-2,3.385851E0,5.447853E0,1.3643262E0,1.1546216E0,4.622576E0,4.90968E0,1.3099046E0,6.810707E-1,-3.467908E-1,3.0918913E0,2.425194E-1,-6.257859E-2,6.5822906E0,-1.12687685E-1,1.7294925E0],"split_indices":[0,0,0,5,5,6,1,5,3,3,6,4,5,2,0,4,0,5,2,6,1,3,4,5,0,5,6,4,6,5,5,2,0,0,1,0,6,3,6,1,5,1,6,6,6,4,1,1,5,6,0,5,0,4,5,3,0,0,0,0,5,3,1,0,0,0,0,0,0,0,0,0,0,0,0,0,0,0,0,0,0,0,0,0,0,0,0,0,0,0,0,0,0,0,0,0,0,0,0,0,0,0,0,0,0,0,0,0,0,0,0,0,0,0,0,0,0],"split_type":[0,0,0,0,0,0,0,0,0,0,0,0,0,0,0,0,0,0,0,0,0,0,0,0,0,0,0,0,0,0,0,0,0,0,0,0,0,0,0,0,0,0,0,0,0,0,0,0,0,0,0,0,0,0,0,0,0,0,0,0,0,0,0,0,0,0,0,0,0,0,0,0,0,0,0,0,0,0,0,0,0,0,0,0,0,0,0,0,0,0,0,0,0,0,0,0,0,0,0,0,0,0,0,0,0,0,0,0,0,0,0,0,0,0,0,0,0],"sum_hessian":[2.206E3,1.792E3,4.14E2,1.137E3,6.55E2,3.66E2,4.8E1,1.91E2,9.46E2,3.94E2,2.61E2,1.8E2,1.86E2,1.6E1,3.2E1,1.82E2,9E0,1.04E2,8.42E2,1.27E2,2.67E2,6.9E1,1.92E2,1.72E2,8E0,4.3E1,1.43E2,6E0,1E1,1.8E1,1.4E1,1E2,8.2E1,2E0,7E0,8.2E1,2.2E1,1.25E2,7.17E2,5.7E1,7E1,2.32E2,3.5E1,6E1,9E0,1.78E2,1.4E1,1.44E2,2.8E1,6E0,2E0,4E1,3E0,1.37E2,6E0,5E0,1E0,4E0,6E0,8E0,1E1,1E1,4E0,4E1,6E1,7.2E1,1E1,6E0,1E0,5.5E1,2.7E1,1.4E1,8E0,4E1,8.5E1,6.8E2,3.7E1,5.2E1,5E0,7E0,6.3E1,1.92E2,4E1,1E1,2.5E1,4E1,2E1,2E0,7E0,1.74E2,4E0,1E0,1.3E1,2.7E1,1.17E2,1.3E1,1.5E1,5E0,1E0,2E1,2E1,1.33E2,4E0,4E0,2E0,2E0,3E0,5E0,1E0,4E0,4E0,8E0,2E0,1E0,9E0,2E0,2E0],"tree_param":{"num_deleted":"0","num_feature":"7","num_nodes":"117","size_leaf_vector":"1"}},{"base_weights":[8.982273E-2,-6.359117E-1,6.748106E0,-1.7011851E0,1.1177531E0,9.077713E0,4.4830484E0,-5.2201176E-1,-2.382488E0,4.383871E0,5.8761424E-1,1.0452601E1,7.989025E0,9.255845E0,2.8580914E0,7.65324E-2,-2.174824E0,-2.9572275E0,-2.858874E-1,8.532967E0,3.181304E0,1.4918556E0,-1.32319E0,-4.8491173E0,8.975652E0,4.8496184E0,4.190072E0,6.619274E0,-6.3227737E-1,7.235082E-1,-1.6401917E0,-4.472468E0,-1.0690054E0,-2.240652E0,-3.5594804E0,4.1360826E0,-8.042506E-1,2.968731E0,1.5469599E1,3.9618943E0,-2.2881866E0,1.8258014E0,-3.3154354E0,-3.8585553E0,-7.309497E-2,3.86792E-1,-7.110143E0,7.353943E0,1.5594502E1,-8.1883305E-1,7.5006266E0,8.450136E0,-8.2936054E-1,-6.613062E0,2.8955023E0,3.7589762E-1,-6.539477E-1,1.7656969E0,-5.618487E-1,-1.5033684E0,-5.2751136E-1,-4.1949263E-1,2.453557E0,-5.223042E-1,-1.2349632E0,9.3408424E-1,-1.1327152E0,2.332032E0,-1.3302618E0,-3.0544806E-1,3.0691833E0,2.5368361E0,-3.058163E-1,7.513289E-1,7.1086926E0,8.0573857E-1,1.8109548E0,-3.0504122E0,5.813291E-1,6.42666E-1,-1.0176213E0,-1.6851381E0,2.8848514E-1,-1.3666549E0,1.7920948E0,5.5799675E-1,-5.2525926E-1,-2.4726067E0,-2.1761285E-1,3.843392E0,1.4218847E0,6.087936E0,2.1553774E0,-1.2103363E0,1.122482E0,2.8021524E0,-1.6347268E0,1.9421701E0,4.459679E0,6.4922607E-1,-1.0970808E0,-2.4549491E0,1.6066761E-1,-8.267131E-1,1.553871E0],"categories":[],"categories_nodes":[],"categories_segments":[],"categories_sizes":[],"default_left":[0,0,0,0,0,0,0,0,0,0,0,0,0,0,0,0,0,0,0,0,0,0,0,0,0,0,0,0,0,0,0,0,0,0,0,0,0,0,0,0,0,0,0,0,0,0,0,0,0,0,0,0,0,0,0,0,0,0,0,0,0,0,0,0,0,0,0,0,0,0,0,0,0,0,0,0,0,0,0,0,0,0,0,0,0,0,0,0,0,0,0,0,0,0,0,0,0,0,0,0,0,0,0,0,0],"id":5,"left_children":[1,3,5,7,9,11,13,15,17,19,21,-1,23,25,27,29,31,33,35,37,39,41,43,45,47,49,-1,51,53,55,57,59,61,63,65,67,69,71,73,75,77,79,81,83,85,-1,87,89,91,93,95,97,99,101,103,-1,-1,-1,-1,-1,-1,-1,-1,-1,-1,-1,-1,-1,-1,-1,-1,-1,-1,-1,-1,-1,-1,-1,-1,-1,-1,-1,-1,-1,-1,-1,-1,-1,-1,-1,-1,-1,-1,-1,-1,-1,-1,-1,-1,-1,-1,-1,-1,-1,-1],"loss_changes":[1.0668836E4,3.7213535E3,1.1043477E3,9.941367E2,1.3012405E3,2.6948691E3,8.421721E2,4.502893E2,9.450791E2,4.9675854E2,1.1233347E3,0E0,1.348168E3,5.1348975E2,1.1200579E3,3.732641E2,3.0265295E2,2.5786523E2,3.9299814E2,8.418074E2,3.6342834E2,7.140234E2,6.6213245E2,1.20200226E2,9.157676E2,2.4657556E2,0E0,5.6614233E2,9.685982E2,3.7782483E2,1.7209573E2,4.8215942E1,2.6419122E2,2.5901697E2,4.9226514E2,5.9558673E2,3.7156705E2,3.1500107E2,1.0071763E3,1.7704907E2,3.8600183E2,6.8914197E2,2.9089075E2,5.0004688E2,4.605575E2,0E0,3.738211E1,1.0663994E3,5.654717E2,1.0308321E2,3.1298254E2,3.2215063E2,8.4091705E1,1.9519153E2,3.8859814E2,0E0,0E0,0E0,0E0,0E0,0E0,0E0,0E0,0E0,0E0,0E0,0E0,0E0,0E0,0E0,0E0,0E0,0E0,0E0,0E0,0E0,0E0,0E0,0E0,0E0,0E0,0E0,0E0,0E0,0E0,0E0,0E0,0E0,0E0,0E0,0E0,0E0,0E0,0E0,0E0,0E0,0E0,0E0,0E0,0E0,0E0,0E0,0E0,0E0,0E0],"parents":[2147483647,0,0,1,1,2,2,3,3,4,4,5,5,6,6,7,7,8,8,9,9,10,10,12,12,13,13,14,14,15,15,16,16,17,17,18,18,19,19,20,20,21,21,22,22,23,23,24,24,25,25,27,27,28,28,29,29,30,30,31,31,32,32,33,33,34,34,35,35,36,36,37,37,38,38,39,39,40,40,41,41,42,42,43,43,44,44,46,46,47,47,48,48,49,49,50,50,51,51,52,52,53,53,54,54],"right_children":[2,4,6,8,10,12,14,16,18,20,22,-1,24,26,28,30,32,34,36,38,40,42,44,46,48,50,-1,52,54,56,58,60,62,64,66,68,70,72,74,76,78,80,82,84,86,-1,88,90,92,94,96,98,100,102,104,-1,-1,-1,-1,-1,-1,-1,-1,-1,-1,-1,-1,-1,-1,-1,-1,-1,-1,-1,-1,-1,-1,-1,-1,-1,-1,-1,-1,-1,-1,-1,-1,-1,-1,-1,-1,-1,-1,-1,-1,-1,-1,-1,-1,-1,-1,-1,-1,-1,-1],"split_conditions":[6E1,3.1E1,1.4508885E2,2.1200533E2,1.1832176E1,3.3E1,1.3584932E1,2.858545E1,2.986955E2,7.846938E1,2.329786E2,1.0452601E1,2.3910297E1,8.2175E0,8.790416E0,1.496125E1,3.1902174E1,2.3776941E2,4.2820835E0,4.1E1,8E-1,3.3541878E1,2.5518689E2,3E1,9.7E1,6.2E1,4.190072E0,1.0000001E0,1.8668005E1,3.8E1,8.905908E0,1.4373752E1,2.1116096E2,3.9E0,1.0805999E1,3.8E1,6.9E1,3.6E1,3.9218853E1,2.4758748E2,2E1,9.7E0,5.2E0,1.743625E1,2E-1,3.86792E-1,7.2E1,6.121666E0,1E2,4.9E1,6.9E1,2.9393796E2,6.4E1,1.5977916E1,1.0200833E1,3.7589762E-1,-6.539477E-1,1.7656969E0,-5.618487E-1,-1.5033684E0,-5.2751136E-1,-4.1949263E-1,2.453557E0,-5.223042E-1,-1.2349632E0,9.3408424E-1,-1.1327152E0,2.332032E0,-1.3302618E0,-3.0544806E-1,3.0691833E0,2.5368361E0,-3.058163E-1,7.513289E-1,7.1086926E0,8.0573857E-1,1.8109548E0,-3.0504122E0,5.813291E-1,6.42666E-1,-1.0176213E0,-1.6851381E0,2.8848514E-1,-1.3666549E0,1.7920948E0,5.5799675E-1,-5.2525926E-1,-2.4726067E0,-2.1761285E-1,3.843392E0,1.4218847E0,6.087936E0,2.1553774E0,-1.2103363E0,1.122482E0,2.8021524E0,-1.6347268E0,1.9421701E0,4.459679E0,6.4922607E-1,-1.0970808E0,-2.4549491E0,1.6066761E-1,-8.267131E-1,1.553871E0],"split_indices":[0,0,6,6,5,1,5,5,6,6,6,0,6,3,3,3,5,6,3,0,4,5,6,2,0,0,0,4,5,1,5,3,6,4,5,2,2,2,6,6,2,4,4,3,4,0,0,3,1,1,1,6,0,3,3,0,0,0,0,0,0,0,0,0,0,0,0,0,0,0,0,0,0,0,0,0,0,0,0,0,0,0,0,0,0,0,0,0,0,0,0,0,0,0,0,0,0,0,0,0,0,0,0,0,0],"split_type":[0,0,0,0,0,0,0,0,0,0,0,0,0,0,0,0,0,0,0,0,0,0,0,0,0,0,0,0,0,0,0,0,0,0,0,0,0,0,0,0,0,0,0,0,0,0,0,0,0,0,0,0,0,0,0,0,0,0,0,0,0,0,0,0,0,0,0,0,0,0,0,0,0,0,0,0,0,0,0,0,0,0,0,0,0,0,0,0,0,0,0,0,0,0,0,0,0,0,0,0,0,0,0,0,0],"sum_hessian":[2.206E3,1.99E3,2.16E2,1.238E3,7.52E2,1.05E2,1.11E2,4.54E2,7.84E2,1.04E2,6.48E2,3E0,1.02E2,2.7E1,8.4E1,3.34E2,1.2E2,6.15E2,1.69E2,2.2E1,8.2E1,4.4E2,2.08E2,7E0,9.5E1,1.5E1,1.2E1,4E1,4.4E1,2.43E2,9.1E1,3.8E1,8.2E1,2.83E2,3.32E2,1.7E1,1.52E2,1.3E1,9E0,7.2E1,1E1,4.12E2,2.8E1,6.8E1,1.4E2,2E0,5E0,7.8E1,1.7E1,5E0,1E1,3.2E1,8E0,1.6E1,2.8E1,2.06E2,3.7E1,2E0,8.9E1,3.1E1,7E0,8E1,2E0,2.25E2,5.8E1,1E1,3.22E2,1.2E1,5E0,1.5E2,2E0,5E0,8E0,4E0,5E0,4.6E1,2.6E1,3E0,7E0,3.89E2,2.3E1,1.8E1,1E1,6.4E1,4E0,6.5E1,7.5E1,4E0,1E0,2.4E1,5.4E1,1E1,7E0,3E0,2E0,9E0,1E0,2.6E1,6E0,4E0,4E0,1.3E1,3E0,8E0,2E1],"tree_param":{"num_deleted":"0","num_feature":"7","num_nodes":"105","size_leaf_vector":"1"}},{"base_weights":[8.234949E-2,-4.3927985E-1,4.8679795E0,-1.5018674E0,4.3156976E-1,6.5219274E0,2.7153788E0,-1.0634915E0,-2.8299768E0,1.2589735E0,-6.632004E-1,1.9370909E1,5.9222083E0,1.3842095E0,7.7046113E0,-1.3645743E0,1.3314338E0,-1.4221878E0,-3.8153183E0,4.024153E0,8.623684E-1,-4.6359987E0,-3.245381E-1,9.17562E0,1.6994501E0,4.779209E0,1.243184E1,5.524782E0,-7.1269614E-1,4.5215063E0,4.24414E0,-1.7296067E0,1.4424123E-1,6.010969E0,1.7781335E-1,-8.661324E-1,-5.103384E0,-2.7011836E0,-4.922064E0,1.0690452E1,2.7701273E0,1.6634219E0,-3.4800798E-2,-5.987219E0,-1.3220218E0,6.21303E-1,-1.9926718E0,-1.17169194E-1,8.819218E-1,6.290819E0,1.7058178E0,1.4841623E0,1.4671759E1,-4.470623E0,7.022906E0,-2.907488E0,2.4123607E0,-3.0887046E0,7.1914206E0,-2.3776159E-2,-6.2279487E-1,-4.8001546E-2,3.5581064E0,2.4510195E0,-1.6046311E0,2.4317603E0,-2.5511349E-2,-5.2330303E-1,4.82483E-1,-1.7284551E0,-3.6254466E-1,-1.0555882E0,6.930326E-1,-1.5452719E0,-3.5746253E-1,3.9905424E0,-4.7326547E-1,1.9864416E0,4.296089E-1,3.459901E-1,2.1743882E0,1.1338257E-1,-1.674589E0,-1.9453765E0,9.670504E-1,-2.2004244E0,1.8419948E-1,3.1341422E0,1.10124804E-1,-7.55287E-2,-1.0933508E0,7.3806447E-1,2.673221E0,2.0015256E0,-3.5255408E-1,8.446636E-1,-3.7649804E-1,5.7153406E0,1.6972207E0,4.8996735E-2,-1.8209137E0,2.9842253E0,4.105189E-1,-1.929375E0,3.8398233E-1,1.5637631E0,-4.4073394E-1,-1.5444695E0,1.17111216E-4,4.0138617E0,1.2989005E0],"categories":[],"categories_nodes":[],"categories_segments":[],"categories_sizes":[],"default_left":[0,0,0,0,0,0,0,0,0,0,0,0,0,0,0,0,0,0,0,0,0,0,0,0,0,0,0,0,0,0,0,0,0,0,0,0,0,0,0,0,0,0,0,0,0,0,0,0,0,0,0,0,0,0,0,0,0,0,0,0,0,0,0,0,0,0,0,0,0,0,0,0,0,0,0,0,0,0,0,0,0,0,0,0,0,0,0,0,0,0,0,0,0,0,0,0,0,0,0,0,0,0,0,0,0,0,0,0,0,0,0],"id":6,"left_children":[1,3,5,7,9,11,13,15,17,19,21,23,25,27,29,31,33,35,37,39,41,43,45,-1,47,49,51,53,55,-1,57,59,61,63,65,67,69,71,73,75,77,79,81,83,85,87,89,-1,-1,91,93,95,97,99,101,103,105,107,109,-1,-1,-1,-1,-1,-1,-1,-1,-1,-1,-1,-1,-1,-1,-1,-1,-1,-1,-1,-1,-1,-1,-1,-1,-1,-1,-1,-1,-1,-1,-1,-1,-1,-1,-1,-1,-1,-1,-1,-1,-1,-1,-1,-1,-1,-1,-1,-1,-1,-1,-1,-1],"loss_changes":[5.5115273E3,1.843028E3,7.5487305E2,5.192339E2,9.9270447E2,8.253867E2,6.269205E2,4.8926093E2,3.0252185E2,6.808608E2,6.335417E2,9.3890344E2,8.1856494E2,6.724815E2,4.459049E2,3.3126013E2,4.0921014E2,1.8594609E2,1.4700293E2,6.224435E2,3.931761E2,1.5776752E2,6.891543E2,0E0,8.924822E0,4.631377E2,3.9509717E2,4.2072998E2,3.6367407E2,0E0,3.463914E2,2.7651062E2,4.2251877E2,4.1160132E2,1.2989099E2,1.8099573E2,2.3797638E1,2.825905E2,4.849939E1,4.054176E2,3.3580072E2,8.149423E2,5.9510333E2,1.4001233E2,1.4419263E2,6.930869E2,4.534411E2,0E0,0E0,6.605166E2,5.0858008E2,1.8120955E1,4.4490186E2,3.0631691E1,3.6673157E2,4.6565222E2,2.4677223E2,3.1812382E1,1.3686859E2,0E0,0E0,0E0,0E0,0E0,0E0,0E0,0E0,0E0,0E0,0E0,0E0,0E0,0E0,0E0,0E0,0E0,0E0,0E0,0E0,0E0,0E0,0E0,0E0,0E0,0E0,0E0,0E0,0E0,0E0,0E0,0E0,0E0,0E0,0E0,0E0,0E0,0E0,0E0,0E0,0E0,0E0,0E0,0E0,0E0,0E0,0E0,0E0,0E0,0E0,0E0,0E0],"parents":[2147483647,0,0,1,1,2,2,3,3,4,4,5,5,6,6,7,7,8,8,9,9,10,10,11,11,12,12,13,13,14,14,15,15,16,16,17,17,18,18,19,19,20,20,21,21,22,22,24,24,25,25,26,26,27,27,28,28,30,30,31,31,32,32,33,33,34,34,35,35,36,36,37,37,38,38,39,39,40,40,41,41,42,42,43,43,44,44,45,45,46,46,49,49,50,50,51,51,52,52,53,53,54,54,55,55,56,56,57,57,58,58],"right_children":[2,4,6,8,10,12,14,16,18,20,22,24,26,28,30,32,34,36,38,40,42,44,46,-1,48,50,52,54,56,-1,58,60,62,64,66,68,70,72,74,76,78,80,82,84,86,88,90,-1,-1,92,94,96,98,100,102,104,106,108,110,-1,-1,-1,-1,-1,-1,-1,-1,-1,-1,-1,-1,-1,-1,-1,-1,-1,-1,-1,-1,-1,-1,-1,-1,-1,-1,-1,-1,-1,-1,-1,-1,-1,-1,-1,-1,-1,-1,-1,-1,-1,-1,-1,-1,-1,-1,-1,-1,-1,-1,-1,-1],"split_conditions":[6E1,2.5E1,1.8581022E1,2.9268686E1,2.0969805E1,3.3E1,6.4E1,4.3E1,2.1896777E2,3.0279171E0,2.194524E1,6.1E1,9.7E1,4.9E1,7E1,2.97181E2,2.2E1,1.3900002E1,9.229999E0,6.3294598E1,1.9183362E2,1.2023749E1,2.2918912E2,9.17562E0,6.2E1,6.7E1,3.9862506E0,2.0268991E1,7.2E1,4.5215063E0,7.27375E0,1.4157512E2,2.8772987E1,2.8357855E1,1.1E1,3.5647274E1,2.13E1,8.559167E0,4.9E1,5.8E1,1.06261E1,1.9734436E1,6E1,6E1,2.1129885E1,2.2218153E1,9.06125E0,-1.17169194E-1,8.819218E-1,5E1,3.8675E0,1.06E2,1.0400832E1,6.3E1,2.5959969E1,1.0463332E1,5.6E1,7.5E1,1.1147203E2,-2.3776159E-2,-6.2279487E-1,-4.8001546E-2,3.5581064E0,2.4510195E0,-1.6046311E0,2.4317603E0,-2.5511349E-2,-5.2330303E-1,4.82483E-1,-1.7284551E0,-3.6254466E-1,-1.0555882E0,6.930326E-1,-1.5452719E0,-3.5746253E-1,3.9905424E0,-4.7326547E-1,1.9864416E0,4.296089E-1,3.459901E-1,2.1743882E0,1.1338257E-1,-1.674589E0,-1.9453765E0,9.670504E-1,-2.2004244E0,1.8419948E-1,3.1341422E0,1.10124804E-1,-7.55287E-2,-1.0933508E0,7.3806447E-1,2.673221E0,2.0015256E0,-3.5255408E-1,8.446636E-1,-3.7649804E-1,5.7153406E0,1.6972207E0,4.8996735E-2,-1.8209137E0,2.9842253E0,4.105189E-1,-1.929375E0,3.8398233E-1,1.5637631E0,-4.4073394E-1,-1.5444695E0,1.17111216E-4,4.0138617E0,1.2989005E0],"split_indices":[0,0,5,5,5,1,2,2,6,3,5,0,0,1,1,6,1,4,3,6,6,3,6,0,0,1,3,5,0,0,3,6,5,5,0,5,4,3,2,1,5,5,1,1,5,5,3,0,0,1,3,0,3,0,5,3,2,0,6,0,0,0,0,0,0,0,0,0,0,0,0,0,0,0,0,0,0,0,0,0,0,0,0,0,0,0,0,0,0,0,0,0,0,0,0,0,0,0,0,0,0,0,0,0,0,0,0,0,0,0,0],"split_type":[0,0,0,0,0,0,0,0,0,0,0,0,0,0,0,0,0,0,0,0,0,0,0,0,0,0,0,0,0,0,0,0,0,0,0,0,0,0,0,0,0,0,0,0,0,0,0,0,0,0,0,0,0,0,0,0,0,0,0,0,0,0,0,0,0,0,0,0,0,0,0,0,0,0,0,0,0,0,0,0,0,0,0,0,0,0,0,0,0,0,0,0,0,0,0,0,0,0,0,0,0,0,0,0,0,0,0,0,0,0,0],"sum_hessian":[2.206E3,1.99E3,2.16E2,8.96E2,1.094E3,1.21E2,9.5E1,6.75E2,2.21E2,6.23E2,4.71E2,4E0,1.17E2,7.6E1,1.9E1,6E2,7.5E1,9.2E1,1.29E2,7.7E1,5.46E2,3.6E1,4.35E2,2E0,2E0,1.01E2,1.6E1,2.5E1,5.1E1,5E0,1.4E1,4.83E2,1.17E2,1.4E1,6.1E1,8.1E1,1.1E1,6.6E1,6.3E1,1.1E1,6.6E1,2.88E2,2.58E2,2.5E1,1.1E1,2.78E2,1.57E2,1E0,1E0,6.7E1,3.4E1,3E0,1.3E1,3E0,2.2E1,3E1,2.1E1,4E0,1E1,8.4E1,3.99E2,1.15E2,2E0,1.2E1,2E0,1E0,6E1,6E1,2.1E1,9E0,2E0,5.7E1,9E0,5.9E1,4E0,9E0,2E0,1.6E1,5E1,2.65E2,2.3E1,2.41E2,1.7E1,2.4E1,1E0,2E0,9E0,6E0,2.72E2,7.7E1,8E1,2.8E1,3.9E1,1.2E1,2.2E1,2E0,1E0,8E0,5E0,1E0,2E0,1.4E1,8E0,1.6E1,1.4E1,1.2E1,9E0,2E0,2E0,2E0,8E0],"tree_param":{"num_deleted":"0","num_feature":"7","num_nodes":"111","size_leaf_vector":"1"}},{"base_weights":[7.579789E-2,-6.242655E-1,2.0406728E0,7.3784685E-1,-9.250143E-1,1.6429367E0,6.3173027E0,1.3530918E0,-1.3358843E0,-1.8780642E0,-5.9841937E-1,1.185926E0,5.929922E0,1.0128143E1,4.162709E0,8.171741E-1,4.8629103E0,-4.5450094E-1,-2.3668342E0,-8.134613E-1,-2.383685E0,-5.471816E-1,-7.752089E0,1.7868272E0,-1.6824728E0,5.856233E0,5.2676897E0,6.9417644E0,5.6245303E0,5.210645E0,3.207243E0,4.3124056E0,4.242752E-1,7.450491E0,-1.0573006E0,-3.6036093E0,3.9025232E-1,6.4925694E-1,-2.6774979E0,-2.609992E0,8.0629444E-1,-1.3158359E-1,-1.2157389E0,-3.7858203E-1,-2.587037E0,-2.508821E0,2.2197533E0,-2.539304E0,6.774835E0,-1.562448E-1,6.627579E0,1.8093154E0,8.813812E0,-1.4440918E-1,5.2254543E0,5.775671E-1,2.868488E0,-4.8260605E-1,3.5271636E-1,3.070961E0,-1.0536486E0,2.7921965E0,-9.7292167E-1,-3.981105E-1,-1.8115321E0,-7.747175E-1,4.2724422E-1,9.737789E-1,-4.9830619E-1,-3.433324E-1,-1.4001228E0,-1.5805029E0,-6.5513325E-1,1.5252737E0,-1.7160624E-1,5.195203E-1,-1.498842E-1,2.9982433E-1,-4.881843E-1,1.2315786E0,-1.6394945E0,1.1303434E0,3.5891673E-1,-2.8429714E-1,-2.1084344E0,2.5807986E0,8.389029E-1,1.4250698E0,-1.0915654E0,1.446179E0,3.4699407E0,9.2929804E-1,2.1384431E-1,3.8266058E0,6.9636065E-1,-1.0284127E0,9.4795614E-1,2.6298857E0,2.4239857E-1],"categories":[],"categories_nodes":[],"categories_segments":[],"categories_sizes":[],"default_left":[0,0,0,0,0,0,0,0,0,0,0,0,0,0,0,0,0,0,0,0,0,0,0,0,0,0,0,0,0,0,0,0,0,0,0,0,0,0,0,0,0,0,0,0,0,0,0,0,0,0,0,0,0,0,0,0,0,0,0,0,0,0,0,0,0,0,0,0,0,0,0,0,0,0,0,0,0,0,0,0,0,0,0,0,0,0,0,0,0,0,0,0,0,0,0,0,0,0,0],"id":7,"left_children":[1,3,5,7,9,11,13,15,17,19,21,23,25,27,29,31,33,35,-1,37,39,41,43,45,47,-1,49,51,-1,-1,53,55,57,59,61,63,65,67,69,71,73,75,77,-1,-1,79,81,83,85,87,89,91,93,95,97,-1,-1,-1,-1,-1,-1,-1,-1,-1,-1,-1,-1,-1,-1,-1,-1,-1,-1,-1,-1,-1,-1,-1,-1,-1,-1,-1,-1,-1,-1,-1,-1,-1,-1,-1,-1,-1,-1,-1,-1,-1,-1,-1,-1],"loss_changes":[3.037084E3,6.675986E2,9.761836E2,3.7818417E2,4.1409863E2,1.0352612E3,3.601693E2,4.2488818E2,3.891959E2,1.8107812E2,3.6046323E2,8.337932E2,3.5618616E2,3.3680054E2,3.6068768E2,2.714516E2,4.6744806E2,1.6367972E2,0E0,3.0438657E2,1.6814478E2,2.7463477E2,2.8704895E1,7.475885E2,6.259081E2,0E0,3.6983337E2,1.1856769E2,0E0,0E0,2.1721365E2,2.3220868E2,2.7687033E2,6.773439E2,2.567313E2,6.404674E1,1.5427438E2,3.8333072E2,1.4411545E2,2.3209595E2,9.725013E1,4.198631E2,3.471336E2,0E0,0E0,7.4586993E2,5.705664E2,5.43474E2,3.4119965E1,2.0522838E2,3.0122192E2,4.855301E0,2.2630103E2,1.5188194E2,3.057464E2,0E0,0E0,0E0,0E0,0E0,0E0,0E0,0E0,0E0,0E0,0E0,0E0,0E0,0E0,0E0,0E0,0E0,0E0,0E0,0E0,0E0,0E0,0E0,0E0,0E0,0E0,0E0,0E0,0E0,0E0,0E0,0E0,0E0,0E0,0E0,0E0,0E0,0E0,0E0,0E0,0E0,0E0,0E0,0E0],"parents":[2147483647,0,0,1,1,2,2,3,3,4,4,5,5,6,6,7,7,8,8,9,9,10,10,11,11,12,12,13,13,14,14,15,15,16,16,17,17,19,19,20,20,21,21,22,22,23,23,24,24,26,26,27,27,30,30,31,31,32,32,33,33,34,34,35,35,36,36,37,37,38,38,39,39,40,40,41,41,42,42,45,45,46,46,47,47,48,48,49,49,50,50,51,51,52,52,53,53,54,54],"right_children":[2,4,6,8,10,12,14,16,18,20,22,24,26,28,30,32,34,36,-1,38,40,42,44,46,48,-1,50,52,-1,-1,54,56,58,60,62,64,66,68,70,72,74,76,78,-1,-1,80,82,84,86,88,90,92,94,96,98,-1,-1,-1,-1,-1,-1,-1,-1,-1,-1,-1,-1,-1,-1,-1,-1,-1,-1,-1,-1,-1,-1,-1,-1,-1,-1,-1,-1,-1,-1,-1,-1,-1,-1,-1,-1,-1,-1,-1,-1,-1,-1,-1,-1],"split_conditions":[4.2E1,1.52947035E1,8.2E1,1.5977916E1,1.8E1,1.804458E1,6.5E1,3.8E1,3.8E1,8.790416E0,7.9E1,1.4329999E1,3.1375885E1,6.3E1,9.605998E0,1.6E1,4.9E1,1.9E1,-2.3668342E0,1.5000001E0,4.5E1,1.9E0,2.1E1,1.9E1,1.3900002E1,5.856233E0,3.6E1,5.5716667E0,5.6245303E0,5.210645E0,7.0699135E1,1.3896187E1,2E1,8E-1,-1.4179167E0,1.70675E1,1.6717499E1,2.3E1,3.0928587E1,9.952916E0,9.398749E0,1.8E1,1.363609E2,-3.7858203E-1,-2.587037E0,4.5E1,1.602466E2,2.4022452E2,5.5E1,1.4508885E2,2.2918912E2,5.1E1,1.0463332E1,1E-1,1.571334E2,5.775671E-1,2.868488E0,-4.8260605E-1,3.5271636E-1,3.070961E0,-1.0536486E0,2.7921965E0,-9.7292167E-1,-3.981105E-1,-1.8115321E0,-7.747175E-1,4.2724422E-1,9.737789E-1,-4.9830619E-1,-3.433324E-1,-1.4001228E0,-1.5805029E0,-6.5513325E-1,1.5252737E0,-1.7160624E-1,5.195203E-1,-1.498842E-1,2.9982433E-1,-4.881843E-1,1.2315786E0,-1.6394945E0,1.1303434E0,3.5891673E-1,-2.8429714E-1,-2.1084344E0,2.5807986E0,8.389029E-1,1.4250698E0,-1.0915654E0,1.446179E0,3.4699407E0,9.2929804E-1,2.1384431E-1,3.8266058E0,6.9636065E-1,-1.0284127E0,9.4795614E-1,2.6298857E0,2.4239857E-1],"split_indices":[0,5,0,3,0,3,1,0,0,3,1,3,6,1,5,1,1,1,0,4,2,4,0,2,4,0,1,3,0,0,6,5,2,4,3,3,3,2,5,3,3,1,6,0,0,0,6,6,0,6,6,1,3,4,6,0,0,0,0,0,0,0,0,0,0,0,0,0,0,0,0,0,0,0,0,0,0,0,0,0,0,0,0,0,0,0,0,0,0,0,0,0,0,0,0,0,0,0,0],"split_type":[0,0,0,0,0,0,0,0,0,0,0,0,0,0,0,0,0,0,0,0,0,0,0,0,0,0,0,0,0,0,0,0,0,0,0,0,0,0,0,0,0,0,0,0,0,0,0,0,0,0,0,0,0,0,0,0,0,0,0,0,0,0,0,0,0,0,0,0,0,0,0,0,0,0,0,0,0,0,0,0,0,0,0,0,0,0,0,0,0,0,0,0,0,0,0,0,0,0,0],"sum_hessian":[2.206E3,1.627E3,5.79E2,2.94E2,1.333E3,5.31E2,4.8E1,2.27E2,6.7E1,3.39E2,9.94E2,4.81E2,5E1,1.6E1,3.2E1,1.98E2,2.9E1,6E1,7E0,1.1E2,2.29E2,9.88E2,6E0,3.98E2,8.3E1,1E0,4.9E1,1.3E1,3E0,1E0,3.1E1,1.9E1,1.79E2,2E1,9E0,1.2E1,4.8E1,6.2E1,4.8E1,2.14E2,1.5E1,6.1E2,3.78E2,1E0,5E0,3.6E1,3.62E2,7.6E1,7E0,1E1,3.9E1,4E0,9E0,1.2E1,1.9E1,1.4E1,5E0,4.8E1,1.31E2,1.6E1,4E0,1E0,8E0,7E0,5E0,1.2E1,3.6E1,2.9E1,3.3E1,2.8E1,2E1,2.8E1,1.86E2,3E0,1.2E1,1E2,5.1E2,5.9E1,3.19E2,1.1E1,2.5E1,1.43E2,2.19E2,5.7E1,1.9E1,4E0,3E0,4E0,6E0,3E1,9E0,1E0,3E0,5E0,4E0,6E0,6E0,1E1,9E0],"tree_param":{"num_deleted":"0","num_feature":"7","num_nodes":"99","size_leaf_vector":"1"}},{"base_weights":[6.6561654E-2,-2.8318056E-1,2.3343253E0,9.228014E-1,-5.12501E-1,-5.6484804E0,2.634243E0,1.0550646E1,7.603444E-1,-1.3048306E-1,-1.1037863E0,5.205221E-1,-8.026922E0,9.5923537E-1,3.5344675E0,4.017208E0,-1.21431544E-1,8.491958E-1,-3.89759E0,-1.3598392E0,2.0134127E-1,-1.1959629E0,7.283949E0,-3.140348E-1,4.5362893E-1,-8.925002E0,-2.6105404E-1,-3.9449804E0,1.9287934E0,4.5052257E0,-9.716163E-2,2.7025633E0,3.861741E-1,-1.7091085E0,5.050629E0,1.416055E0,-4.8650146E-1,-1.8500769E0,-3.0037388E-1,1.0320494E0,2.7920237E0,8.568764E-3,-1.4988442E-1,-7.657683E-1,-2.8684945E0,-1.097211E1,5.3320537E0,3.4689822E0,-6.032915E-1,7.5207953E0,3.0428557E0,-8.10949E0,2.1593423E0,1.1100787E0,-2.068031E0,-1.5450612E0,2.0163192E-1,-2.0632851E-1,-9.91545E-1,6.1994E-1,5.233838E0,7.795444E-1,-2.280175E-1,-6.911803E-2,-1.09099E0,-5.0897396E-1,-1.5832914E0,-7.893655E-3,-1.1542101E0,-3.565255E0,-4.145176E-1,2.0024464E0,-6.100977E-1,1.4114456E0,-9.2869276E-1,9.614906E-1,-1.3128192E0,2.0326874E-1,3.0352194E0,1.502903E0,1.5829115E-1,-2.9239633E0,-4.7596094E-1,1.2422444E0,-7.8419334E-1],"categories":[],"categories_nodes":[],"categories_segments":[],"categories_sizes":[],"default_left":[0,0,0,0,0,0,0,0,0,0,0,0,0,0,0,0,0,0,0,0,0,0,0,0,0,0,0,0,0,0,0,0,0,0,0,0,0,0,0,0,0,0,0,0,0,0,0,0,0,0,0,0,0,0,0,0,0,0,0,0,0,0,0,0,0,0,0,0,0,0,0,0,0,0,0,0,0,0,0,0,0,0,0,0,0],"id":8,"left_children":[1,3,5,7,9,11,13,15,17,19,21,23,25,27,29,-1,-1,31,-1,33,35,37,39,41,-1,43,-1,45,47,49,51,53,55,57,59,61,63,65,67,-1,-1,-1,-1,-1,-1,69,71,73,75,77,79,81,83,-1,-1,-1,-1,-1,-1,-1,-1,-1,-1,-1,-1,-1,-1,-1,-1,-1,-1,-1,-1,-1,-1,-1,-1,-1,-1,-1,-1,-1,-1,-1,-1],"loss_changes":[1.7511049E3,5.295252E2,7.211638E2,4.7059586E2,3.6307364E2,1.6557693E2,4.2635632E2,1.6098969E2,3.8005023E2,3.992296E2,4.9657062E2,3.7849517E0,4.3652283E1,4.8785617E2,6.5264307E2,0E0,0E0,2.5725934E2,0E0,4.7433975E2,6.448841E2,3.6558008E2,2.2409637E1,2.0500782E-1,0E0,3.9921875E0,0E0,1.1667495E3,3.3358334E2,6.209575E2,7.4070526E2,5.999426E2,3.8655457E2,3.2048895E2,3.7084012E2,7.198681E2,3.9690173E2,1.8097559E2,2.5750394E2,0E0,0E0,0E0,0E0,0E0,0E0,7.105066E1,9.269783E1,4.445429E2,4.8815912E2,8.282949E2,4.920551E2,8.064252E1,3.134864E2,0E0,0E0,0E0,0E0,0E0,0E0,0E0,0E0,0E0,0E0,0E0,0E0,0E0,0E0,0E0,0E0,0E0,0E0,0E0,0E0,0E0,0E0,0E0,0E0,0E0,0E0,0E0,0E0,0E0,0E0,0E0,0E0],"parents":[2147483647,0,0,1,1,2,2,3,3,4,4,5,5,6,6,7,7,8,8,9,9,10,10,11,11,12,12,13,13,14,14,17,17,19,19,20,20,21,21,22,22,23,23,25,25,27,27,28,28,29,29,30,30,31,31,32,32,33,33,34,34,35,35,36,36,37,37,38,38,45,45,46,46,47,47,48,48,49,49,50,50,51,51,52,52],"right_children":[2,4,6,8,10,12,14,16,18,20,22,24,26,28,30,-1,-1,32,-1,34,36,38,40,42,-1,44,-1,46,48,50,52,54,56,58,60,62,64,66,68,-1,-1,-1,-1,-1,-1,70,72,74,76,78,80,82,84,-1,-1,-1,-1,-1,-1,-1,-1,-1,-1,-1,-1,-1,-1,-1,-1,-1,-1,-1,-1,-1,-1,-1,-1,-1,-1,-1,-1,-1,-1,-1,-1],"split_conditions":[5.4E1,1.4264361E1,1.53652935E1,-1.4179167E0,2.3540938E2,1.9300003E0,4E1,5.1E1,5.3E1,6.905465E1,1.9207083E1,4.9E1,7.2E1,6.53362E1,2.2288042E1,4.017208E0,-1.21431544E-1,8.232682E1,-3.89759E0,1.7652916E1,9.229999E0,2.8496573E2,3.4E1,5.6E1,4.5362893E-1,5.6E1,-2.6105404E-1,1.4540416E1,3.2E1,5.7E1,2.3966375E1,1.5E0,1.03389336E2,3.7E1,2.194524E1,2.9495842E1,5.2E1,4.7E1,3.0928587E1,1.0320494E0,2.7920237E0,8.568764E-3,-1.4988442E-1,-7.657683E-1,-2.8684945E0,8.2E1,8.7E1,2.5959969E1,9.482082E0,1.1480557E1,1.4508885E2,8.2E1,1.5999999E0,1.1100787E0,-2.068031E0,-1.5450612E0,2.0163192E-1,-2.0632851E-1,-9.91545E-1,6.1994E-1,5.233838E0,7.795444E-1,-2.280175E-1,-6.911803E-2,-1.09099E0,-5.0897396E-1,-1.5832914E0,-7.893655E-3,-1.1542101E0,-3.565255E0,-4.145176E-1,2.0024464E0,-6.100977E-1,1.4114456E0,-9.2869276E-1,9.614906E-1,-1.3128192E0,2.0326874E-1,3.0352194E0,1.502903E0,1.5829115E-1,-2.9239633E0,-4.7596094E-1,1.2422444E0,-7.8419334E-1],"split_indices":[0,5,6,3,6,3,2,0,0,6,3,1,0,6,5,0,0,6,0,3,3,6,2,0,0,0,0,3,2,1,5,4,6,2,5,5,1,0,5,0,0,0,0,0,0,0,0,5,3,5,6,0,4,0,0,0,0,0,0,0,0,0,0,0,0,0,0,0,0,0,0,0,0,0,0,0,0,0,0,0,0,0,0,0,0],"split_type":[0,0,0,0,0,0,0,0,0,0,0,0,0,0,0,0,0,0,0,0,0,0,0,0,0,0,0,0,0,0,0,0,0,0,0,0,0,0,0,0,0,0,0,0,0,0,0,0,0,0,0,0,0,0,0,0,0,0,0,0,0,0,0,0,0,0,0,0,0,0,0,0,0,0,0,0,0,0,0,0,0,0,0,0,0],"sum_hessian":[2.206E3,1.912E3,2.94E2,3.05E2,1.607E3,1E1,2.84E2,4E0,3.01E2,9.77E2,6.3E2,3E0,7E0,1E2,1.84E2,3E0,1E0,3E2,1E0,2.07E2,7.7E2,6.24E2,6E0,2E0,1E0,6E0,1E0,1.6E1,8.4E1,1.45E2,3.9E1,5.9E1,2.41E2,1.97E2,1E1,2.78E2,4.92E2,3.6E2,2.64E2,3E0,3E0,1E0,1E0,1E0,5E0,9E0,7E0,5.2E1,3.2E1,4.6E1,9.9E1,8E0,3.1E1,5.4E1,5E0,1.1E1,2.3E2,1.21E2,7.6E1,9E0,1E0,1.8E2,9.8E1,4.56E2,3.6E1,3.46E2,1.4E1,2.46E2,1.8E1,8E0,1E0,6E0,1E0,4.4E1,8E0,1.6E1,1.6E1,1.3E1,3.3E1,5.5E1,4.4E1,6E0,2E0,2.2E1,9E0],"tree_param":{"num_deleted":"0","num_feature":"7","num_nodes":"85","size_leaf_vector":"1"}},{"base_weights":[4.5792513E-2,-5.6167996E-1,8.2248247E-1,-1.6255183E0,-4.001504E-1,6.56633E-1,3.9229908E0,-2.8720574E0,-9.096009E-1,5.755402E-1,-6.005161E-1,5.0293034E-1,3.2155688E0,4.7280054E0,-2.6342838E0,-3.7617464E0,-1.3159466E0,-1.0939785E0,4.019427E0,-2.0258825E0,1.0753281E0,-6.951975E-1,1.5506024E0,1.2080643E0,-1.9851373E-1,1.27426195E1,2.1561766E0,7.2837553E0,2.2947245E0,-5.06862E0,1.43061E0,-1.7805017E0,-2.8512344E0,-2.7954786E0,8.8699293E-1,2.1629962E-1,-2.052593E0,2.0273032E0,8.541177E-1,1.0069977E0,-2.983068E0,-1.7874475E0,1.7205657E0,-4.591534E-1,-2.2142022E0,7.887551E-1,2.3487346E0,8.5448843E-1,4.978744E0,-4.8346615E0,1.0653372E-1,4.638475E0,2.800152E-1,-2.2043093E-1,5.2223115E0,1.0370543E1,9.7140837E-1,3.3376727E0,-2.336013E0,-3.681801E-1,-2.1661303E0,7.448565E-1,-1.007113E0,1.3970825E-2,-1.4798508E0,5.42527E-1,-5.5974585E-1,-9.9938124E-1,4.499312E-1,2.7821854E-1,-9.268726E-1,4.2835237E-3,3.8006946E-1,9.847362E-2,-1.2660905E0,1.6035175E-1,-1.2940302E0,1.6800481E0,3.6870947E-1,-2.8689766E-1,3.329415E-2,-6.690415E-2,-8.64917E-1,2.237845E0,4.7527105E-2,-4.830811E-1,4.1017732E-1,4.5014417E-1,3.3854196E0,-3.0004818E0,-3.6208588E-1,4.0326107E-1,-2.9540536E-1,1.5932863E0,-5.911193E-1,1.7037226E0,-5.8694345E-1,3.885117E0,2.0499803E-1,2.3459072E0,-3.3720493E-1,-8.675366E-2,1.1984148E0,-1.0902729E0,-7.773361E-2],"categories":[],"categories_nodes":[],"categories_segments":[],"categories_sizes":[],"default_left":[0,0,0,0,0,0,0,0,0,0,0,0,0,0,0,0,0,0,0,0,0,0,0,0,0,0,0,0,0,0,0,0,0,0,0,0,0,0,0,0,0,0,0,0,0,0,0,0,0,0,0,0,0,0,0,0,0,0,0,0,0,0,0,0,0,0,0,0,0,0,0,0,0,0,0,0,0,0,0,0,0,0,0,0,0,0,0,0,0,0,0,0,0,0,0,0,0,0,0,0,0,0,0,0,0],"id":9,"left_children":[1,3,5,7,9,11,13,15,17,19,21,23,25,27,29,31,33,35,37,39,41,43,45,47,49,51,53,55,57,59,-1,-1,61,63,65,67,69,-1,71,-1,73,75,77,79,81,83,-1,85,87,89,91,-1,-1,93,95,97,99,101,103,-1,-1,-1,-1,-1,-1,-1,-1,-1,-1,-1,-1,-1,-1,-1,-1,-1,-1,-1,-1,-1,-1,-1,-1,-1,-1,-1,-1,-1,-1,-1,-1,-1,-1,-1,-1,-1,-1,-1,-1,-1,-1,-1,-1,-1,-1],"loss_changes":[1.0417639E3,2.1226099E2,4.95701E2,1.428519E2,2.1089363E2,3.6062607E2,2.7111133E2,7.6732544E1,9.982138E1,2.4140788E2,1.8315982E2,4.3055237E2,4.9735455E2,2.569156E2,1.3229884E2,5.6292725E1,7.744392E1,1.2856125E2,2.8897781E1,1.6457585E2,2.8938684E2,3.0626248E2,1.7558891E2,5.743639E2,6.1854016E2,1.461128E2,3.509272E2,3.9910828E2,1.23707726E2,3.246797E1,0E0,0E0,8.38799E1,8.527232E1,2.873944E1,2.0533711E2,1.8518672E2,0E0,1.0219183E0,0E0,1.0790387E2,1.72397E2,2.3530023E2,2.1071297E2,1.5251569E2,1.4598517E2,0E0,5.0521494E2,7.946214E2,4.9402106E2,5.5640704E2,0E0,0E0,2.8149738E2,7.9970215E1,3.410321E2,1.2358995E2,4.8815155E1,1.2539797E1,0E0,0E0,0E0,0E0,0E0,0E0,0E0,0E0,0E0,0E0,0E0,0E0,0E0,0E0,0E0,0E0,0E0,0E0,0E0,0E0,0E0,0E0,0E0,0E0,0E0,0E0,0E0,0E0,0E0,0E0,0E0,0E0,0E0,0E0,0E0,0E0,0E0,0E0,0E0,0E0,0E0,0E0,0E0,0E0,0E0,0E0],"parents":[2147483647,0,0,1,1,2,2,3,3,4,4,5,5,6,6,7,7,8,8,9,9,10,10,11,11,12,12,13,13,14,14,15,15,16,16,17,17,18,18,19,19,20,20,21,21,22,22,23,23,24,24,25,25,26,26,27,27,28,28,29,29,32,32,33,33,34,34,35,35,36,36,38,38,40,40,41,41,42,42,43,43,44,44,45,45,47,47,48,48,49,49,50,50,53,53,54,54,55,55,56,56,57,57,58,58],"right_children":[2,4,6,8,10,12,14,16,18,20,22,24,26,28,30,32,34,36,38,40,42,44,46,48,50,52,54,56,58,60,-1,-1,62,64,66,68,70,-1,72,-1,74,76,78,80,82,84,-1,86,88,90,92,-1,-1,94,96,98,100,102,104,-1,-1,-1,-1,-1,-1,-1,-1,-1,-1,-1,-1,-1,-1,-1,-1,-1,-1,-1,-1,-1,-1,-1,-1,-1,-1,-1,-1,-1,-1,-1,-1,-1,-1,-1,-1,-1,-1,-1,-1,-1,-1,-1,-1,-1,-1],"split_conditions":[3.1E1,1.5E1,8.2E1,1.6E1,5.709166E0,1.9421667E1,1.19E2,9.000001E-1,1.9207083E1,1.9E1,6.1E1,9.175834E0,1.9727917E1,8.733879E1,1.43E2,2.2579459E2,1.0169582E1,9.3425E0,1.9E1,7.846938E1,6.0706722E1,3.4E1,3.219148E2,8.559167E0,9.592499E0,4.3E1,4.3E1,1.8581022E1,8.7E1,1.4759999E1,1.43061E0,-1.7805017E0,1E1,2.6999998E0,2.8876396E1,5.2675004E0,3E-1,2.0273032E0,2E1,1.0069977E0,3.2612507E0,3.297889E1,1.6E1,2.1E1,2.1E1,1.1480557E1,2.3487346E0,5.75466E1,4.2E1,1.992479E1,3.4E1,4.638475E0,2.800152E-1,2.7E1,6.1E1,1.2611251E1,8.3E1,1.2163273E2,8.1E1,-3.681801E-1,-2.1661303E0,7.448565E-1,-1.007113E0,1.3970825E-2,-1.4798508E0,5.42527E-1,-5.5974585E-1,-9.9938124E-1,4.499312E-1,2.7821854E-1,-9.268726E-1,4.2835237E-3,3.8006946E-1,9.847362E-2,-1.2660905E0,1.6035175E-1,-1.2940302E0,1.6800481E0,3.6870947E-1,-2.8689766E-1,3.329415E-2,-6.690415E-2,-8.64917E-1,2.237845E0,4.7527105E-2,-4.830811E-1,4.1017732E-1,4.5014417E-1,3.3854196E0,-3.0004818E0,-3.6208588E-1,4.0326107E-1,-2.9540536E-1,1.5932863E0,-5.911193E-1,1.7037226E0,-5.8694345E-1,3.885117E0,2.0499803E-1,2.3459072E0,-3.3720493E-1,-8.675366E-2,1.1984148E0,-1.0902729E0,-7.773361E-2],"split_indices":[0,2,0,0,3,3,1,4,3,2,2,3,3,6,1,6,3,3,0,6,6,1,6,3,3,0,1,5,1,5,0,0,2,4,5,3,4,0,0,0,3,6,1,0,0,5,0,6,1,5,2,0,0,1,2,3,0,6,2,0,0,0,0,0,0,0,0,0,0,0,0,0,0,0,0,0,0,0,0,0,0,0,0,0,0,0,0,0,0,0,0,0,0,0,0,0,0,0,0,0,0,0,0,0,0],"split_type":[0,0,0,0,0,0,0,0,0,0,0,0,0,0,0,0,0,0,0,0,0,0,0,0,0,0,0,0,0,0,0,0,0,0,0,0,0,0,0,0,0,0,0,0,0,0,0,0,0,0,0,0,0,0,0,0,0,0,0,0,0,0,0,0,0,0,0,0,0,0,0,0,0,0,0,0,0,0,0,0,0,0,0,0,0,0,0,0,0,0,0,0,0,0,0,0,0,0,0,0,0,0,0,0,0],"sum_hessian":[2.206E3,1.238E3,9.68E2,1.62E2,1.076E3,9.2E2,4.8E1,5.8E1,1.04E2,1.83E2,8.93E2,8.69E2,5.1E1,4.3E1,5E0,3.6E1,2.2E1,1.01E2,3E0,2.9E1,1.54E2,8.56E2,3.7E1,4.33E2,4.36E2,4E0,4.7E1,2E1,2.3E1,4E0,1E0,9E0,2.7E1,1.3E1,9E0,4.3E1,5.8E1,1E0,2E0,4E0,2.5E1,2.8E1,1.26E2,7.42E2,1.14E2,3.4E1,3E0,3.97E2,3.6E1,2.6E1,4.1E2,3E0,1E0,2.7E1,2E1,1.3E1,7E0,1.9E1,4E0,2E0,2E0,2E0,2.5E1,6E0,7E0,7E0,2E0,1.1E1,3.2E1,1.5E1,4.3E1,1E0,1E0,7E0,1.8E1,1.5E1,1.3E1,1.3E1,1.13E2,3.96E2,3.46E2,2.9E1,8.5E1,2E0,3.2E1,6.8E1,3.29E2,2.4E1,1.2E1,1E1,1.6E1,1.92E2,2.18E2,6E0,2.1E1,1.9E1,1E0,1E1,3E0,1E0,6E0,3E0,1.6E1,2E0,2E0],"tree_param":{"num_deleted":"0","num_feature":"7","num_nodes":"105","size_leaf_vector":"1"}},{"base_weights":[3.8567945E-2,-2.7379397E-1,9.152691E-1,-1.2464612E-1,-1.2277737E0,-5.348949E0,1.0122318E0,5.344044E-1,-4.6145475E-1,5.4855925E-1,-1.5899206E0,-2.3383288E0,-3.4349108E-1,1.5013748E0,-3.251912E-1,-4.0869024E-1,1.4366574E0,3.7903748E0,-5.3977495E-1,-1.2127563E0,4.0289936E0,-1.6857388E0,2.3773477E0,-4.592823E-1,5.6263924E-1,1.2924674E0,6.365395E0,2.6248503E0,-1.1204878E0,-1.3604411E0,6.4018506E-1,5.215406E0,9.424564E-1,-1.7298874E0,5.4490166E0,-4.4265154E-1,-2.974638E0,2.3913422E0,-3.2614756E0,-1.1577648E0,5.0079455E0,-4.414147E0,-1.4320967E0,1.7554952E-2,2.3563272E-1,-5.3561387E0,1.3894502E0,1.1282634E1,2.6575708E0,-2.9277382E0,4.1885524E0,3.2369527E-1,-3.5135663E0,3.2223004E-1,-8.189953E-1,2.5245295E0,3.621239E-2,2.7270217E0,3.7540737E-1,4.8441207E-1,-1.4770107E-1,4.7942996E-1,2.3516183E0,-1.5673265E-1,8.1114334E-1,-6.194074E-1,-2.1085796E0,-3.7240118E-1,1.8816867E0,-1.2224649E0,1.4629561E0,1.6750844E0,-1.9866143E-1,-1.551835E0,1.0339794E-1,-7.002131E-1,-2.476804E-1,7.974587E-2,-1.9601084E0,8.9087775E-3,5.6298983E-1,4.2276573E0,-8.3620554E-1,1.2815627E0,-9.213601E-1,3.1313057E0,5.49849E-1,-7.375638E-1,5.6258297E-1,-3.057409E0,-7.351892E-1],"categories":[],"categories_nodes":[],"categories_segments":[],"categories_sizes":[],"default_left":[0,0,0,0,0,0,0,0,0,0,0,0,0,0,0,0,0,0,0,0,0,0,0,0,0,0,0,0,0,0,0,0,0,0,0,0,0,0,0,0,0,0,0,0,0,0,0,0,0,0,0,0,0,0,0,0,0,0,0,0,0,0,0,0,0,0,0,0,0,0,0,0,0,0,0,0,0,0,0,0,0,0,0,0,0,0,0,0,0,0,0],"id":10,"left_children":[1,3,5,7,9,11,13,15,17,19,21,-1,23,25,27,29,31,33,35,37,39,41,-1,-1,43,45,47,49,51,53,55,57,59,-1,61,63,65,67,69,-1,71,73,75,-1,-1,77,79,81,83,-1,85,87,89,-1,-1,-1,-1,-1,-1,-1,-1,-1,-1,-1,-1,-1,-1,-1,-1,-1,-1,-1,-1,-1,-1,-1,-1,-1,-1,-1,-1,-1,-1,-1,-1,-1,-1,-1,-1,-1,-1],"loss_changes":[6.0463324E2,2.314854E2,3.5770395E2,3.130078E2,1.423967E2,1.0748944E2,3.746855E2,4.0647122E2,3.127389E2,2.3783162E2,1.801912E2,0E0,5.165305E0,4.1753162E2,3.6424945E2,2.3446565E2,4.5074527E2,3.0088904E2,2.1553748E2,1.9977774E2,1.1971504E2,1.1962964E2,0E0,0E0,2.90999E-1,2.6729675E2,2.79964E2,6.799167E2,4.2277457E2,4.1303998E2,4.5133984E2,4.186872E2,2.1010027E2,0E0,1.2551163E2,2.23097E2,1.1459921E2,1.4876837E2,1.324028E2,0E0,4.2867035E1,5.5935913E1,8.997348E1,0E0,0E0,4.1457825E1,2.6359888E2,3.1599286E2,1.14847595E2,0E0,4.225063E2,3.3700967E2,3.0153583E2,0E0,0E0,0E0,0E0,0E0,0E0,0E0,0E0,0E0,0E0,0E0,0E0,0E0,0E0,0E0,0E0,0E0,0E0,0E0,0E0,0E0,0E0,0E0,0E0,0E0,0E0,0E0,0E0,0E0,0E0,0E0,0E0,0E0,0E0,0E0,0E0,0E0,0E0],"parents":[2147483647,0,0,1,1,2,2,3,3,4,4,5,5,6,6,7,7,8,8,9,9,10,10,12,12,13,13,14,14,15,15,16,16,17,17,18,18,19,19,20,20,21,21,24,24,25,25,26,26,27,27,28,28,29,29,30,30,31,31,32,32,34,34,35,35,36,36,37,37,38,38,40,40,41,41,42,42,45,45,46,46,47,47,48,48,50,50,51,51,52,52],"right_children":[2,4,6,8,10,12,14,16,18,20,22,-1,24,26,28,30,32,34,36,38,40,42,-1,-1,44,46,48,50,52,54,56,58,60,-1,62,64,66,68,70,-1,72,74,76,-1,-1,78,80,82,84,-1,86,88,90,-1,-1,-1,-1,-1,-1,-1,-1,-1,-1,-1,-1,-1,-1,-1,-1,-1,-1,-1,-1,-1,-1,-1,-1,-1,-1,-1,-1,-1,-1,-1,-1,-1,-1,-1,-1,-1,-1],"split_conditions":[4.2E1,5.699999E0,1.4E1,2.0484238E2,1.363609E2,2.4E1,2.3185787E1,1.0570477E2,9.605998E0,7.846938E1,7.2E1,-2.3383288E0,-1.8595835E0,2.2288042E1,3.2E1,1.8455048E1,5.5716667E0,2.2478337E2,5.3E1,9.4E0,1.5E1,5.3487496E0,2.3773477E0,-4.592823E-1,4.7E1,7.993484E0,4.7E1,4.4695835E0,1.0484165E1,1.3584932E1,1.8947083E1,1E-1,1.9000002E0,-1.7298874E0,8.587338E0,5.2E0,3.2682766E1,7.0925E0,3.492E1,-1.1577648E0,5.1E1,3.247591E1,2E1,1.7554952E-2,2.3563272E-1,-1.4179167E0,4.8091674E0,1.5055E1,6.2E1,-2.9277382E0,2.4031178E1,4.5E1,2.3675303E1,3.2223004E-1,-8.189953E-1,2.5245295E0,3.621239E-2,2.7270217E0,3.7540737E-1,4.8441207E-1,-1.4770107E-1,4.7942996E-1,2.3516183E0,-1.5673265E-1,8.1114334E-1,-6.194074E-1,-2.1085796E0,-3.7240118E-1,1.8816867E0,-1.2224649E0,1.4629561E0,1.6750844E0,-1.9866143E-1,-1.551835E0,1.0339794E-1,-7.002131E-1,-2.476804E-1,7.974587E-2,-1.9601084E0,8.9087775E-3,5.6298983E-1,4.2276573E0,-8.3620554E-1,1.2815627E0,-9.213601E-1,3.1313057E0,5.49849E-1,-7.375638E-1,5.6258297E-1,-3.057409E0,-7.351892E-1],"split_indices":[0,4,2,6,6,1,5,6,5,6,1,0,3,5,1,5,3,6,1,4,2,3,0,0,0,6,0,3,3,5,5,4,4,0,5,4,5,3,5,0,1,5,2,0,0,3,3,3,1,0,5,1,5,0,0,0,0,0,0,0,0,0,0,0,0,0,0,0,0,0,0,0,0,0,0,0,0,0,0,0,0,0,0,0,0,0,0,0,0,0,0],"split_type":[0,0,0,0,0,0,0,0,0,0,0,0,0,0,0,0,0,0,0,0,0,0,0,0,0,0,0,0,0,0,0,0,0,0,0,0,0,0,0,0,0,0,0,0,0,0,0,0,0,0,0,0,0,0,0,0,0,0,0,0,0,0,0,0,0,0,0,0,0,0,0,0,0,0,0,0,0,0,0,0,0,0,0,0,0,0,0,0,0,0,0],"sum_hessian":[2.206E3,1.627E3,5.79E2,1.408E3,2.19E2,8E0,5.71E2,4.76E2,9.32E2,3.7E1,1.82E2,5E0,3E0,4.18E2,1.53E2,2.33E2,2.43E2,1.6E1,9.16E2,2.5E1,1.2E1,1.81E2,1E0,1E0,2E0,4.02E2,1.6E1,3.2E1,1.21E2,1.22E2,1.11E2,2.7E1,2.16E2,2E0,1.4E1,8.82E2,3.4E1,9E0,1.6E1,1E0,1.1E1,1.4E1,1.67E2,1E0,1E0,5E0,3.97E2,6E0,1E1,3E0,2.9E1,7.6E1,4.5E1,4.4E1,7.8E1,6E0,1.05E2,1.3E1,1.4E1,1.47E2,6.9E1,6E0,8E0,8.61E2,2.1E1,2.9E1,5E0,5E0,4E0,1.5E1,1E0,1E1,1E0,1.2E1,2E0,6.6E1,1.01E2,1E0,4E0,1.05E2,2.92E2,5E0,1E0,8E0,2E0,7E0,2.2E1,2.7E1,4.9E1,5E0,4E1],"tree_param":{"num_deleted":"0","num_feature":"7","num_nodes":"91","size_leaf_vector":"1"}},{"base_weights":[2.8477017E-2,-9.3042396E-2,1.5630465E0,-6.650425E-2,-4.2380853E0,1.8829775E0,-4.085001E0,4.889151E-1,-2.5464535E-1,-2.1072297E0,-1.6188142E0,8.874311E0,1.4896873E0,-8.303574E0,9.505714E-1,3.3566612E-1,7.4799895E0,-1.5934448E-1,-1.9457392E0,-2.6704845E0,8.614317E-1,4.124734E0,3.1996078E0,1.8142803E0,-3.6889906E0,-2.9524636E0,-3.2275316E-1,-1.2841492E0,8.605305E-1,1.0838164E0,-3.3528364E-1,9.997935E0,5.741005E-1,-1.1510277E0,-3.0106239E-2,3.685543E0,-2.4453824E0,-9.3649006E-1,-1.1210574E0,1.220615E0,3.7918895E-1,1.2519429E0,8.943239E0,-5.326055E0,-1.3141282E0,5.591412E-2,-6.3378125E-1,8.335239E-2,1.2374537E0,-3.015515E0,-6.7206316E-2,1.2080979E0,3.832531E0,1.3972561E0,-7.018639E-1,-2.1856107E-1,-8.902218E-1,1.3138518E-1,-1.2566377E-1,-1.368274E0,1.7460314E0,-2.7726895E-1,-1.3060164E0,-7.2364144E-2,-3.2635328E-1,7.806846E-1,-5.4376442E-2,3.3877852E0,-1.8301747E0,-4.7559932E-1,-1.759471E0,-4.6151906E-1,-6.255799E-2],"categories":[],"categories_nodes":[],"categories_segments":[],"categories_sizes":[],"default_left":[0,0,0,0,0,0,0,0,0,0,0,0,0,0,0,0,0,0,0,0,0,0,0,0,0,0,0,0,0,0,0,0,0,0,0,0,0,0,0,0,0,0,0,0,0,0,0,0,0,0,0,0,0,0,0,0,0,0,0,0,0,0,0,0,0,0,0,0,0,0,0,0,0],"id":11,"left_children":[1,3,5,7,9,11,13,15,17,-1,19,21,23,25,27,29,31,33,35,37,-1,-1,39,41,43,-1,-1,45,-1,47,49,51,53,55,57,59,61,63,-1,-1,-1,65,67,69,71,-1,-1,-1,-1,-1,-1,-1,-1,-1,-1,-1,-1,-1,-1,-1,-1,-1,-1,-1,-1,-1,-1,-1,-1,-1,-1,-1,-1],"loss_changes":[4.117068E2,2.2478178E2,3.004236E2,2.126718E2,8.349451E1,4.10222E2,1.990795E2,5.492474E2,2.4465727E2,0E0,4.544626E1,1.7731268E2,2.5379431E2,4.499225E1,2.5112942E1,2.5385883E2,1.8553534E2,1.845206E2,2.3691675E2,9.444065E0,0E0,0E0,3.2687225E0,5.4603784E2,2.7991104E1,0E0,0E0,4.04855E0,0E0,5.846415E2,2.8639536E2,8.1213196E1,5.8487053E1,1.2522702E2,2.3219244E2,1.4976297E2,2.1365402E2,1.585288E-1,0E0,0E0,0E0,2.5206099E2,4.2232776E2,7.805939E-1,9.189625E-1,0E0,0E0,0E0,0E0,0E0,0E0,0E0,0E0,0E0,0E0,0E0,0E0,0E0,0E0,0E0,0E0,0E0,0E0,0E0,0E0,0E0,0E0,0E0,0E0,0E0,0E0,0E0,0E0],"parents":[2147483647,0,0,1,1,2,2,3,3,4,4,5,5,6,6,7,7,8,8,10,10,11,11,12,12,13,13,14,14,15,15,16,16,17,17,18,18,19,19,22,22,23,23,24,24,27,27,29,29,30,30,31,31,32,32,33,33,34,34,35,35,36,36,37,37,41,41,42,42,43,43,44,44],"right_children":[2,4,6,8,10,12,14,16,18,-1,20,22,24,26,28,30,32,34,36,38,-1,-1,40,42,44,-1,-1,46,-1,48,50,52,54,56,58,60,62,64,-1,-1,-1,66,68,70,72,-1,-1,-1,-1,-1,-1,-1,-1,-1,-1,-1,-1,-1,-1,-1,-1,-1,-1,-1,-1,-1,-1,-1,-1,-1,-1,-1,-1],"split_conditions":[6.3E1,8E1,1.25E1,1.5990646E1,2.2218153E1,6.4E1,1.3900002E1,6.5E1,5.9E1,-2.1072297E0,9.4E1,5.2E1,1.06E2,7E1,4.7E1,1.9537721E2,6.1E1,1.5E1,1.6563911E1,7.7E1,8.614317E-1,4.124734E0,9.085988E0,8.6E1,1.0788334E1,-2.9524636E0,-3.2275316E-1,6.4E1,8.605305E-1,1.4934577E1,1.9829291E2,1E-1,6.6E1,2.3E1,7E-1,7.865416E0,9.482082E0,2.1E1,-1.1210574E0,1.220615E0,3.7918895E-1,8.0425005E0,1.19E2,9E1,1.37E2,5.591412E-2,-6.3378125E-1,8.335239E-2,1.2374537E0,-3.015515E0,-6.7206316E-2,1.2080979E0,3.832531E0,1.3972561E0,-7.018639E-1,-2.1856107E-1,-8.902218E-1,1.3138518E-1,-1.2566377E-1,-1.368274E0,1.7460314E0,-2.7726895E-1,-1.3060164E0,-7.2364144E-2,-3.2635328E-1,7.806846E-1,-5.4376442E-2,3.3877852E0,-1.8301747E0,-4.7559932E-1,-1.759471E0,-4.6151906E-1,-6.255799E-2],"split_indices":[0,1,4,5,5,0,4,1,1,0,1,1,2,0,1,6,0,2,5,2,0,0,5,2,3,0,0,0,0,5,6,4,1,1,4,3,3,0,0,0,0,3,1,1,2,0,0,0,0,0,0,0,0,0,0,0,0,0,0,0,0,0,0,0,0,0,0,0,0,0,0,0,0],"split_type":[0,0,0,0,0,0,0,0,0,0,0,0,0,0,0,0,0,0,0,0,0,0,0,0,0,0,0,0,0,0,0,0,0,0,0,0,0,0,0,0,0,0,0,0,0,0,0,0,0,0,0,0,0,0,0,0,0,0,0,0,0,0,0,0,0,0,0,0,0,0,0,0,0],"sum_hessian":[2.206E3,2.045E3,1.61E2,2.033E3,1.2E1,1.53E2,8E0,5.14E2,1.519E3,5E0,7E0,7E0,1.46E2,4E0,4E0,5.04E2,1E1,1.439E3,8E1,6E0,1E0,3E0,4E0,1.38E2,8E0,3E0,1E0,2E0,2E0,2.38E2,2.66E2,7E0,3E0,1.65E2,1.274E3,6E0,7.4E1,3E0,3E0,2E0,2E0,1.29E2,9E0,4E0,4E0,1E0,1E0,1.89E2,4.9E1,2E0,2.64E2,3E0,4E0,1E0,2E0,1.35E2,3E1,5.78E2,6.96E2,1E0,5E0,4.2E1,3.2E1,1E0,2E0,6.6E1,6.3E1,8E0,1E0,1E0,3E0,3E0,1E0],"tree_param":{"num_deleted":"0","num_feature":"7","num_nodes":"73","size_leaf_vector":"1"}},{"base_weights":[2.0457862E-2,-2.035951E-1,4.68536E-1,-4.8580093E0,-1.7484283E-1,2.8210083E-1,2.2958388E0,8.208455E-1,-7.4186482E0,6.733371E-1,-3.1113893E-1,4.948084E-1,-2.5434082E0,8.075056E0,1.8084649E0,-3.5133192E-1,-2.4794164E0,1.8404809E0,-3.910208E-1,-2.8573558E0,-2.4044527E-1,4.3927056E-1,8.979474E0,-7.0691814E0,-1.1291673E0,4.653847E0,2.337409E0,-3.1999595E0,2.3817494E0,1.3041942E0,6.3757563E0,-2.0418901E0,1.1489117E0,-1.9483043E0,-2.7564497E0,1.8834287E-2,-6.4784646E-1,2.5088072E0,2.4936691E-1,2.6387215E-1,3.415875E0,-8.40584E0,9.4461024E-1,2.352325E0,-3.3506117E0,1.2524476E0,-4.7622588E-1,-1.7296419E0,1.6554356E-1,8.099203E0,1.8082491E0,-1.380514E-1,7.962947E-1,2.8617146E0,-1.2554822E0,-1.1727351E0,-9.053959E-2,6.792097E-1,-9.385599E-1,-1.0886871E0,1.0550971E-1,1.8438408E0,-6.6446373E-3,-3.7418792E-1,8.02059E-2,7.830823E-2,2.0220337E0,-1.7313596E0,1.2349068E-1,-1.1543944E0,-3.2409246E0,-9.333052E-1,8.8943386E-1,-1.5905869E-1,-1.5377595E0,1.524868E-1,-1.2940407E-1,4.689438E-1,3.5806582E0,-8.042054E-1,8.2968205E-1],"categories":[],"categories_nodes":[],"categories_segments":[],"categories_sizes":[],"default_left":[0,0,0,0,0,0,0,0,0,0,0,0,0,0,0,0,0,0,0,0,0,0,0,0,0,0,0,0,0,0,0,0,0,0,0,0,0,0,0,0,0,0,0,0,0,0,0,0,0,0,0,0,0,0,0,0,0,0,0,0,0,0,0,0,0,0,0,0,0,0,0,0,0,0,0,0,0,0,0,0,0],"id":12,"left_children":[1,3,5,7,9,11,13,-1,15,17,19,21,23,25,27,-1,-1,29,31,33,35,37,39,41,43,-1,45,47,49,51,53,55,57,59,-1,61,63,65,67,-1,-1,69,-1,71,73,-1,-1,-1,75,77,79,-1,-1,-1,-1,-1,-1,-1,-1,-1,-1,-1,-1,-1,-1,-1,-1,-1,-1,-1,-1,-1,-1,-1,-1,-1,-1,-1,-1,-1,-1],"loss_changes":[2.2166327E2,1.9614098E2,2.50088E2,1.9531168E2,1.694532E2,4.033323E2,1.7692807E2,0E0,2.7322235E1,2.5289822E2,2.2647473E2,2.8962573E2,2.9284277E2,1.7711658E2,1.9138164E2,0E0,0E0,2.2760898E2,2.743643E2,1.7776971E2,1.2983246E2,2.4304218E2,6.796353E1,1.7670349E2,2.9403757E2,0E0,3.547337E1,6.1394135E1,1.7553445E2,2.108469E2,3.73986E2,1.6777579E2,2.7419562E2,1.2110699E2,0E0,1.8897511E2,2.6257056E2,4.9281476E2,5.5825964E2,0E0,0E0,6.769281E1,0E0,5.9414185E1,1.1244223E2,0E0,0E0,0E0,1.0375758E0,1.0671512E2,2.3947952E2,0E0,0E0,0E0,0E0,0E0,0E0,0E0,0E0,0E0,0E0,0E0,0E0,0E0,0E0,0E0,0E0,0E0,0E0,0E0,0E0,0E0,0E0,0E0,0E0,0E0,0E0,0E0,0E0,0E0,0E0],"parents":[2147483647,0,0,1,1,2,2,3,3,4,4,5,5,6,6,8,8,9,9,10,10,11,11,12,12,13,13,14,14,17,17,18,18,19,19,20,20,21,21,22,22,23,23,24,24,26,26,27,27,28,28,29,29,30,30,31,31,32,32,33,33,35,35,36,36,37,37,38,38,41,41,43,43,44,44,48,48,49,49,50,50],"right_children":[2,4,6,8,10,12,14,-1,16,18,20,22,24,26,28,-1,-1,30,32,34,36,38,40,42,44,-1,46,48,50,52,54,56,58,60,-1,62,64,66,68,-1,-1,70,-1,72,74,-1,-1,-1,76,78,80,-1,-1,-1,-1,-1,-1,-1,-1,-1,-1,-1,-1,-1,-1,-1,-1,-1,-1,-1,-1,-1,-1,-1,-1,-1,-1,-1,-1,-1,-1],"split_conditions":[3.7E1,-8.783334E-1,1.804458E1,-1.8595835E0,5.1945834E0,1.6307083E1,1.8136251E1,8.208455E-1,1E1,2.000512E1,2.6320002E1,1.5977916E1,3.1E1,3E1,1.8398752E1,-3.5133192E-1,-2.4794164E0,3.5E1,3.74875E0,3.5E1,2.3856494E2,1.0195057E1,4.5E1,5.3E1,4.5E1,4.653847E0,7.7999997E0,4.1E1,2.6E1,2.325983E2,3.251407E2,2.4693481E1,4.2000003E0,2.5E1,-2.7564497E0,8.587338E0,2.9023926E2,5.3E1,1.08792095E1,2.6387215E-1,3.415875E0,4.1E1,9.4461024E-1,2.1E1,5.2E1,1.2524476E0,-4.7622588E-1,-1.7296419E0,4.6E1,1.9E1,3.4E1,-1.380514E-1,7.962947E-1,2.8617146E0,-1.2554822E0,-1.1727351E0,-9.053959E-2,6.792097E-1,-9.385599E-1,-1.0886871E0,1.0550971E-1,1.8438408E0,-6.6446373E-3,-3.7418792E-1,8.02059E-2,7.830823E-2,2.0220337E0,-1.7313596E0,1.2349068E-1,-1.1543944E0,-3.2409246E0,-9.333052E-1,8.8943386E-1,-1.5905869E-1,-1.5377595E0,1.524868E-1,-1.2940407E-1,4.689438E-1,3.5806582E0,-8.042054E-1,8.2968205E-1],"split_indices":[0,3,3,3,3,3,3,0,2,5,6,3,1,1,3,0,0,0,3,0,6,5,0,0,1,0,4,0,1,6,6,5,4,1,0,5,6,1,5,0,0,0,0,2,0,0,0,0,1,1,1,0,0,0,0,0,0,0,0,0,0,0,0,0,0,0,0,0,0,0,0,0,0,0,0,0,0,0,0,0,0],"split_type":[0,0,0,0,0,0,0,0,0,0,0,0,0,0,0,0,0,0,0,0,0,0,0,0,0,0,0,0,0,0,0,0,0,0,0,0,0,0,0,0,0,0,0,0,0,0,0,0,0,0,0,0,0,0,0,0,0,0,0,0,0,0,0,0,0,0,0,0,0,0,0,0,0,0,0,0,0,0,0,0,0],"sum_hessian":[2.206E3,1.471E3,7.35E2,8E0,1.463E3,6.68E2,6.7E1,2E0,6E0,2.02E2,1.261E3,6.22E2,4.6E1,4E0,6.3E1,1E0,5E0,9.6E1,1.06E2,3.3E1,1.228E3,6.19E2,3E0,1E1,3.6E1,1E0,3E0,6E0,5.7E1,8.7E1,9E0,5.1E1,5.5E1,3E1,3E0,7.51E2,4.77E2,5.1E1,5.68E2,1E0,2E0,9E0,1E0,1.4E1,2.2E1,2E0,1E0,3E0,3E0,4E0,5.3E1,3.8E1,4.9E1,7E0,2E0,2.4E1,2.7E1,4.4E1,1.1E1,1.7E1,1.3E1,4E0,7.47E2,2.88E2,1.89E2,3.4E1,1.7E1,1.4E1,5.54E2,4E0,5E0,1E0,1.3E1,9E0,1.3E1,2E0,1E0,2E0,2E0,9E0,4.4E1],"tree_param":{"num_deleted":"0","num_feature":"7","num_nodes":"81","size_leaf_vector":"1"}},{"base_weights":[1.5822908E-2,-2.5161881E-2,1.82134E0,1.0049195E-2,-2.1019166E0,2.786352E0,-1.3863096E0,2.0178676E-1,-3.8958097E-1,4.9820364E-1,-3.9828691E0,-2.166565E0,3.6024475E0,-3.610993E0,1.4402059E0,3.5679143E-2,1.9905549E0,-4.7390148E-1,5.383171E0,5.693868E0,-1.7081736E0,-1.0114618E1,-8.558616E-1,1.7895127E-2,-2.623738E0,6.091907E0,1.6797034E0,-1.2399485E0,-7.1697235E-2,1.3184166E0,-2.9641723E-2,1.7704506E-1,-1.6294912E0,4.5288076E0,4.4834498E-1,-3.826655E-1,-4.009595E0,3.2983513E0,2.6060245E0,-8.9608616E-1,8.610812E0,-3.3034163E0,1.1858494E0,-1.1014205E1,-7.075642E-1,-3.96842E0,3.2682652E0,-2.2942773E-1,-8.6918795E-1,2.2395997E0,3.7734423E0,-8.093285E-1,2.315964E0,-3.9138967E-1,1.845792E-1,-2.1460776E-1,1.046069E-1,-3.7847036E-1,-1.3775942E0,1.7147342E0,-8.702602E-1,5.2697104E-1,-3.2711148E-1,-1.271251E-1,1.9506799E0,-2.4922047E0,-5.1129974E-2,-8.2856375E-1,1.1302266E0,6.799542E-1,2.991022E0,-7.402325E-2,-1.1114504E0,8.379738E-1,-7.865605E-1,-3.60208E0,-9.075846E-1,-2.4450551E-1,-1.4258883E0,1.4326005E0,-8.6612266E-1,2.652015E0,-1.5465575E-1,1.0904155E0,6.395445E-2],"categories":[],"categories_nodes":[],"categories_segments":[],"categories_sizes":[],"default_left":[0,0,0,0,0,0,0,0,0,0,0,0,0,0,0,0,0,0,0,0,0,0,0,0,0,0,0,0,0,0,0,0,0,0,0,0,0,0,0,0,0,0,0,0,0,0,0,0,0,0,0,0,0,0,0,0,0,0,0,0,0,0,0,0,0,0,0,0,0,0,0,0,0,0,0,0,0,0,0,0,0,0,0,0,0],"id":13,"left_children":[1,3,5,7,9,11,13,15,17,19,21,23,25,27,29,31,33,35,37,39,41,43,45,-1,47,49,51,-1,-1,-1,53,55,57,59,61,63,65,-1,67,-1,69,71,73,75,-1,77,79,-1,-1,81,-1,-1,83,-1,-1,-1,-1,-1,-1,-1,-1,-1,-1,-1,-1,-1,-1,-1,-1,-1,-1,-1,-1,-1,-1,-1,-1,-1,-1,-1,-1,-1,-1,-1,-1],"loss_changes":[1.6336105E2,1.5789748E2,1.5553833E2,1.6282823E2,1.7804959E2,1.6140295E2,8.06578E1,4.2660483E2,3.3792963E2,1.9314365E2,3.939978E2,6.2631016E0,1.47725E2,1.1337486E1,2.6186398E1,3.0983728E2,4.7554074E2,2.1782173E2,1.2718298E2,1.5232745E2,5.931738E1,2.2863281E1,2.0551865E2,0E0,3.269348E-1,3.2164746E2,6.1952095E1,0E0,0E0,0E0,4.913936E0,1.8605234E2,1.06473694E2,4.2224652E2,1.5691536E2,1.9057845E2,2.790802E2,0E0,6.0279327E1,0E0,1.1896942E1,8.901886E0,3.7926083E1,1.1260681E1,0E0,1.8391983E1,7.872242E1,0E0,0E0,1.8640746E2,0E0,0E0,4.9140106E1,0E0,0E0,0E0,0E0,0E0,0E0,0E0,0E0,0E0,0E0,0E0,0E0,0E0,0E0,0E0,0E0,0E0,0E0,0E0,0E0,0E0,0E0,0E0,0E0,0E0,0E0,0E0,0E0,0E0,0E0,0E0,0E0],"parents":[2147483647,0,0,1,1,2,2,3,3,4,4,5,5,6,6,7,7,8,8,9,9,10,10,11,11,12,12,13,13,14,14,15,15,16,16,17,17,18,18,19,19,20,20,21,21,22,22,24,24,25,25,26,26,30,30,31,31,32,32,33,33,34,34,35,35,36,36,38,38,40,40,41,41,42,42,43,43,45,45,46,46,49,49,52,52],"right_children":[2,4,6,8,10,12,14,16,18,20,22,24,26,28,30,32,34,36,38,40,42,44,46,-1,48,50,52,-1,-1,-1,54,56,58,60,62,64,66,-1,68,-1,70,72,74,76,-1,78,80,-1,-1,82,-1,-1,84,-1,-1,-1,-1,-1,-1,-1,-1,-1,-1,-1,-1,-1,-1,-1,-1,-1,-1,-1,-1,-1,-1,-1,-1,-1,-1,-1,-1,-1,-1,-1,-1],"split_conditions":[8.2E1,7.7E1,1.12E2,1.8E0,6.538334E0,4.2820835E0,1.37E2,1.2E0,7.3E1,1.5021105E1,1.6946787E1,5.1E1,8.733879E1,1.19E2,4.1320834E0,8.000001E-1,2.0188908E1,6.7E1,3.74875E0,3.8E1,3.53625E0,1.11E2,5.6E1,1.7895127E-2,8.7E1,9.7E1,1.2163273E2,-1.2399485E0,-7.1697235E-2,1.3184166E0,5.3487496E0,6.226335E1,4.8E1,4.8E1,1.5000001E0,7.3E1,9.592499E0,3.2983513E0,1.6263872E1,-8.9608616E-1,6.1E1,1.5072783E1,1.03E2,7.6E1,-7.075642E-1,3.5E1,2.705999E2,-2.2942773E-1,-8.6918795E-1,8.6E1,3.7734423E0,-8.093285E-1,6.3E1,-3.9138967E-1,1.845792E-1,-2.1460776E-1,1.046069E-1,-3.7847036E-1,-1.3775942E0,1.7147342E0,-8.702602E-1,5.2697104E-1,-3.2711148E-1,-1.271251E-1,1.9506799E0,-2.4922047E0,-5.1129974E-2,-8.2856375E-1,1.1302266E0,6.799542E-1,2.991022E0,-7.402325E-2,-1.1114504E0,8.379738E-1,-7.865605E-1,-3.60208E0,-9.075846E-1,-2.4450551E-1,-1.4258883E0,1.4326005E0,-8.6612266E-1,2.652015E0,-1.5465575E-1,1.0904155E0,6.395445E-2],"split_indices":[0,1,0,4,3,3,0,4,2,5,5,1,6,2,3,4,5,0,3,0,3,2,0,0,0,0,6,0,0,0,3,6,2,1,4,1,3,0,5,0,0,5,1,0,0,0,6,0,0,0,0,0,2,0,0,0,0,0,0,0,0,0,0,0,0,0,0,0,0,0,0,0,0,0,0,0,0,0,0,0,0,0,0,0,0],"split_type":[0,0,0,0,0,0,0,0,0,0,0,0,0,0,0,0,0,0,0,0,0,0,0,0,0,0,0,0,0,0,0,0,0,0,0,0,0,0,0,0,0,0,0,0,0,0,0,0,0,0,0,0,0,0,0,0,0,0,0,0,0,0,0,0,0,0,0,0,0,0,0,0,0,0,0,0,0,0,0,0,0,0,0,0,0],"sum_hessian":[2.206E3,2.158E3,4.8E1,2.123E3,3.5E1,3.7E1,1.1E1,1.435E3,6.88E2,1.5E1,2E1,5E0,3.2E1,6E0,5E0,1.314E3,1.21E2,6.79E2,9E0,4E0,1.1E1,6E0,1.4E1,1E0,4E0,1.3E1,1.9E1,5E0,1E0,1E0,4E0,1.212E3,1.02E2,4.5E1,7.6E1,6.63E2,1.6E1,2E0,7E0,1E0,3E0,7E0,4E0,5E0,1E0,8E0,6E0,1E0,3E0,9E0,4E0,2E0,1.7E1,1E0,3E0,1.95E2,1.017E3,9.2E1,1E1,3.9E1,6E0,4.1E1,3.5E1,6.6E2,3E0,7E0,9E0,1E0,6E0,1E0,2E0,1E0,6E0,3E0,1E0,4E0,1E0,2E0,6E0,5E0,1E0,2E0,7E0,1E1,7E0],"tree_param":{"num_deleted":"0","num_feature":"7","num_nodes":"85","size_leaf_vector":"1"}},{"base_weights":[1.2305399E-2,3.1942558E-1,-2.626634E-1,4.7734526E-1,-1.3379029E0,1.701985E0,-3.6154416E-1,8.733174E-1,-8.423897E-2,-2.5460052E0,-1.5274327E-1,6.794533E-1,5.823301E0,-1.6594858E0,-2.2428708E-1,4.7161213E-1,2.2934139E0,-3.0787542E0,2.5246006E-1,-1.4219642E0,-4.69929E0,3.4136057E0,-1.0872365E0,-2.9304502E0,1.7636056E0,3.2550418E0,2.851198E0,-1.1799351E0,-5.3176384E0,3.280902E-1,-5.7218087E-1,7.819608E-1,-2.3902326E0,5.474205E0,8.070109E-1,-1.8178082E-1,-4.466861E0,-5.684849E-1,1.1048002E0,-2.3096E0,1.0044351E0,-5.083702E0,-1.4670715E0,2.346472E0,2.0547678E0,3.7171388E-1,-2.7289433E0,-4.4337597E0,2.556296E0,-4.2119217E-1,3.7405927E0,1.8781222E0,1.9974136E-1,7.1383375E-1,-2.1994221E0,2.6858282E-1,-5.9638376E0,6.002468E-1,-1.6178604E0,-1.9871813E0,-3.0440736E-1,-8.465721E-1,3.037099E-1,-2.2250852E-1,-1.976144E0,9.4852895E-1,3.124116E0,1.2302052E0,-2.9156032E-1,-1.3370235E0,2.7063257E-1,1.2109721E0,-1.7093942E0,-4.2000476E-1,1.8291096E-1,8.4050536E-1,-1.369613E-1,-8.4095895E-1,1.2824278E0,1.0434836E0,-2.4365997E-1,-1.6072592E0,-2.6966515E-1,-1.1140761E0,4.5389387E-1,6.497032E-1,1.751238E-1,-9.210455E-1,8.177852E-1,-1.6799595E0,-2.4804817E-1,-1.0533457E-1,-1.4700603E0,1.1290559E0,2.1277428E-2,-6.615734E-1,1.054336E0,1.4019625E0,-2.7750552E-1,-7.254276E-1,8.2529837E-1,5.456246E-1,-1.4236681E0,-1.2416365E0,-2.0514083E-1,-6.0742474E-1,-1.9842657E0,6.812785E-2,1.3420434E0,-6.383252E-1,3.3520472E0,-2.3279832E-1,-1.0750865E0,-5.3767616E-1,-2.184084E-2],"categories":[],"categories_nodes":[],"categories_segments":[],"categories_sizes":[],"default_left":[0,0,0,0,0,0,0,0,0,0,0,0,0,0,0,0,0,0,0,0,0,0,0,0,0,0,0,0,0,0,0,0,0,0,0,0,0,0,0,0,0,0,0,0,0,0,0,0,0,0,0,0,0,0,0,0,0,0,0,0,0,0,0,0,0,0,0,0,0,0,0,0,0,0,0,0,0,0,0,0,0,0,0,0,0,0,0,0,0,0,0,0,0,0,0,0,0,0,0,0,0,0,0,0,0,0,0,0,0,0,0,0,0,0,0],"id":14,"left_children":[1,3,5,7,9,11,13,15,17,19,21,23,25,27,29,31,33,35,37,39,41,43,45,47,49,51,-1,53,55,57,59,61,63,65,67,69,71,73,75,77,79,81,83,-1,85,87,89,91,93,95,97,-1,99,101,103,-1,105,107,109,111,113,-1,-1,-1,-1,-1,-1,-1,-1,-1,-1,-1,-1,-1,-1,-1,-1,-1,-1,-1,-1,-1,-1,-1,-1,-1,-1,-1,-1,-1,-1,-1,-1,-1,-1,-1,-1,-1,-1,-1,-1,-1,-1,-1,-1,-1,-1,-1,-1,-1,-1,-1,-1,-1,-1],"loss_changes":[1.8646165E2,2.736176E2,2.2693517E2,2.1199379E2,1.2990437E2,2.3203719E2,1.9737613E2,3.178057E2,3.9903613E2,1.0223486E2,1.6034967E2,1.851977E2,7.304678E1,1.7967816E2,1.9331721E2,3.899992E2,5.7711865E2,1.6004034E2,2.497299E2,6.908638E1,1.1179413E1,4.3825623E1,9.2030815E1,1.0206507E2,1.5707092E2,7.220788E1,0E0,1.8498396E2,5.35166E1,2.0698676E2,2.3317616E2,3.3084546E2,2.9262146E2,4.1254553E2,5.020041E2,6.889069E1,3.0565643E2,1.7915895E2,4.6492572E2,8.673335E1,4.3271694E1,1.0081177E1,2.5702772E1,0E0,2.0414734E-1,1.7853136E2,9.366475E1,1.5418289E1,8.734268E0,1.3413538E2,8.6996E1,0E0,4.0045937E1,2.1372461E2,1.79409E2,0E0,1.4788879E1,4.9328067E2,3.368393E2,1.8671072E2,1.790574E2,0E0,0E0,0E0,0E0,0E0,0E0,0E0,0E0,0E0,0E0,0E0,0E0,0E0,0E0,0E0,0E0,0E0,0E0,0E0,0E0,0E0,0E0,0E0,0E0,0E0,0E0,0E0,0E0,0E0,0E0,0E0,0E0,0E0,0E0,0E0,0E0,0E0,0E0,0E0,0E0,0E0,0E0,0E0,0E0,0E0,0E0,0E0,0E0,0E0,0E0,0E0,0E0,0E0,0E0],"parents":[2147483647,0,0,1,1,2,2,3,3,4,4,5,5,6,6,7,7,8,8,9,9,10,10,11,11,12,12,13,13,14,14,15,15,16,16,17,17,18,18,19,19,20,20,21,21,22,22,23,23,24,24,25,25,27,27,28,28,29,29,30,30,31,31,32,32,33,33,34,34,35,35,36,36,37,37,38,38,39,39,40,40,41,41,42,42,44,44,45,45,46,46,47,47,48,48,49,49,50,50,52,52,53,53,54,54,56,56,57,57,58,58,59,59,60,60],"right_children":[2,4,6,8,10,12,14,16,18,20,22,24,26,28,30,32,34,36,38,40,42,44,46,48,50,52,-1,54,56,58,60,62,64,66,68,70,72,74,76,78,80,82,84,-1,86,88,90,92,94,96,98,-1,100,102,104,-1,106,108,110,112,114,-1,-1,-1,-1,-1,-1,-1,-1,-1,-1,-1,-1,-1,-1,-1,-1,-1,-1,-1,-1,-1,-1,-1,-1,-1,-1,-1,-1,-1,-1,-1,-1,-1,-1,-1,-1,-1,-1,-1,-1,-1,-1,-1,-1,-1,-1,-1,-1,-1,-1,-1,-1,-1,-1],"split_conditions":[2.1339902E2,1.0200001E1,1.0464797E1,1.1584167E1,1.116125E1,3E-1,3.74875E0,9.669583E0,1.2144582E1,2.9E1,1.2E1,2.1E1,3.7E1,2.6072052E1,9.482082E0,9.06125E0,8.515499E1,2.6E1,4E-1,3.5E1,2.0099997E1,1.5192682E1,3.1E1,2.7649924E2,5.975834E0,2.4E1,2.851198E0,2.8E1,8E0,4.8E1,1.0934166E1,1.6E1,5E1,6.3294598E1,2.5E1,1.5809431E2,4.6730682E1,1.0799433E2,1.9000002E0,2.13E1,8.232682E1,6.2E1,3.7E1,2.346472E0,4.3E1,1.9E1,4.5E1,2.4654167E0,1.6E1,4.7E1,3.147684E2,1.8781222E0,3.3E1,1.7000002E0,3.9E1,2.6858282E-1,2E-1,4E1,1.3000001E1,2.7E1,1.5E1,-8.465721E-1,3.037099E-1,-2.2250852E-1,-1.976144E0,9.4852895E-1,3.124116E0,1.2302052E0,-2.9156032E-1,-1.3370235E0,2.7063257E-1,1.2109721E0,-1.7093942E0,-4.2000476E-1,1.8291096E-1,8.4050536E-1,-1.369613E-1,-8.4095895E-1,1.2824278E0,1.0434836E0,-2.4365997E-1,-1.6072592E0,-2.6966515E-1,-1.1140761E0,4.5389387E-1,6.497032E-1,1.751238E-1,-9.210455E-1,8.177852E-1,-1.6799595E0,-2.4804817E-1,-1.0533457E-1,-1.4700603E0,1.1290559E0,2.1277428E-2,-6.615734E-1,1.054336E0,1.4019625E0,-2.7750552E-1,-7.254276E-1,8.2529837E-1,5.456246E-1,-1.4236681E0,-1.2416365E0,-2.0514083E-1,-6.0742474E-1,-1.9842657E0,6.812785E-2,1.3420434E0,-6.383252E-1,3.3520472E0,-2.3279832E-1,-1.0750865E0,-5.3767616E-1,-2.184084E-2],"split_indices":[6,4,5,3,3,4,3,3,3,0,4,0,0,5,3,3,6,0,4,2,4,5,2,6,3,1,0,1,2,0,3,2,0,6,2,6,6,6,4,4,6,0,0,0,2,2,2,3,0,2,6,0,0,4,1,0,4,0,4,0,2,0,0,0,0,0,0,0,0,0,0,0,0,0,0,0,0,0,0,0,0,0,0,0,0,0,0,0,0,0,0,0,0,0,0,0,0,0,0,0,0,0,0,0,0,0,0,0,0,0,0,0,0,0,0],"split_type":[0,0,0,0,0,0,0,0,0,0,0,0,0,0,0,0,0,0,0,0,0,0,0,0,0,0,0,0,0,0,0,0,0,0,0,0,0,0,0,0,0,0,0,0,0,0,0,0,0,0,0,0,0,0,0,0,0,0,0,0,0,0,0,0,0,0,0,0,0,0,0,0,0,0,0,0,0,0,0,0,0,0,0,0,0,0,0,0,0,0,0,0,0,0,0,0,0,0,0,0,0,0,0,0,0,0,0,0,0,0,0,0,0,0,0],"sum_hessian":[2.206E3,1.042E3,1.164E3,9.52E2,9E1,5.5E1,1.109E3,5.58E2,3.94E2,4.4E1,4.6E1,4.5E1,1E1,1.05E2,1.004E3,4.36E2,1.22E2,3.9E1,3.55E2,3E1,1.4E1,9E0,3.7E1,1E1,3.5E1,7E0,3E0,9.4E1,1.1E1,3.88E2,6.16E2,3.94E2,4.2E1,3.8E1,8.4E1,1.3E1,2.6E1,1.81E2,1.74E2,2.2E1,8E0,1.2E1,2E0,1E0,8E0,2E1,1.7E1,8E0,2E0,1.7E1,1.8E1,3E0,4E0,3.3E1,6.1E1,1E0,1E1,3.41E2,4.7E1,9.7E1,5.19E2,2.3E1,3.71E2,3.1E1,1.1E1,2.7E1,1.1E1,2.9E1,5.5E1,2E0,1.1E1,3E0,2.3E1,1.06E2,7.5E1,8.3E1,9.1E1,2.1E1,1E0,3E0,5E0,1.1E1,1E0,1E0,1E0,7E0,1E0,8E0,1.2E1,6E0,1.1E1,1E0,7E0,1E0,1E0,1.2E1,5E0,1.5E1,3E0,2E0,2E0,2.8E1,5E0,2.6E1,3.5E1,2E0,8E0,3.12E2,2.9E1,4.6E1,1E0,5.6E1,4.1E1,6.9E1,4.5E2],"tree_param":{"num_deleted":"0","num_feature":"7","num_nodes":"115","size_leaf_vector":"1"}},{"base_weights":[1.0673254E-2,-6.414156E-2,9.554907E-1,-4.668446E-2,-4.0100765E0,3.187058E0,3.5991874E-1,3.8486848E0,-6.2005125E-2,-1.8544799E0,-1.0365387E0,4.9523816E0,-9.5428985E-1,1.5798156E-1,1.9892882E0,3.2456956E0,1.3073584E0,4.747274E-3,-9.9215615E-1,-2.9094315E0,9.6825486E-1,5.756563E0,-5.0766563E-1,-2.872854E0,1.5358498E0,-1.9394124E0,8.050314E-1,-3.6285287E-1,2.5560074E0,-1.5197532E-1,4.1215754E-1,-2.1231565E0,7.317022E-2,-1.0069544E0,-2.352273E-1,1.0074178E1,3.7776723E0,-6.6720086E-1,2.4173433E-1,-4.954124E0,2.9017925E-1,9.4790155E-1,-3.2219708E0,3.4787178E-1,3.7322264E0,2.1395245E-1,8.5152656E-1,-1.6965669E0,-3.708643E-2,-4.3563786E-1,2.7563658E-1,-1.06563054E-1,-1.2698555E0,5.6276065E-1,-7.35914E-1,3.9123576E0,-7.141331E-1,-1.1868187E-1,1.5605197E0,4.0200865E-1,-1.944288E0,-8.34837E-1,2.171891E0,-1.3466878E0,2.0809843E-1,1.9939905E-1,-1.869998E0,1.4770778E0,-5.37735E-2],"categories":[],"categories_nodes":[],"categories_segments":[],"categories_sizes":[],"default_left":[0,0,0,0,0,0,0,0,0,0,0,0,0,0,0,0,0,0,0,0,0,0,0,0,0,0,0,0,0,0,0,0,0,0,0,0,0,0,0,0,0,0,0,0,0,0,0,0,0,0,0,0,0,0,0,0,0,0,0,0,0,0,0,0,0,0,0,0,0],"id":15,"left_children":[1,3,5,7,9,11,13,15,17,-1,19,21,23,25,-1,-1,27,29,31,33,-1,35,37,39,-1,41,43,-1,45,47,49,51,53,-1,-1,55,57,-1,-1,59,-1,61,63,65,67,-1,-1,-1,-1,-1,-1,-1,-1,-1,-1,-1,-1,-1,-1,-1,-1,-1,-1,-1,-1,-1,-1,-1,-1],"loss_changes":[1.5606602E2,1.4075061E2,2.1416045E2,1.2186576E2,5.1706467E1,2.5329385E2,1.6231241E2,1.2756617E2,1.26109116E2,0E0,4.9320824E1,1.0830322E2,1.4289006E2,1.725582E2,0E0,0E0,2.509031E1,1.21122986E2,1.6401962E2,1.1690063E0,0E0,1.4136896E2,1.0809328E1,7.672285E1,0E0,1.14148575E2,1.285066E2,0E0,5.77919E-1,2.1307361E2,4.9908783E2,2.446651E2,3.279361E2,0E0,0E0,2.527619E2,9.714583E1,0E0,0E0,6.6345505E1,0E0,2.5487161E2,1.0729613E2,1.8135693E2,6.1462463E1,0E0,0E0,0E0,0E0,0E0,0E0,0E0,0E0,0E0,0E0,0E0,0E0,0E0,0E0,0E0,0E0,0E0,0E0,0E0,0E0,0E0,0E0,0E0,0E0],"parents":[2147483647,0,0,1,1,2,2,3,3,4,4,5,5,6,6,7,7,8,8,10,10,11,11,12,12,13,13,16,16,17,17,18,18,19,19,21,21,22,22,23,23,25,25,26,26,28,28,29,29,30,30,31,31,32,32,35,35,36,36,39,39,41,41,42,42,43,43,44,44],"right_children":[2,4,6,8,10,12,14,16,18,-1,20,22,24,26,-1,-1,28,30,32,34,-1,36,38,40,-1,42,44,-1,46,48,50,52,54,-1,-1,56,58,-1,-1,60,-1,62,64,66,68,-1,-1,-1,-1,-1,-1,-1,-1,-1,-1,-1,-1,-1,-1,-1,-1,-1,-1,-1,-1,-1,-1,-1,-1],"split_conditions":[6.3E1,3.5844482E2,6.7E1,-1.8595835E0,1.1932082E1,1.1500833E1,3.431131E2,4.378982E1,5.7E1,-1.8544799E0,2.9E1,2.4627787E1,2.3749088E1,7.1E1,1.9892882E0,3.2456956E0,1.3039754E1,3.5E1,5.7E1,3.1E1,9.6825486E-1,8.024763E1,6.5E1,2.1024E2,1.5358498E0,5.3487496E0,5.3999996E0,-3.6285287E-1,2.3E1,-8.783334E-1,5.5175E0,4.6E1,9.790417E0,-1.0069544E0,-2.352273E-1,1.06E2,1.4508885E2,-6.6720086E-1,2.4173433E-1,8.905908E0,2.9017925E-1,1.5696165E1,1.7219584E1,4.7E0,1.25E1,2.1395245E-1,8.5152656E-1,-1.6965669E0,-3.708643E-2,-4.3563786E-1,2.7563658E-1,-1.06563054E-1,-1.2698555E0,5.6276065E-1,-7.35914E-1,3.9123576E0,-7.141331E-1,-1.1868187E-1,1.5605197E0,4.0200865E-1,-1.944288E0,-8.34837E-1,2.171891E0,-1.3466878E0,2.0809843E-1,1.9939905E-1,-1.869998E0,1.4770778E0,-5.37735E-2],"split_indices":[0,6,0,3,3,3,6,6,1,0,1,5,5,0,0,0,5,0,2,2,0,6,0,6,0,3,4,0,2,3,3,2,3,0,0,1,6,0,0,5,0,5,3,4,4,0,0,0,0,0,0,0,0,0,0,0,0,0,0,0,0,0,0,0,0,0,0,0,0],"split_type":[0,0,0,0,0,0,0,0,0,0,0,0,0,0,0,0,0,0,0,0,0,0,0,0,0,0,0,0,0,0,0,0,0,0,0,0,0,0,0,0,0,0,0,0,0,0,0,0,0,0,0,0,0,0,0,0,0,0,0,0,0,0,0,0,0,0,0,0,0],"sum_hessian":[2.206E3,2.045E3,1.61E2,2.037E3,8E0,3.3E1,1.28E2,7E0,2.03E3,4E0,4E0,2.3E1,1E1,1.25E2,3E0,1E0,6E0,1.895E3,1.35E2,3E0,1E0,2E1,3E0,8E0,2E0,2.9E1,9.6E1,2E0,4E0,1.369E3,5.26E2,6.5E1,7E1,2E0,1E0,5E0,1.5E1,1E0,2E0,5E0,3E0,9E0,2E1,8.4E1,1.2E1,1E0,3E0,6E0,1.363E3,1.12E2,4.14E2,3.6E1,2.9E1,4.1E1,2.9E1,4E0,1E0,4E0,1.1E1,1E0,4E0,6E0,3E0,1.5E1,5E0,8.1E1,3E0,9E0,3E0],"tree_param":{"num_deleted":"0","num_feature":"7","num_nodes":"69","size_leaf_vector":"1"}},{"base_weights":[9.653486E-3,3.0930832E-3,2.1722856E0,-6.93287E-2,6.196014E-1,-3.199983E-2,-2.5731215E0,-5.950422E0,7.609634E-1,-7.2537616E-2,2.1218958E0,-4.642987E0,6.1351933E0,-2.037649E0,-3.875187E-1,6.7871466E0,3.3501142E-1,4.55515E0,-8.462666E-2,1.2497972E0,4.8968024E0,-7.250372E0,-9.024069E-1,8.184454E0,-6.166666E-1,1.1459474E1,1.2664266E0,-9.4175494E-1,8.045493E-1,2.758841E0,3.2876074E-1,-1.9664155E-2,-7.010035E-1,1.8519522E0,-6.979244E-1,-5.633221E-1,-3.007959E0,1.3773154E0,-5.732574E-1,2.7868366E-1,2.9298286E0,8.477789E0,1.5067371E0,-4.4843647E-1,9.66634E-1,-9.00575E-1,4.6043932E-1,3.1266658E0,1.2588339E-1],"categories":[],"categories_nodes":[],"categories_segments":[],"categories_sizes":[],"default_left":[0,0,0,0,0,0,0,0,0,0,0,0,0,0,0,0,0,0,0,0,0,0,0,0,0,0,0,0,0,0,0,0,0,0,0,0,0,0,0,0,0,0,0,0,0,0,0,0,0],"id":16,"left_children":[1,3,-1,5,7,9,11,13,15,17,19,21,23,-1,-1,25,27,29,31,33,-1,35,37,39,-1,41,43,45,47,-1,-1,-1,-1,-1,-1,-1,-1,-1,-1,-1,-1,-1,-1,-1,-1,-1,-1,-1,-1],"loss_changes":[1.04678185E2,9.853785E1,0E0,1.845086E2,2.199983E2,1.7015459E2,5.5121173E2,1.083342E1,5.829713E2,1.07351036E2,4.254412E2,2.2753241E2,1.1753349E2,0E0,0E0,3.7240656E2,1.2904857E2,7.019461E1,8.182973E1,6.306077E2,0E0,1.8998657E2,6.971156E1,4.830591E1,0E0,7.231948E2,4.8016945E1,3.0052902E2,5.768731E2,0E0,0E0,0E0,0E0,0E0,0E0,0E0,0E0,0E0,0E0,0E0,0E0,0E0,0E0,0E0,0E0,0E0,0E0,0E0,0E0],"parents":[2147483647,0,0,1,1,3,3,4,4,5,5,6,6,7,7,8,8,9,9,10,10,11,11,12,12,15,15,16,16,17,17,18,18,19,19,21,21,22,22,23,23,25,25,26,26,27,27,28,28],"right_children":[2,4,-1,6,8,10,12,14,16,18,20,22,24,-1,-1,26,28,30,32,34,-1,36,38,40,-1,42,44,46,48,-1,-1,-1,-1,-1,-1,-1,-1,-1,-1,-1,-1,-1,-1,-1,-1,-1,-1,-1,-1],"split_conditions":[3.52E1,5.9E1,2.1722856E0,5.6E1,2.7E1,5.4E1,2.3999999E0,2.1E1,3.6E1,-1.8595835E0,2.9495842E1,1.0744582E1,2.5509243E1,-2.037649E0,-3.875187E-1,1.0152088E2,6.53362E1,7.754637E0,5.3E1,4.3E1,4.8968024E0,2.84875E0,8.217153E0,5.7E1,-6.166666E-1,6.1E1,2.4E1,7.2E1,6.905465E1,2.758841E0,3.2876074E-1,-1.9664155E-2,-7.010035E-1,1.8519522E0,-6.979244E-1,-5.633221E-1,-3.007959E0,1.3773154E0,-5.732574E-1,2.7868366E-1,2.9298286E0,8.477789E0,1.5067371E0,-4.4843647E-1,9.66634E-1,-9.00575E-1,4.6043932E-1,3.1266658E0,1.2588339E-1],"split_indices":[4,0,0,0,1,0,4,2,1,3,5,3,5,0,0,6,6,5,0,1,0,3,5,0,0,0,2,0,6,0,0,0,0,0,0,0,0,0,0,0,0,0,0,0,0,0,0,0,0],"split_type":[0,0,0,0,0,0,0,0,0,0,0,0,0,0,0,0,0,0,0,0,0,0,0,0,0,0,0,0,0,0,0,0,0,0,0,0,0,0,0,0,0,0,0,0,0,0,0,0,0],"sum_hessian":[2.206E3,2.205E3,1E0,1.974E3,2.31E2,1.946E3,2.8E1,4E0,2.27E2,1.911E3,3.5E1,2.3E1,5E0,3E0,1E0,1.4E1,2.13E2,4E0,1.907E3,3.4E1,1E0,1.3E1,1E1,4E0,1E0,7E0,7E0,5.7E1,1.56E2,1E0,3E0,1.892E3,1.5E1,1.4E1,2E1,5E0,8E0,1E0,9E0,1E0,3E0,1E0,6E0,3E0,4E0,3.1E1,2.6E1,5E0,1.51E2],"tree_param":{"num_deleted":"0","num_feature":"7","num_nodes":"49","size_leaf_vector":"1"}},{"base_weights":[1.6411E-2,-7.622548E-1,6.791308E-2,-2.0250964E0,1.9052884E-1,3.5777705E0,4.2285576E-2,-2.6725662E0,-1.17985964E-1,-2.87356E0,9.53574E-1,5.823505E0,-7.614158E-1,1.5573255E-2,1.4240776E0,-6.4142865E-1,-3.414198E0,3.3338444E0,-1.1710118E0,-2.1802712E-2,-3.8223286E0,1.718164E0,-1.8998305E0,6.875415E0,-5.465524E-1,1.1155968E0,-1.9788213E0,8.612466E-2,-7.6226467E-1,-2.0185575E0,3.9067178E0,-1.4893935E0,1.4301224E0,-1.737715E0,-4.7912292E0,1.6404064E0,-4.6030286E-1,-3.1435552E0,5.4958027E-2,-7.480774E-1,3.658627E-1,-1.4127501E0,-8.7136054E-1,4.253146E0,8.291144E-1,6.944084E-1,-2.670478E0,5.852515E-1,8.588997E0,-3.448743E-1,8.468929E-1,-1.115779E-1,-7.1714324E-1,4.519598E-2,1.2106532E0,2.880665E-1,-1.5723935E0,1.7412271E0,-3.730237E0,6.079926E0,-9.2803824E-1,3.2762948E-1,-6.3447046E-1,-1.3228798E-1,-1.3507153E0,-8.909027E-1,-1.8241273E0,-1.3820156E0,-1.8976203E-1,5.398153E-1,-3.3514577E-1,1.0637856E-2,-3.5563615E-1,2.5404168E-2,2.344206E0,4.5956346E-1,-5.05092E-1,3.0540162E-1,-4.145737E-2,-1.1755484E0,1.479523E-1,2.3680802E-1,2.6555158E-2,2.749486E0,7.6998883E-1,2.320536E-1,-1.3025249E-2,2.1769037E0,7.044919E-2,4.0279293E-1,-6.796795E-1,-8.241754E-1,-2.7082667E-1,1.2152399E0,-5.7558346E-1,1.4495648E0,-1.4843621E0,-1.1939535E-1,2.281633E0,-1.0409813E0,1.339532E0],"categories":[],"categories_nodes":[],"categories_segments":[],"categories_sizes":[],"default_left":[0,0,0,0,0,0,0,0,0,0,0,0,0,0,0,0,0,0,0,0,0,0,0,0,0,0,0,0,0,0,0,0,0,0,0,0,0,0,0,0,0,0,0,0,0,0,0,0,0,0,0,0,0,0,0,0,0,0,0,0,0,0,0,0,0,0,0,0,0,0,0,0,0,0,0,0,0,0,0,0,0,0,0,0,0,0,0,0,0,0,0,0,0,0,0,0,0,0,0,0,0],"id":17,"left_children":[1,3,5,7,9,11,13,15,17,19,21,23,25,27,29,31,33,35,37,39,41,43,45,47,-1,49,51,53,55,57,59,61,-1,63,65,-1,-1,67,69,-1,-1,-1,71,73,75,77,79,81,83,-1,-1,-1,-1,85,87,89,91,93,95,97,99,-1,-1,-1,-1,-1,-1,-1,-1,-1,-1,-1,-1,-1,-1,-1,-1,-1,-1,-1,-1,-1,-1,-1,-1,-1,-1,-1,-1,-1,-1,-1,-1,-1,-1,-1,-1,-1,-1,-1,-1],"loss_changes":[8.855888E1,1.6522626E2,1.8613283E2,7.253766E1,1.8744516E2,1.5060402E2,7.590348E1,6.408969E1,6.206183E1,4.3207184E1,1.4289201E2,9.294806E1,1.5918078E1,1.10863434E2,3.4121207E2,6.672092E1,6.554843E1,4.99481E1,3.1610384E1,1.8382751E1,2.730101E1,1.11413635E2,2.9843822E1,9.198169E1,0E0,1.4847793E1,1.7568731E0,8.518445E1,1.4340475E2,1.1589948E2,2.4730182E2,2.1686611E1,0E0,5.5376217E1,2.1864868E1,0E0,0E0,1.5456192E1,2.0412132E1,0E0,0E0,0E0,1.18134E0,1.9230223E2,7.144815E1,1.2183863E0,4.53637E1,2.3429108E-1,7.573242E-1,0E0,0E0,0E0,0E0,1.1542861E2,3.8176495E2,2.0232648E2,7.2259186E1,5.8487885E1,1.4901413E2,1.6114136E2,1.2516428E2,0E0,0E0,0E0,0E0,0E0,0E0,0E0,0E0,0E0,0E0,0E0,0E0,0E0,0E0,0E0,0E0,0E0,0E0,0E0,0E0,0E0,0E0,0E0,0E0,0E0,0E0,0E0,0E0,0E0,0E0,0E0,0E0,0E0,0E0,0E0,0E0,0E0,0E0,0E0,0E0],"parents":[2147483647,0,0,1,1,2,2,3,3,4,4,5,5,6,6,7,7,8,8,9,9,10,10,11,11,12,12,13,13,14,14,15,15,16,16,17,17,18,18,19,19,20,20,21,21,22,22,23,23,25,25,26,26,27,27,28,28,29,29,30,30,31,31,33,33,34,34,37,37,38,38,42,42,43,43,44,44,45,45,46,46,47,47,48,48,53,53,54,54,55,55,56,56,57,57,58,58,59,59,60,60],"right_children":[2,4,6,8,10,12,14,16,18,20,22,24,26,28,30,32,34,36,38,40,42,44,46,48,-1,50,52,54,56,58,60,62,-1,64,66,-1,-1,68,70,-1,-1,-1,72,74,76,78,80,82,84,-1,-1,-1,-1,86,88,90,92,94,96,98,100,-1,-1,-1,-1,-1,-1,-1,-1,-1,-1,-1,-1,-1,-1,-1,-1,-1,-1,-1,-1,-1,-1,-1,-1,-1,-1,-1,-1,-1,-1,-1,-1,-1,-1,-1,-1,-1,-1,-1,-1],"split_conditions":[1.4E1,2.2415602E1,1E1,2.1E1,1.2E1,9.175834E0,4.098628E1,1E-1,2.4E1,8E0,3.5281837E1,3.888E1,1.1446667E1,3.2682766E1,2.2E1,3.105153E2,1.3134167E1,4.2E0,9.482082E0,1E1,1.2E1,1.1E1,1.3000001E0,8E0,-5.465524E-1,1.9E1,1.6904673E1,3.0928587E1,2.4E1,1.7E1,3.5E1,5.763334E0,1.4301224E0,2.4E1,1.7E1,1.6404064E0,-4.6030286E-1,2.494912E2,1.1807082E1,-7.480774E-1,3.658627E-1,-1.4127501E0,9E0,1.9E1,3.1E1,1.1E1,4.4162773E1,1.5E1,1.8E0,-3.448743E-1,8.468929E-1,-1.115779E-1,-7.1714324E-1,1.7E1,3.1056128E1,2.7E1,7.9216657E0,1.1309166E1,6.31125E0,7.002916E0,4.6329636E1,3.2762948E-1,-6.3447046E-1,-1.3228798E-1,-1.3507153E0,-8.909027E-1,-1.8241273E0,-1.3820156E0,-1.8976203E-1,5.398153E-1,-3.3514577E-1,1.0637856E-2,-3.5563615E-1,2.5404168E-2,2.344206E0,4.5956346E-1,-5.05092E-1,3.0540162E-1,-4.145737E-2,-1.1755484E0,1.479523E-1,2.3680802E-1,2.6555158E-2,2.749486E0,7.6998883E-1,2.320536E-1,-1.3025249E-2,2.1769037E0,7.044919E-2,4.0279293E-1,-6.796795E-1,-8.241754E-1,-2.7082667E-1,1.2152399E0,-5.7558346E-1,1.4495648E0,-1.4843621E0,-1.1939535E-1,2.281633E0,-1.0409813E0,1.339532E0],"split_indices":[0,5,1,1,1,3,5,4,1,1,5,5,3,5,1,6,3,4,3,0,0,0,4,2,0,0,5,5,1,2,0,3,0,2,2,0,0,6,3,0,0,0,1,2,2,0,5,0,4,0,0,0,0,1,5,2,3,3,3,3,5,0,0,0,0,0,0,0,0,0,0,0,0,0,0,0,0,0,0,0,0,0,0,0,0,0,0,0,0,0,0,0,0,0,0,0,0,0,0,0,0],"split_type":[0,0,0,0,0,0,0,0,0,0,0,0,0,0,0,0,0,0,0,0,0,0,0,0,0,0,0,0,0,0,0,0,0,0,0,0,0,0,0,0,0,0,0,0,0,0,0,0,0,0,0,0,0,0,0,0,0,0,0,0,0,0,0,0,0,0,0,0,0,0,0,0,0,0,0,0,0,0,0,0,0,0,0,0,0,0,0,0,0,0,0,0,0,0,0,0,0,0,0,0,0],"sum_hessian":[2.206E3,1.36E2,2.07E3,5.8E1,7.8E1,1.4E1,2.056E3,4.3E1,1.5E1,1.5E1,6.3E1,9E0,5E0,2.018E3,3.8E1,1.2E1,3.1E1,3E0,1.2E1,4E0,1.1E1,5E1,1.3E1,8E0,1E0,2E0,3E0,1.851E3,1.67E2,1.6E1,2.2E1,1.1E1,1E0,1.5E1,1.6E1,2E0,1E0,4E0,8E0,1E0,3E0,8E0,3E0,1.2E1,3.8E1,3E0,1E1,2E0,6E0,1E0,1E0,1E0,2E0,1.787E3,6.4E1,7.3E1,9.4E1,5E0,1.1E1,1.5E1,7E0,2E0,9E0,1.1E1,4E0,8E0,8E0,2E0,2E0,3E0,5E0,1E0,2E0,6E0,6E0,3E1,8E0,2E0,1E0,7E0,3E0,1E0,1E0,5E0,1E0,1.93E2,1.594E3,8E0,5.6E1,5.2E1,2.1E1,3.3E1,6.1E1,3E0,2E0,1E0,1E1,3E0,1.2E1,5E0,2E0],"tree_param":{"num_deleted":"0","num_feature":"7","num_nodes":"101","size_leaf_vector":"1"}},{"base_weights":[1.2949802E-2,3.1981656E-1,-1.0713665E-1,1.6337214E-1,2.7157042E0,-7.911649E-2,-2.5451655E0,-1.7913865E-1,9.3311375E-1,-7.3428845E-1,4.1484523E0,-1.3121447E-1,1.1488642E0,-3.503213E0,6.464001E-1,-8.325766E-1,4.6242315E-1,3.7068892E0,3.5455175E-2,-2.9177303E0,1.2421315E0,8.011442E-1,7.199443E0,-1.3041095E0,-5.8435615E-2,2.0941432E0,-7.509476E-1,-4.0980864E0,6.345211E-1,3.5244298E-1,-2.2008592E-1,3.2586074E0,-9.453597E-1,-3.3514755E0,7.595229E-1,2.0324547E0,1.226712E1,-4.25838E0,4.4411045E-1,-1.0802122E0,7.457314E-2,-5.026643E-1,2.6763945E0,2.2178586E0,-9.135472E-1,3.5331466E0,4.1906424E0,-3.045287E-1,-4.289009E0,4.3408904E0,-8.957298E-2,6.607462E-1,4.7257676E0,-1.85275E0,3.3657303E0,-4.4147463E0,-4.4724658E-2,3.0231068E-1,-5.1926994E-1,5.766343E-1,-1.6331646E0,-5.045255E-1,3.7290925E-1,1.1825813E0,-1.3674951E0,7.586125E-1,7.3226304E0,1.000165E0,-1.5754999E0,4.6720502E-1,-2.9257464E-1,4.6813947E-1,-5.1315874E-1,9.387929E-1,1.9764748E-1,1.8737155E-1,-9.575485E-1,1.5006584E0,-4.669988E-1,3.8762486E-1,-1.024528E0,-2.0859833E0,-4.4680384E-1,-4.6072885E-1,3.157409E0,-5.4262288E-2,2.2022074E-1,3.758022E-1,-1.0055909E0,1.6091839E0,-6.313099E-1,6.63523E-1,-8.4392947E-1,6.2004663E-2,1.2311466E0,-4.5774728E-1,-1.4519845E0],"categories":[],"categories_nodes":[],"categories_segments":[],"categories_sizes":[],"default_left":[0,0,0,0,0,0,0,0,0,0,0,0,0,0,0,0,0,0,0,0,0,0,0,0,0,0,0,0,0,0,0,0,0,0,0,0,0,0,0,0,0,0,0,0,0,0,0,0,0,0,0,0,0,0,0,0,0,0,0,0,0,0,0,0,0,0,0,0,0,0,0,0,0,0,0,0,0,0,0,0,0,0,0,0,0,0,0,0,0,0,0,0,0,0,0,0,0],"id":18,"left_children":[1,3,5,7,9,11,13,15,17,19,21,23,25,27,29,31,33,35,37,39,41,43,45,47,49,51,53,55,-1,-1,-1,-1,57,59,61,63,65,67,69,-1,-1,71,73,-1,75,-1,77,79,81,83,85,87,89,91,93,95,-1,-1,-1,-1,-1,-1,-1,-1,-1,-1,-1,-1,-1,-1,-1,-1,-1,-1,-1,-1,-1,-1,-1,-1,-1,-1,-1,-1,-1,-1,-1,-1,-1,-1,-1,-1,-1,-1,-1,-1,-1],